tree
version=v4
num_class=1
num_tree_per_iteration=1
label_index=0
max_feature_idx=21
objective=regression
feature_names=return_1d return_3d return_5d return_10d return_20d rsi_14 macd macd_signal macd_diff sma_7 sma_14 sma_30 ema_7 ema_14 rate_vs_sma7 rate_vs_sma14 bb_upper bb_lower bb_width day_of_week day_of_month month
feature_infos=[-1.8461385350318382:3.4479351906737676] [-2.6894158473105834:4.9891325824935828] [-3.0405080342538082:5.3638707118778495] [-4.271989553213329:8.3215547703180182] [-6.8415136755339168:8.5971254739440894] [15.47652237924639:87.35199676419434] [-0.017043302013971529:0.026573361868646783] [-0.015317014804385881:0.02237870964237897] [-0.0060691188565700892:0.0078440570859191587] [0.99699285714285713:1.300057142857143] [0.99998999999999982:1.2962500000000001] [1.0047786666666667:1.2920233333333333] [0.99711407779414352:1.2979127765543046] [1.0012425342600215:1.2942266752484395] [-1.853450825004431:3.5701358557949807] [-2.834845882305197:5.8419540584195264] [1.0125946677469577:1.3199512273364176] [0.96761274215511051:1.2823658591319678] [0.0094928647424803465:0.13308632937833217] [0:4] [1:31] [1:12]
tree_sizes=2660 2895 2877 2896 2906 2894 2884 2896 2904 2898 2909 2901 2893 2917 2910 2915 2948 2923 2941 2944 2919 2923 2926 2933 2937 2935 2947 2937 2925 2936 2954 2949 2962 2967 2965 2968 2971

Tree=0
num_leaves=31
num_cat=0
split_feature=12 12 12 17 12 11 5 12 12 12 12 17 12 2 15 5 5 7 15 12 15 12 12 12 12 3 16 1 20 1
split_gain=3.56552 0.688823 0.244425 0.18111 0.120104 0.044287 0.0246286 0.0179416 0.0178732 0.0137632 0.00771467 0.00616423 0.00541851 0.00367339 0.00279343 0.00259214 0.00255081 0.00249585 0.00195557 0.00151474 0.00145555 0.00128942 0.00109935 0.000961098 0.000786048 0.00074759 0.000611466 0.000581933 0.000568347 0.000554956
threshold=1.1701014103202851 1.0937453090478053 1.058606324139941 1.1920905837598685 1.1265651154105141 1.2573516666666669 51.349622596519239 1.1819565842831306 1.1465905391114093 1.1085118086844343 1.0801583291107471 1.0029128836303438 1.2471964187254176 0.51474609635550073 0.64257115782603302 57.933123348950929 45.681457628433655 0.0034484960786972311 0.10473505198704157 1.0870580964845649 -0.11402643703477618 1.1338496398597815 1.116025214764522 1.2402854186902599 1.113688565316272 -0.71704144433772921 1.1092640330029921 -0.34950033383717155 9.5000000000000018 -0.29567085877894023
decision_type=2 2 2 2 2 2 2 2 2 2 2 2 2 2 2 2 2 2 2 2 2 2 2 2 2 2 2 2 2 2
left_child=1 2 6 7 9 12 11 -2 17 16 20 -1 23 27 24 -8 28 -6 -14 25 -4 -19 -16 -5 -11 -12 -18 -10 -3 -21
right_child=3 4 10 5 8 -7 15 -9 13 14 19 -13 18 -15 22 -17 26 21 -20 29 -22 -23 -24 -25 -26 -27 -28 -29 -30 -31
leaf_value=1.1214648772136642 1.1299743595073954 1.1261163918250732 1.1245233486380353 1.1329052168599425 1.1276804670577236 1.1356379669379848 1.1230007257863872 1.1316519667242129 1.1285093240296431 1.1265802887418404 1.125015936465094 1.1223721885984135 1.1335099519038585 1.1295178006250817 1.1269815502442826 1.1237230608071243 1.1261952547305754 1.1278993241057207 1.1340299252640862 1.1253856338904955 1.1249750383808728 1.128447072401819 1.1275058005143193 1.1333184763439625 1.1268730695010516 1.1253495185722386 1.1265422997098822 1.1288773003745554 1.1257954763609719 1.1256833564586102
leaf_weight=39 34 22 31 24 60 30 27 30 21 41 22 36 33 20 20 23 22 21 40 24 42 22 20 34 52 71 30 22 37 45
leaf_count=39 34 22 31 24 60 30 27 30 21 41 22 36 33 20 20 23 22 21 40 24 42 22 20 34 52 71 30 22 37 45
internal_value=1.12744 1.12586 1.12426 1.13301 1.12726 1.13391 1.12247 1.13076 1.12829 1.12655 1.12521 1.1219 1.13351 1.12896 1.12689 1.12333 1.12614 1.12789 1.13379 1.1254 1.12478 1.12818 1.12724 1.13315 1.12674 1.12527 1.1264 1.1287 1.12592 1.12558
internal_weight=0 770 360 225 410 161 125 64 166 244 235 75 131 63 133 50 111 103 73 162 73 43 40 58 93 93 52 43 59 69
internal_count=995 770 360 225 410 161 125 64 166 244 235 75 131 63 133 50 111 103 73 162 73 43 40 58 93 93 52 43 59 69
is_linear=0
shrinkage=1


Tree=1
num_leaves=31
num_cat=0
split_feature=12 12 12 13 12 11 12 12 12 12 12 12 7 12 3 15 15 15 7 15 15 7 15 12 1 12 16 1 9 15
split_gain=3.21821 0.596408 0.229267 0.225528 0.042151 0.0404962 0.026821 0.0231196 0.0221089 0.0101478 0.00617806 0.0052752 0.00388582 0.003507 0.0032155 0.00297833 0.00283573 0.00252107 0.0022525 0.0017649 0.00164532 0.00130304 0.00116485 0.0011637 0.00115199 0.000992166 0.0009827 0.000898386 0.000710509 0.000483249
threshold=1.1585355537375908 1.0686207275859603 1.1085118086844343 1.2137735521674669 1.1265651154105141 1.2573516666666669 1.027283097816212 1.1819565842831306 1.0912830579892272 1.1465905391114093 1.0471784713501264 1.2471964187254176 -0.0046455515180255985 1.0801583291107471 1.0655831750225777 -0.061190905099623563 0.40135353558535575 0.64257115782603302 0.0034484960786972311 0.10473505198704157 -0.13228857609408837 -0.00038118914586051641 -0.11402643703477618 1.1338496398597815 -0.01803517162229373 1.116025214764522 1.1092640330029921 -0.012321437913942466 1.1197428571428574 0.010845249891624902
decision_type=2 2 2 2 2 2 2 2 2 2 2 2 2 2 2 2 2 2 2 2 2 2 2 2 2 2 2 2 2 2
left_child=1 6 8 7 17 11 12 15 13 18 14 24 -1 22 -8 -2 21 28 -6 -13 -11 -10 -3 -20 -5 -19 -18 -15 29 -4
right_child=3 2 4 5 9 -7 10 -9 16 20 -12 19 -14 27 -16 -17 26 25 23 -21 -22 -23 -24 -25 -26 -27 -28 -29 -30 -31
leaf_value=-0.0057243874917427698 0.0017455662274733184 -0.002715590739479432 -0.00086287761059327002 0.0051506639816440072 0.00022664335530862443 0.0077862682938575753 -0.004755269214510918 0.0039927462565487832 -0.0013557166438287413 0.00098202783791791833 -0.00330173484236002 0.0057646542561776712 -0.0049310622287207645 -0.002128157416439575 -0.0039251868613064287 0.0025332754850387572 -0.0012203353678896314 -0.00043732760241255164 0.00043455754916760188 0.0062586288154125218 0.0015770695100610075 -0.0017442590106398828 -0.0022788869368063438 0.00095491841996342636 0.005595680597153577 6.0710138204740356e-05 -0.000730615551583469 -0.0018647768275171031 -0.00044115359666578184 -0.00059061905629472942
leaf_weight=33 20 26 39 26 60 30 20 29 71 21 25 33 29 69 28 30 21 20 21 40 26 31 37 22 33 20 20 61 26 28
leaf_count=33 20 26 39 26 60 30 20 29 71 21 25 33 29 69 28 30 21 20 21 40 26 31 37 22 33 20 20 61 26 28
internal_value=0 -0.00157742 -0.000920709 0.00505992 0.000127799 0.00612803 -0.00458859 0.00286961 -0.00180383 0.000702393 -0.0039391 0.00575116 -0.00535332 -0.00215295 -0.00427105 0.00221819 -0.00133264 -0.00052024 0.000424588 0.00603533 0.0013112 -0.0014738 -0.00245911 0.000700789 0.00539957 -0.000188309 -0.000981448 -0.00200457 -0.000663006 -0.000749098
internal_weight=0 754 619 241 283 162 135 79 336 150 73 132 62 193 48 50 143 133 103 73 47 102 63 43 59 40 41 130 93 67
internal_count=995 754 619 241 283 162 135 79 336 150 73 132 62 193 48 50 143 133 103 73 47 102 63 43 59 40 41 130 93 67
is_linear=0
shrinkage=0.05


Tree=2
num_leaves=31
num_cat=0
split_feature=12 12 12 17 12 11 12 12 16 5 12 2 12 12 12 2 5 9 17 12 1 15 5 14 5 12 14 9 10 11
split_gain=2.90525 0.561137 0.236001 0.147272 0.0412109 0.0360584 0.0273632 0.0242059 0.0144859 0.00578021 0.0055757 0.00530965 0.00521267 0.00458032 0.00440101 0.00372773 0.0033557 0.0030392 0.00178786 0.00169684 0.00161484 0.00159282 0.00111541 0.00100971 0.000883728 0.000855863 0.000746818 0.000651626 0.000438426 0.000410311
threshold=1.1701014103202851 1.0686207275859603 1.1155248100660031 1.1920905837598685 1.0937453090478053 1.2573516666666669 1.1402138449334793 1.027283097816212 1.1966866007061967 47.970872645451855 1.0471784713501264 0.88186660813905926 1.1265651154105141 1.0832540656599201 1.2471964187254176 0.266069866241403 53.742972559873678 1.1533500000000001 0.99800075682265088 1.1058666314562426 0.28212196696260078 0.10473505198704157 45.404723714627764 -0.21633870060542398 37.824168279238158 1.2402854186902599 -0.26210102131803081 1.0856928571428575 1.1104428571428573 1.1060816666666669
decision_type=2 2 2 2 2 2 2 2 2 2 2 2 2 2 2 2 2 2 2 2 2 2 2 2 2 2 2 2 2 2
left_child=1 7 4 8 13 14 12 15 -2 24 16 17 20 23 25 18 -9 -8 -1 -11 -4 -16 -14 -3 -6 -5 -15 -28 -21 -26
right_child=3 2 6 5 9 -7 11 10 -10 19 -12 -13 22 26 21 -17 -18 -19 -20 28 -22 -23 -24 -25 29 -27 27 -29 -30 -31
leaf_value=-0.0056953328475356103 0.0022912950802813558 -0.0024551084648598647 -0.00048736876587530503 0.0049214970941344896 -0.0014198155745609919 0.007396955341100693 0.0005304181830676195 -0.0045521599985659123 0.0037987090771396956 -0.00099619759021152277 -0.0031366482079029086 0.0018911568980131831 0.00011991463023248896 -0.0019884859852027149 0.0054764214564453472 -0.0045238187909126286 -0.0037041744483368739 0.0012455433129500123 -0.0050421492111953825 -0.00041075573069974784 5.0909234447648161e-05 0.0059456974081695084 0.00049049860422706434 -0.0021188380053410167 -0.0012660887447141465 0.0053114759242709952 -0.0018837107948082334 -0.0016097312389562529 -0.00067485728879656756 -0.00096345494384877386
leaf_weight=20 34 34 38 24 44 30 24 20 30 32 25 21 37 32 33 20 28 39 22 30 22 40 45 65 21 34 34 60 33 24
leaf_count=20 34 34 38 24 44 30 24 20 30 32 25 21 37 32 33 20 28 39 22 30 22 40 45 65 21 34 34 60 33 24
internal_value=0 -0.00143178 -0.000809423 0.0050268 -0.00152595 0.00583332 0.0004873 -0.00435916 0.0029979 -0.000970945 -0.00374214 0.00120263 6.41498e-05 -0.00197982 0.00547524 -0.00508565 -0.0040575 0.000973115 -0.00535319 -0.000699698 -0.00029 0.00573356 0.000323284 -0.00223432 -0.00126048 0.00515011 -0.00177985 -0.00170883 -0.000549095 -0.00110468
internal_weight=0 770 635 225 409 161 226 135 64 184 73 84 142 225 131 62 48 63 42 95 60 73 82 99 89 58 126 94 63 45
internal_count=995 770 635 225 409 161 226 135 64 184 73 84 142 225 131 62 48 63 42 95 60 73 82 99 89 58 126 94 63 45
is_linear=0
shrinkage=0.05


Tree=3
num_leaves=31
num_cat=0
split_feature=12 12 12 10 12 12 11 12 12 12 14 5 12 12 5 2 10 5 13 6 15 12 14 1 13 15 14 5 14 6
split_gain=2.62199 0.50681 0.199055 0.133032 0.0378631 0.0353885 0.0306248 0.0218767 0.0165532 0.00779744 0.00690131 0.00504906 0.00490198 0.00344644 0.00340242 0.00281978 0.00280054 0.00188339 0.00156749 0.00155669 0.0014327 0.00126651 0.000930882 0.000836022 0.000677547 0.000678 0.000621117 0.00053063 0.000473823 0.000383695
threshold=1.1701014103202851 1.0733811718572086 1.1168094522845533 1.2221178571428573 1.0366911972402748 1.0963925665590943 1.2573516666666669 1.1465905391114093 1.1819565842831306 1.058606324139941 0.6248597314302301 49.247246078875797 1.1304305567636599 1.0856053842651361 56.537701765432381 0.51474609635550073 1.0260928571428574 62.161048775940948 1.2531834757957603 0.0041116444309984299 1.0000000180025095e-35 1.1058666314562426 -0.13340641019312299 -0.36830016054908982 1.1121525390806286 -0.46889564273342943 -0.12905286174374739 45.404723714627764 -0.31949682985545597 0.0054686961776736496
decision_type=2 2 2 2 2 2 2 2 2 2 2 2 2 2 2 2 2 2 2 2 2 2 2 2 2 2 2 2 2 2
left_child=1 4 5 8 10 13 14 12 -2 19 16 24 20 23 18 28 -1 27 26 -6 -4 -13 -15 -3 25 -7 -5 -14 -9 -16
right_child=3 2 7 6 9 11 -8 15 -10 -11 -12 21 17 22 29 -17 -18 -19 -20 -21 -22 -23 -24 -25 -26 -27 -28 -29 -30 -31
leaf_value=-0.005333208249738583 0.0021751382278607173 -0.0021812387767273025 -0.00037953373922068899 0.0047669580013587559 -0.0037992789045624108 -0.0014201866388320924 0.0070271070301532752 0.00091490317237279985 0.0037135381975935567 -0.0024684451644619307 -0.0039396158729990329 -0.00090315806760022852 0.00016214617434372723 -0.0017958171510448059 0.0057833091169595717 0.0017882950091734529 -0.0046345847891643647 0.00086656166240572929 0.0054115472361445432 -0.0031961268559098244 8.4182654447633674e-05 -0.00049448637928955065 -0.0014821737788725592 -0.0018932382222500784 -0.00089001700814281184 -0.0010849176244320054 0.0050864410353824501 0.00045022935611830858 0.0012476648343726993 0.0054735934361815454
leaf_weight=26 34 37 31 29 23 25 30 23 36 30 24 26 31 36 20 20 32 20 24 20 36 70 69 79 21 38 32 33 20 20
leaf_count=26 34 37 31 29 23 25 30 23 36 30 24 26 31 36 20 20 32 20 24 20 36 70 69 79 21 38 32 33 20 20
internal_value=0 -0.00136019 -0.000716206 0.00477546 -0.00391536 -0.00137334 0.00559249 0.000515151 0.00296632 -0.00308711 -0.00465269 -0.000852878 0.000188612 -0.00179724 0.00524818 0.00129781 -0.00494776 0.00044304 0.00506924 -0.00351874 -0.000130373 -0.000605168 -0.00158971 -0.0019851 -0.00113597 -0.00121796 0.00493456 0.000310689 0.00106968 0.00562845
internal_weight=0 770 615 225 155 401 155 214 70 73 82 180 151 221 125 63 58 84 85 43 67 96 105 116 84 63 61 64 43 40
internal_count=995 770 615 225 155 401 155 214 70 73 82 180 151 221 125 63 58 84 85 43 67 96 105 116 84 63 61 64 43 40
is_linear=0
shrinkage=0.05


Tree=4
num_leaves=31
num_cat=0
split_feature=12 12 12 17 12 11 12 16 12 12 15 12 7 12 3 12 15 15 7 1 15 7 12 15 9 16 1 4 12 12
split_gain=2.36727 0.438453 0.168351 0.166295 0.0309493 0.0293299 0.019932 0.0172991 0.0163996 0.00732716 0.00458368 0.00360437 0.00311901 0.00271986 0.00242359 0.00226536 0.00216262 0.00190371 0.00169456 0.00132608 0.00126247 0.00100644 0.000949072 0.000927102 0.00089417 0.000770318 0.000759514 0.000750897 0.000727685 0.000548433
threshold=1.1585355537375908 1.0686207275859603 1.1085118086844343 1.1920905837598685 1.1265651154105141 1.2573516666666669 1.027283097816212 1.1966866007061967 1.0912830579892272 1.1465905391114093 -0.8202440654747033 1.2471964187254176 -0.0046455515180255985 1.0801583291107471 -0.20103467798096572 1.0471784713501264 0.40135353558535575 0.64257115782603302 0.0034484960786972311 0.087454320084512385 -0.13228857609408837 -0.00038118914586051641 1.1338496398597815 -0.11402643703477618 1.2554285714285716 1.1092640330029921 -0.01803517162229373 0.24573635507842975 1.116025214764522 1.113688565316272
decision_type=2 2 2 2 2 2 2 2 2 2 2 2 2 2 2 2 2 2 2 2 2 2 2 2 2 2 2 2 2 2
left_child=1 6 8 7 17 11 12 14 13 18 -8 26 -1 23 -2 -12 21 29 -6 24 -11 -10 -20 -3 -13 -18 -5 -15 -19 -4
right_child=3 2 4 5 9 -7 10 -9 16 20 15 19 -14 27 -16 -17 25 28 22 -21 -22 -23 -24 -25 -26 -27 -28 -29 -30 -31
leaf_value=-0.0049264060728477707 0.0014805846428498628 -0.0023457070740942774 -0.00070744563311497431 0.004440463691949845 0.00019326103537726646 0.0066757518053054818 -0.0039982718903393971 0.0034256606238583726 -0.0011602685701521769 0.00082998964270310747 -0.0033839336305391044 0.0047755927186120643 -0.0042156534333681241 -0.0018147177755450591 0.0021911586184675497 -0.0027055886387825014 -0.0010455852418783166 -0.00037146413087612022 0.00036408364013325247 0.0054314900934696198 0.0013512236137802785 -0.0015017400540771986 0.00083401337959168652 -0.0019561092344087525 0.005231727535525958 -0.00061200226431537888 0.0048058269376104537 -0.0015694259916647123 5.5058102880138911e-05 -0.00046288894284841198
leaf_weight=33 20 26 41 25 60 30 21 30 71 21 32 22 29 78 30 20 21 20 21 30 26 31 22 37 21 20 33 52 20 52
leaf_count=33 20 26 41 25 60 30 21 30 71 21 32 22 29 78 30 20 21 20 21 30 26 31 22 37 21 20 33 52 20 52
internal_value=0 -0.00135291 -0.000789831 0.0043397 0.000108649 0.00526553 -0.00393472 0.00247645 -0.00154659 0.000601009 -0.00337481 0.00494258 -0.00459396 -0.00184727 0.00190693 -0.00312303 -0.00114077 -0.000446644 0.000364949 0.00517636 0.00111833 -0.00126405 0.000604513 -0.0021169 0.00499836 -0.000834081 0.00464834 -0.0017166 -0.000158203 -0.000570704
internal_weight=0 754 619 241 283 161 135 80 336 150 73 131 62 193 50 52 143 133 103 73 47 102 43 63 43 41 58 130 40 93
internal_count=995 754 619 241 283 161 135 80 336 150 73 131 62 193 50 52 143 133 103 73 47 102 43 63 43 41 58 130 40 93
is_linear=0
shrinkage=0.05


Tree=5
num_leaves=31
num_cat=0
split_feature=12 12 11 12 12 12 11 9 12 5 12 12 14 5 12 14 12 8 5 5 13 14 15 5 5 14 14 11 16 1
split_gain=2.18094 0.389497 0.159751 0.136077 0.0290286 0.0272924 0.0252898 0.0187771 0.0115182 0.00916561 0.00648456 0.00401068 0.00313326 0.00276581 0.00270298 0.00267282 0.00240532 0.00180574 0.00163094 0.0014413 0.001276 0.00112309 0.00104405 0.000947115 0.000878566 0.000649719 0.000462104 0.000438461 0.000433535 0.000407642
threshold=1.1585355537375908 1.0733811718572086 1.2146350000000001 1.1085118086844343 1.1232421137324622 1.0411247151090062 1.2573516666666669 1.1809071428571432 1.0951591829948248 51.349622596519239 1.1465905391114093 1.058606324139941 -0.10551648925369915 53.202071802532835 1.0129409599134658 0.38615926683537155 1.0870580964845649 -0.00036775691508138204 45.681457628433655 49.607856854919696 1.2531834757957603 -0.17239904785898699 -0.4370383867734482 40.124115094490229 40.124115094490229 0.47721300135307382 0.26612524882501248 1.242586666666667 1.088002430780419 -0.61533706669248389
decision_type=2 2 2 2 2 2 2 2 2 2 2 2 2 2 2 2 2 2 2 2 2 2 2 2 2 2 2 2 2 2
left_child=1 5 7 8 19 9 13 12 16 14 15 -7 -2 20 -1 24 22 -9 29 -5 -4 -12 -3 -16 -6 -21 -18 -15 -24 -10
right_child=2 3 6 4 10 11 -8 17 18 -11 21 -13 -14 27 23 -17 26 -19 -20 25 -22 -23 28 -25 -26 -27 -28 -29 -30 -31
leaf_value=-0.0048283607614311302 0.0014719708858487697 -0.0020325368420491294 0.0043988223326333021 -0.00074303238393945827 -2.9029869097030317e-06 -0.0030917467963364389 0.0063358290120959287 0.0029464414436370136 -0.0013375955847247194 -0.0032178724670539737 0.00077410746041847321 -0.0023016404938595051 0.0022342245027955092 0.0048496812905954277 -0.0043624600172042843 0.00084641576395370075 -0.00150926981632616 0.0036102844845680966 -0.00077977846143767243 -0.00044212623455883068 0.0048756577260792265 0.0012582391211763025 -0.0018915817141532899 -0.0039069786135639464 0.00032772119559888746 -0.00012554313981949928 -0.0012432096778259925 0.0051340676505457275 -0.0016445620713803251 -0.0010715669913527867
leaf_weight=22 26 31 47 36 32 36 32 20 24 23 23 29 28 23 25 20 51 21 45 71 20 25 23 21 54 21 24 33 78 36
leaf_count=22 26 31 47 36 32 36 32 20 24 23 23 29 28 23 25 20 51 21 45 71 20 25 23 21 54 21 24 33 78 36
internal_value=0 -0.00129833 0.00409418 -0.000714399 8.1618e-05 -0.00352175 0.00508369 0.00247973 -0.00143388 -0.00408069 0.000544109 -0.00273924 0.00186721 0.00475792 -0.00437253 0.000325777 -0.00165024 0.00328646 -0.00100732 -0.000474817 0.00454116 0.00102626 -0.00177872 -0.00415452 0.000204698 -0.000369863 -0.00142413 0.00501727 -0.00170081 -0.00117798
internal_weight=0 750 250 594 282 156 155 95 312 91 154 65 54 123 68 106 207 41 105 128 67 48 132 46 86 92 75 56 101 60
internal_count=1000 750 250 594 282 156 155 95 312 91 154 65 54 123 68 106 207 41 105 128 67 48 132 46 86 92 75 56 101 60
is_linear=0
shrinkage=0.05


Tree=6
num_leaves=31
num_cat=0
split_feature=12 12 11 12 12 11 12 12 9 5 3 12 5 9 21 14 5 12 12 15 13 5 1 3 12 1 6 14 13 0
split_gain=1.9683 0.351521 0.144175 0.122898 0.0246314 0.022824 0.018628 0.0174565 0.0169463 0.00827196 0.00404239 0.00361964 0.00324707 0.00290388 0.00286952 0.00282777 0.00250493 0.00228071 0.0021708 0.0014294 0.00113095 0.00111338 0.000981508 0.000946171 0.000691529 0.000483831 0.000469899 0.000417049 0.000399807 0.000369277
threshold=1.1585355537375908 1.0733811718572086 1.2146350000000001 1.1130413642347554 1.0411247151090062 1.2573516666666669 1.0951591829948248 1.1327374438996161 1.1809071428571432 51.349622596519239 1.194658637319457 1.058606324139941 47.970872645451855 1.1533500000000001 9.5000000000000018 -0.10551648925369915 52.956921542129422 1.1232421137324622 1.0870580964845649 0.22775124984493447 1.2524063986742284 40.124115094490229 0.28212196696260078 -0.71704144433772921 1.1052390837321246 -0.67484134828711395 -0.0004386604165367291 0.26612524882501248 1.251762857902897 0.4437928342620579
decision_type=2 2 2 2 2 2 2 2 2 2 2 2 2 2 2 2 2 2 2 2 2 2 2 2 2 2 2 2 2 2
left_child=1 4 8 6 9 16 18 17 15 14 13 -6 25 26 21 -2 20 22 23 -10 -4 -1 -5 -3 -14 -8 -9 -20 -18 -25
right_child=2 3 5 7 11 -7 12 10 19 -11 -12 -13 24 -15 -16 -17 28 -19 27 -21 -22 -23 -24 29 -26 -27 -28 -29 -30 -31
leaf_value=-0.0041450255478803931 0.001398372338511623 -0.0019314109828443297 0.0041616753590377892 -0.00049591349994649518 -0.0029371594337539541 0.0060190375545062132 -0.0012591242391083923 0.00022899858632604818 0.0028196183405816556 -0.0030569787906563803 0.0012207295512780547 -0.0021865584791220471 -0.00080018941592425107 0.0009964333095757122 -0.004623567160557617 0.0021225132979452613 0.0046618266556507507 0.00010831178943691258 -0.0014338063441363038 0.0034102472166220345 0.0046151363849639892 -0.0036488121934235098 -0.0001255380763689539 -0.0016675357121783191 -0.00047220894368365406 -0.00098144059414945303 0.0004869665941148396 -0.0011810492064493398 0.0049367894046008593 -0.0014395561879095825
leaf_weight=26 26 31 44 53 36 32 21 41 20 23 24 29 25 22 22 28 39 36 51 21 20 20 27 78 45 62 31 24 20 23
leaf_count=26 26 31 44 53 36 32 21 41 20 23 24 29 25 22 22 28 39 36 51 21 20 20 27 78 45 62 31 24 20 23
internal_value=0 -0.00123341 0.00388947 -0.000678679 -0.00334567 0.0048295 -0.00125852 0.000213377 0.00235574 -0.00387666 0.000641559 -0.00260228 -0.000840164 0.000493686 -0.0041539 0.00177385 0.00452003 -0.000222187 -0.00156773 0.00312214 0.00430338 -0.00392928 -0.000370912 -0.00168978 -0.000589345 -0.0010517 0.000340068 -0.00135292 0.00475503 -0.00161562
internal_weight=0 750 250 594 156 155 360 234 95 91 118 65 153 94 68 54 123 116 207 41 64 46 80 132 70 83 72 75 59 101
internal_count=1000 750 250 594 156 155 360 234 95 91 118 65 153 94 68 54 123 116 207 41 64 46 80 132 70 83 72 75 59 101
is_linear=0
shrinkage=0.05


Tree=7
num_leaves=31
num_cat=0
split_feature=12 12 11 12 12 11 12 12 9 12 5 14 9 5 15 5 12 5 12 15 7 1 15 4 12 11 2 1 16 17
split_gain=1.77639 0.317248 0.130118 0.110915 0.0223076 0.0205987 0.0168278 0.0157545 0.0152941 0.00552238 0.00468373 0.00348601 0.00346461 0.00264622 0.00256671 0.00227253 0.00223457 0.00206823 0.00205834 0.00129004 0.00123992 0.000885811 0.00086926 0.000806517 0.000606465 0.000467686 0.000447853 0.000428924 0.000389862 0.000336379
threshold=1.1585355537375908 1.0733811718572086 1.2146350000000001 1.1130413642347554 1.0341757492689685 1.2573516666666669 1.096106589010821 1.1327374438996161 1.1809071428571432 1.058606324139941 48.304367666749449 0.51445181810144092 1.1533500000000001 47.970872645451855 -0.036528503466584074 54.258986402290255 1.0870580964845649 56.413277458098939 1.1232421137324622 0.22775124984493447 -0.0048836953521760222 0.28212196696260078 -0.4370383867734482 -0.66710768818274968 1.1052390837321246 1.2435583333333338 -0.24707750389185154 -0.61533706669248389 1.088002430780419 1.2327538858842844
decision_type=2 2 2 2 2 2 2 2 2 2 2 2 2 2 2 2 2 2 2 2 2 2 2 2 2 2 2 2 2 2
left_child=1 4 8 6 10 15 16 18 14 17 20 12 -9 27 -2 23 22 -6 21 -10 -1 -5 -3 -4 -15 -17 -18 -8 -24 -25
right_child=2 3 5 7 9 -7 13 11 19 -11 -12 -13 -14 24 -16 25 26 -19 -20 -21 -22 -23 28 29 -26 -27 -28 -29 -30 -31
leaf_value=-0.0043390015570017012 0.0012530357976044929 -0.0018368931036562689 0.003897045073764665 -0.00047111782324412522 -0.0032206883268623521 0.0057180857285857208 -0.0011350485271420974 0.00028788716647207318 0.0026786373695358635 -0.0020772305188764789 -0.003194432929158211 0.0011935575477158031 0.00094061088507416948 -0.00075983134180811858 0.0019601484365535504 0.0043724522460252052 -0.0014493961296975612 -0.0026182271007980621 0.00010289620190128012 0.0032397349675496422 -0.0038406223679582278 -0.00011926116933830566 -0.0017151126030670559 0.0040984131023287778 -0.00044859849615022543 0.0046685790394743283 -0.0011955695006212123 -0.00089149985966893535 -0.0014808650809125259 0.0043849310172455651
leaf_weight=26 21 31 28 53 29 32 29 68 20 29 20 21 29 24 33 24 25 28 36 21 24 27 23 20 45 30 57 48 78 21
leaf_count=26 21 31 28 53 29 32 29 68 20 29 20 21 29 24 33 24 25 28 36 21 24 27 23 20 45 30 57 48 78 21
internal_value=0 -0.00117174 0.003695 -0.000644745 -0.00317838 0.00458803 -0.00119559 0.000202708 0.00223796 -0.00263895 -0.00384111 0.000609481 0.000483031 -0.000781721 0.00168516 0.00429403 -0.00147795 -0.00292474 -0.000211078 0.00296603 -0.00409978 -0.000352366 -0.00160529 0.0041039 -0.000556853 0.00453697 -0.00127296 -0.000983226 -0.00153421 0.00424517
internal_weight=0 750 250 594 156 155 360 234 95 86 70 118 97 146 54 123 214 57 116 41 50 80 132 69 69 54 82 77 101 41
internal_count=1000 750 250 594 156 155 360 234 95 86 70 118 97 146 54 123 214 57 116 41 50 80 132 69 69 54 82 77 101 41
is_linear=0
shrinkage=0.05


Tree=8
num_leaves=31
num_cat=0
split_feature=12 12 13 12 12 11 12 16 12 5 12 12 12 21 3 14 5 12 1 15 5 14 14 5 14 14 4 12 12 16
split_gain=1.60319 0.286316 0.118068 0.100171 0.0230039 0.0204895 0.0201934 0.00970593 0.00737286 0.00687555 0.00483997 0.00304302 0.00291396 0.00244612 0.00238816 0.00211508 0.00151604 0.00135752 0.00105831 0.000910745 0.000901338 0.000888989 0.000843638 0.000748439 0.000735363 0.000623832 0.000592975 0.000456299 0.000452125 0.000266444
threshold=1.1585355537375908 1.0733811718572086 1.2137735521674669 1.1061724702183511 1.1232421137324622 1.2573516666666669 1.0411247151090062 1.1966866007061967 1.0890907725406644 51.349622596519239 1.1465905391114093 1.2449707376534647 1.058606324139941 9.5000000000000018 -0.22170912801826034 0.38615926683537155 49.607856854919696 1.0989701024409568 0.33945497778425932 -0.47287125478615072 40.124115094490229 -0.17239904785898699 -0.2131797303188416 40.124115094490229 0.33995654960955402 0.64162939036387645 0.337199889958606 1.2402854186902599 1.0834171704807349 1.1214846286759437
decision_type=2 2 2 2 2 2 2 2 2 2 2 2 2 2 2 2 2 2 2 2 2 2 2 2 2 2 2 2 2 2
left_child=1 6 7 8 16 11 9 14 19 13 15 27 -8 20 -2 23 -5 24 26 -3 -1 -12 -19 -6 -10 29 -13 -4 -21 -18
right_child=2 3 5 4 10 -7 12 -9 17 -11 21 18 -14 -15 -16 -17 25 22 -20 28 -22 -23 -24 -25 -26 -27 -28 -29 -30 -31
leaf_value=-0.0037397354483031313 0.0011672995728440583 -0.001727553747375222 0.0035816409107711587 -0.00066336075066250166 -2.1437802297441524e-05 0.0054321812465786936 -0.0026468388322326876 0.0026997595094144346 -0.0012235851071420172 -0.0027529483094163565 0.00065871346691299395 0.0038792299727598827 -0.0019733690271346734 -0.0041866408153013752 0.0018558639046900413 0.00074102329730521891 -0.00049820944592024062 -0.0010716288059484213 0.004470274017916785 -0.0015277441407813401 -0.0032932666316628461 0.0010894431513734162 -0.00070001666473607275 0.00028372071377547129 -0.00088193568711479511 -6.782917341860454e-05 0.0042211632360704245 0.0038780860453844074 -0.0013309857267553786 -0.00030258131437617327
leaf_weight=26 20 34 27 44 32 32 36 32 63 23 23 21 29 22 34 20 28 24 27 61 20 25 42 54 21 21 32 25 56 46
leaf_count=26 20 34 27 44 32 32 36 32 63 23 23 21 29 22 34 20 28 24 27 61 20 25 42 54 21 21 32 25 56 46
internal_value=0 -0.00111315 0.00351025 -0.000612508 4.56006e-05 0.0042971 -0.00301946 0.00200974 -0.00125313 -0.00350025 0.000466506 0.00402193 -0.00234637 -0.00375301 0.00160084 0.000277881 -0.000420726 -0.00100484 0.00421548 -0.00149976 -0.00354562 0.000883052 -0.000835148 0.000170173 -0.00113817 -0.000308348 0.00408568 0.00372416 -0.00143357 -0.000376603
internal_weight=0 750 250 594 293 164 156 86 301 91 154 132 65 68 54 106 139 150 80 151 46 48 66 86 84 95 53 52 117 74
internal_count=1000 750 250 594 293 164 156 86 301 91 154 132 65 68 54 106 139 150 80 151 46 48 66 86 84 95 53 52 117 74
is_linear=0
shrinkage=0.05


Tree=9
num_leaves=31
num_cat=0
split_feature=12 12 13 12 12 11 12 9 12 12 5 12 14 5 14 5 12 12 17 1 14 9 14 0 5 14 14 12 9 5
split_gain=1.44688 0.258584 0.106556 0.0974968 0.020761 0.0184918 0.0121259 0.00879207 0.00805675 0.00436807 0.00387353 0.00274633 0.00220669 0.00202659 0.00190886 0.00136823 0.00122516 0.00122469 0.00104598 0.000955127 0.000802312 0.000791607 0.000761384 0.000708413 0.000675466 0.000663665 0.000563008 0.000543085 0.000492955 0.000485254
threshold=1.1585355537375908 1.0698803738380647 1.2137735521674669 1.1061724702183511 1.1232421137324622 1.2573516666666669 1.0341757492689685 1.1809071428571432 1.0890907725406644 1.1465905391114093 48.304367666749449 1.2449707376534647 -0.10551648925369915 58.759143432874424 0.38615926683537155 49.607856854919696 1.0989701024409568 1.0801583291107471 0.99800075682265088 0.33945497778425932 -0.17239904785898699 1.0441785714285714 -0.2131797303188416 -0.074250146396731539 40.124115094490229 0.33995654960955402 0.64162939036387645 1.2533641195843293 1.2382357142857143 47.382895279198948
decision_type=2 2 2 2 2 2 2 2 2 2 2 2 2 2 2 2 2 2 2 2 2 2 2 2 2 2 2 2 2 2
left_child=1 6 7 8 15 11 10 12 17 14 18 28 -2 21 24 -5 25 23 -1 27 -11 -8 -18 -3 -6 -10 -17 -13 -4 -19
right_child=2 3 5 4 9 -7 13 -9 16 20 -12 19 -14 -15 -16 26 22 29 -20 -21 -22 -23 -24 -25 -26 -27 -28 -29 -30 -31
leaf_value=-0.0039716272038363273 0.0011883859451000509 -0.0018319071374005742 0.003358182776719332 -0.00063019270548300655 -2.0365909222164191e-05 0.0051605721935629846 -0.0029190800860524179 0.0025659853068646047 -0.001162405853115377 0.00062577779121373016 -0.0028795572090893986 0.003675803542137146 0.0018280792582247938 -0.0021625705412589014 0.00070397213858086616 -0.00035777262898124254 -0.0010180473638077578 -0.0014969624079218726 -0.0035082774172569145 0.0042467602287177683 0.0010349709738511593 -0.0024970473162829877 -0.00066501583025369449 -0.0014815874893458621 0.00026953467974332547 -0.00083783892027678949 -6.4437715558423895e-05 0.0040059979327700355 0.0036697870244582495 -0.0012797750897057679
leaf_weight=21 26 27 22 44 32 32 25 32 63 23 20 20 28 24 20 74 24 41 29 27 25 20 42 31 54 21 21 33 30 69
leaf_count=21 26 27 22 44 32 32 25 32 63 23 20 20 28 24 20 74 24 41 29 27 25 20 42 31 54 21 21 33 30 69
internal_value=0 -0.0010575 0.00333474 -0.000614677 4.33206e-05 0.00408225 -0.00300399 0.00190925 -0.00122095 0.00044318 -0.00346765 0.00382083 0.00152008 -0.00253362 0.000263987 -0.00039969 -0.0009546 -0.00145875 -0.00370288 0.00400471 0.000838899 -0.00273151 -0.000793391 -0.00164467 0.000161665 -0.00108126 -0.00029293 0.0038814 0.00353795 -0.00136073
internal_weight=0 750 250 611 293 164 139 86 318 154 70 132 54 69 106 139 150 168 50 80 48 45 66 58 86 84 95 53 52 110
internal_count=1000 750 250 611 293 164 139 86 318 154 70 132 54 69 106 139 150 168 50 80 48 45 66 58 86 84 95 53 52 110
is_linear=0
shrinkage=0.05


Tree=10
num_leaves=31
num_cat=0
split_feature=12 12 12 13 11 12 12 6 12 12 14 12 12 12 12 4 2 12 1 1 14 1 3 0 4 4 1 12 6 20
split_gain=1.34189 0.234855 0.0893646 0.0840667 0.0143475 0.0129192 0.0128727 0.00971412 0.00755234 0.00349616 0.00233497 0.00225898 0.00216732 0.002133 0.00203706 0.00172322 0.00154275 0.00127395 0.00122096 0.00104564 0.000983156 0.000939404 0.000831568 0.000736052 0.000730903 0.000624027 0.000613712 0.000336523 0.000336043 0.000307901
threshold=1.1603511649701175 1.0631525380172195 1.1129044881583519 1.2137735521674669 1.2573516666666669 1.1362779874323783 1.0912830579892272 0.00092899548478486704 1.1819565842831306 1.022224740462075 0.38615926683537155 1.0801583291107471 1.0989701024409568 1.1244387124611663 1.2421670230703079 3.052165383002448 0.29141704620100356 1.1542149751966149 0.087454320084512385 0.14876030557512412 -0.14535452398869761 0.28212196696260078 -0.78064865889119195 0.053052773237038948 0.24573635507842975 0.337199889958606 -0.13738781033635902 1.1037055013227191 -0.00097815327977690525 14.500000000000002
decision_type=2 2 2 2 2 2 2 2 2 2 2 2 2 2 2 2 2 2 2 2 2 2 2 2 2 2 2 2 2 2
left_child=1 7 6 8 14 13 11 9 19 20 17 22 -8 21 -5 -9 -11 -7 25 -2 -1 -4 -3 27 -13 -16 -15 -14 -25 -20
right_child=3 2 5 4 -6 10 12 15 -10 16 -12 24 23 26 18 -17 -18 -19 29 -21 -22 -23 -24 28 -26 -27 -28 -29 -30 -31
leaf_value=-0.0038027989212423563 0.0012378578577190637 -0.0018729289714246988 -0.00040769073302561248 0.0033186941647103856 0.0048558456202348081 0.00032488219547208006 -0.0010097555829869473 -0.0025976643562316895 0.0024492859275955146 -0.0031616300472925452 0.00112834045663476 -0.0013471683152975183 -0.00088891894958014134 -6.7793029544797415e-05 0.0034225388788259948 -0.001974989539012313 -0.002590806791558862 0.00077909301393307173 0.0037987336330115792 0.0017229030837188474 -0.0033234669138555942 -5.9863394908461488e-05 -0.0014891884212071696 -0.00064782434227791702 -0.0011104068851896696 0.0037657339125871658 0.00027401765504503692 -0.00066005165248902314 -0.00038230878260667222 0.0040575714160998666
leaf_weight=20 25 20 55 35 30 38 68 25 33 29 20 78 29 24 26 20 20 26 20 20 23 30 48 22 56 27 29 36 26 27
leaf_count=20 25 20 55 35 30 38 68 25 33 29 20 78 29 24 26 20 20 26 20 20 23 30 48 22 56 27 29 36 26 27
internal_value=0 -0.0010536 -0.000630295 0.00322737 0.00386679 0.00016788 -0.00109294 -0.00292292 0.00187476 -0.00321738 0.000656771 -0.00136733 -0.000786719 -0.000129706 0.00364699 -0.00232092 -0.00292864 0.000509405 0.0037619 0.00145343 -0.00354641 -0.000284928 -0.00160205 -0.000652502 -0.00124822 0.00359737 0.000119235 -0.000762162 -0.000504003 0.00394743
internal_weight=0 742 605 243 165 222 383 137 78 92 84 202 181 138 135 45 49 64 100 45 43 85 68 113 134 53 53 65 48 47
internal_count=985 742 605 243 165 222 383 137 78 92 84 202 181 138 135 45 49 64 100 45 43 85 68 113 134 53 53 65 48 47
is_linear=0
shrinkage=0.05


Tree=11
num_leaves=31
num_cat=0
split_feature=12 12 12 13 11 12 12 5 12 12 5 12 12 12 12 5 5 4 16 12 5 5 15 5 10 12 15 4 13 12
split_gain=1.21106 0.212026 0.0782237 0.0758702 0.0129486 0.0116596 0.0107658 0.0106578 0.00681599 0.00412439 0.00219591 0.00195601 0.00192503 0.00183845 0.00173998 0.00168372 0.00126791 0.00103267 0.000934691 0.000871491 0.00075367 0.000724004 0.000616951 0.000551616 0.000551196 0.000496971 0.000476503 0.000402563 0.000395662 0.000360705
threshold=1.1603511649701175 1.0686207275859603 1.1129044881583519 1.2137735521674669 1.2573516666666669 1.1362779874323783 1.0912830579892272 55.163801007739316 1.1819565842831306 1.0377106714829643 57.747646715958624 1.0989701024409568 1.1244387124611663 1.2421670230703079 1.0832540656599201 44.156054863552065 48.097025190290303 3.052165383002448 1.1890102931808444 1.1542149751966149 52.956921542129422 37.824168279238158 0.010845249891624902 45.681457628433655 1.0235192857142861 1.1052390837321246 0.69725535260911342 0.24573635507842975 1.1095400181128734 1.1168094522845533
decision_type=2 2 2 2 2 2 2 2 2 2 2 2 2 2 2 2 2 2 2 2 2 2 2 2 2 2 2 2 2 2
left_child=1 7 6 8 13 12 14 9 18 15 19 -8 20 -5 22 24 -15 -9 -2 -7 -4 -13 -3 -14 -1 -23 -18 -16 -27 -22
right_child=3 2 5 4 -6 10 11 17 -10 -11 -12 21 23 16 27 -17 26 -19 -20 -21 29 25 -24 -25 -26 28 -28 -29 -30 -31
leaf_value=-0.0035890799481421709 0.0016243710242980298 -0.0015522401475419221 -0.00047227311840591338 0.003152759399797235 0.0046130531777938211 0.00028784592902021748 -0.00095926780691918216 -0.0023184108066147771 0.0023268215809807632 -0.0024267921139570804 0.00097599537272391652 -0.00087023274365650581 -6.4040726495780598e-05 0.0032284872074212346 -0.0012386743872597511 -0.0028943399381306436 0.0035844800926067618 -0.0018580192167844093 0.001167603770348554 0.00070159201564820258 -0.00029111817162898933 -0.00067339008104883968 -0.0012962512173798197 0.00026001664262931349 -0.0032399394764350015 -0.00027990558301098644 0.0038514913525432349 -0.0010370135642588138 -0.00057708812819328163 -3.4984409238956818e-05
leaf_weight=20 21 52 30 35 30 35 68 29 33 22 29 23 24 21 49 27 55 21 24 20 27 45 43 29 26 21 24 50 24 28
leaf_count=20 21 52 30 35 30 35 68 29 33 22 29 23 24 21 49 27 55 21 24 20 27 45 43 29 26 21 24 50 24 28
internal_value=0 -0.00100092 -0.000584374 0.003066 0.00367345 0.000159486 -0.00102474 -0.00271592 0.00178102 -0.00302691 0.000623932 -0.000747383 -0.000123221 0.00346464 -0.00128351 -0.00320777 0.0035738 -0.00212505 0.00138076 0.000438299 -0.000270682 -0.000619876 -0.00143637 0.000113274 -0.00339174 -0.000555897 0.0036656 -0.00113683 -0.000438403 -0.000160723
internal_weight=0 742 597 243 165 222 375 145 78 95 84 181 138 135 194 73 100 50 45 55 85 113 95 53 46 90 79 99 45 55
internal_count=985 742 597 243 165 222 375 145 78 95 84 181 138 135 194 73 100 50 45 55 85 113 95 53 46 90 79 99 45 55
is_linear=0
shrinkage=0.05


Tree=12
num_leaves=31
num_cat=0
split_feature=9 9 9 13 9 11 5 9 9 9 1 4 21 5 14 1 15 5 2 13 9 2 11 10 13 14 1 9 1 11
split_gain=1.09047 0.192177 0.0726043 0.0679763 0.0122799 0.0116861 0.0103456 0.0092366 0.00562396 0.00265573 0.0025689 0.00189693 0.00183192 0.00177925 0.00163525 0.00158176 0.00126429 0.00101876 0.000916413 0.000841824 0.000804827 0.000784748 0.000756607 0.00052076 0.000425704 0.000407086 0.000376025 0.00036861 0.000350779 0.000229498
threshold=1.1621928571428572 1.0639928571428574 1.1148428571428572 1.2137735521674669 1.0949428571428574 1.2573516666666669 52.155577263413626 1.1358142857142861 1.1926000000000003 1.0829071428571431 0.60274914640144905 3.052165383002448 9.5000000000000018 47.970872645451855 -0.15387698734906535 0.04632427211943569 0.40135353558535575 40.994408126586784 -0.29088114791849801 1.2531834757957603 1.1533500000000001 -0.21483074972595825 1.1109183333333335 1.2478964285714287 1.1028647036853958 -0.63099969365765218 -1.0000000180025095e-35 1.1253928571428573 0.3776698894599973 1.0317886666666669
decision_type=2 2 2 2 2 2 2 2 2 2 2 2 2 2 2 2 2 2 2 2 2 2 2 2 2 2 2 2 2 2
left_child=1 6 4 8 9 16 12 14 15 18 20 29 17 25 27 -2 19 -1 -3 26 -9 -11 -16 -18 -15 -6 -5 -4 -23 -8
right_child=3 2 7 5 13 -7 11 10 -10 21 -12 -13 -14 24 22 -17 23 -19 -20 -21 -22 28 -24 -25 -26 -27 -28 -29 -30 -31
leaf_value=-0.0030448484384725171 0.0010651321522891523 -0.001594199807218769 -0.00037661633755573459 0.0029835402573409834 -0.00097298658918589355 0.004382400711377462 -0.0024649351569158689 0.0003081719971551384 0.0021973468188662081 -0.0011916854190068289 0.0011079392387182451 -0.0017651182821109184 -0.0033945296688572221 -0.00062389350698693945 -0.00015739094010747243 0.0016617025015875698 0.003343176702037454 -0.0025999592278491369 -0.0012692887607651453 0.003420777532916803 0.00067540888779330996 -0.0010351806439252364 0.00020360393419321826 0.0036799602041190324 -0.00036772488423263318 -0.00071356330525069957 0.0032332221046090129 -0.00010609856566588861 -0.00083368761051032291 -0.0022282742243260145
leaf_weight=31 25 34 34 38 20 30 21 37 32 57 20 21 23 23 21 20 24 22 60 26 25 54 47 22 55 62 25 20 36 20
leaf_count=31 25 34 34 38 20 30 21 37 32 57 20 21 23 23 21 20 24 22 60 26 25 54 47 22 55 62 25 20 36 20
internal_value=0 -0.000947174 -0.000563124 0.00291731 -0.0009538 0.00348977 -0.00263087 0.000204822 0.00169062 -0.00117925 0.0006152 -0.00215156 -0.00302189 -0.000614219 -7.10062e-05 0.00133027 0.00329141 -0.00286018 -0.00138681 0.00318141 0.000456251 -0.00104652 9.21202e-05 0.00350425 -0.000443262 -0.000776837 0.00308262 -0.000276425 -0.000954583 -0.00234949
internal_weight=0 743 605 242 401 165 138 204 77 241 82 62 76 160 122 45 135 53 94 89 62 147 68 46 78 82 63 54 90 41
internal_count=985 743 605 242 401 165 138 204 77 241 82 62 76 160 122 45 135 53 94 89 62 147 68 46 78 82 63 54 90 41
is_linear=0
shrinkage=0.05


Tree=13
num_leaves=31
num_cat=0
split_feature=12 12 12 10 12 12 12 5 12 7 5 12 12 12 14 5 4 14 1 5 12 3 12 4 1 1 7 13 5 20
split_gain=0.986502 0.173051 0.0656735 0.0618256 0.00960158 0.00948128 0.00945675 0.00898994 0.00698894 0.00199116 0.00184045 0.00168906 0.00162199 0.00157224 0.00146448 0.00135836 0.00132082 0.000934461 0.000746302 0.000739428 0.000703124 0.00066517 0.000566136 0.000550599 0.000480543 0.000404901 0.000394529 0.000366052 0.000317711 0.000293302
threshold=1.1603511649701175 1.0631525380172195 1.1129044881583519 1.2221178571428573 1.2631560873998064 1.1362779874323783 1.0912830579892272 53.742972559873678 1.2015430575987638 -0.0047908256924159677 57.747646715958624 1.0801583291107471 1.1037055013227191 1.1244387124611663 0.23555205234908824 48.097025190290303 3.052165383002448 0.33995654960955402 0.28212196696260078 43.948004265696547 1.1542149751966149 -0.78064865889119195 1.2553082062703649 0.24573635507842975 -0.13738781033635902 0.087454320084512385 -0.0017889788785518605 1.1095400181128734 38.167191793708589 19.500000000000004
decision_type=2 2 2 2 2 2 2 2 2 2 2 2 2 2 2 2 2 2 2 2 2 2 2 2 2 2 2 2 2 2
left_child=1 7 6 8 15 13 11 9 14 -1 20 21 17 18 -2 -5 -9 26 29 -11 -7 -3 25 -13 -15 -17 28 -14 -8 -4
right_child=3 2 5 4 -6 10 12 16 -10 19 -12 23 27 24 -16 22 -18 -19 -20 -21 -22 -23 -24 -25 -26 -27 -28 -29 -30 -31
leaf_value=-0.0031151027947261527 0.0011165131631335526 -0.0016170259704813362 -0.00023144040326140104 0.0029002185608889607 0.0041364012706664307 0.00025796855749961523 -0.00089112818420219889 -0.002201862684968445 0.002266266510912007 -0.0028045484640945991 0.000885366087233455 -0.0011546827452734876 -0.00035063898219959814 -6.2468173079347863e-05 0.0016587366047315301 0.0030496364009791411 -0.0016950831981375814 -0.00049782972624102108 -4.3360149677482693e-05 -0.0023929025605320935 0.000629604994901456 -0.001273819671041565 0.0034944978728890424 -0.00094918893134620568 0.00023999301981881407 0.003292548962469612 -0.00097851171158254142 -0.0005842771080910768 -0.00064148783218115574 -0.00046271252032401488
leaf_weight=37 33 20 26 37 31 35 26 36 31 24 29 78 30 24 20 29 20 22 30 20 20 48 20 56 29 42 40 38 25 29
leaf_count=37 33 20 26 37 31 35 26 36 31 24 29 78 30 24 20 29 20 22 30 20 20 48 20 56 29 42 40 38 25 29
internal_value=0 -0.000903368 -0.000540007 0.00276719 0.00334687 0.000144235 -0.000936618 -0.00250799 0.00166993 -0.00284477 0.000563055 -0.0011718 -0.000674149 -0.000110698 0.00132113 0.00315566 -0.00202087 -0.000790259 -0.000243964 -0.00261744 0.000393109 -0.00137476 0.00325952 -0.0010688 0.000103029 0.00319333 -0.000860956 -0.000481201 -0.000768755 -0.000353384
internal_weight=0 742 605 243 159 222 383 137 84 81 84 202 181 138 53 128 56 113 85 44 55 68 91 134 53 71 91 68 51 55
internal_count=985 742 605 243 159 222 383 137 84 81 84 202 181 138 53 128 56 113 85 44 55 68 91 134 53 71 91 68 51 55
is_linear=0
shrinkage=0.05


Tree=14
num_leaves=31
num_cat=0
split_feature=12 12 12 13 11 12 12 5 12 12 5 12 12 12 4 12 5 1 20 1 12 5 5 5 2 12 15 15 13 20
split_gain=0.890318 0.156179 0.0592703 0.0558289 0.00956644 0.00855686 0.0085456 0.00812432 0.00510183 0.00189629 0.00166101 0.00164681 0.00145172 0.00141894 0.0013961 0.00121119 0.000976435 0.000726006 0.00072319 0.000673538 0.000634569 0.000610351 0.000560579 0.000437826 0.000395013 0.000386884 0.000382375 0.00032702 0.000320146 0.000264705
threshold=1.1603511649701175 1.0631525380172195 1.1129044881583519 1.2137735521674669 1.2573516666666669 1.1362779874323783 1.0890907725406644 52.155577263413626 1.1819565842831306 1.0989701024409568 57.747646715958624 1.0129409599134658 1.2421670230703079 1.1244387124611663 3.052165383002448 1.0801583291107471 48.097025190290303 0.14876030557512412 14.500000000000002 0.28212196696260078 1.1542149751966149 46.328256932826633 37.824168279238158 45.681457628433655 -0.15967603004402584 1.1052390837321246 0.69725535260911342 -0.38422547092138393 1.1095400181128734 19.500000000000004
decision_type=2 2 2 2 2 2 2 2 2 2 2 2 2 2 2 2 2 2 2 2 2 2 2 2 2 2 2 2 2 2
left_child=1 7 6 8 12 13 15 11 17 27 20 -1 -5 19 -9 21 -14 -2 -13 29 -7 -3 -11 -15 -17 -24 -18 -8 -27 -4
right_child=3 2 5 4 -6 10 9 14 -10 22 -12 18 16 23 -16 24 26 -19 -20 -21 -22 -23 25 -25 -26 28 -28 -29 -30 -31
leaf_value=-0.0030701400712132457 0.001000635034404695 -0.0014602949447704086 -0.00021986838266737044 0.0026932867190667563 0.0039575305270651978 0.00024507012949990376 -0.0009880329088236277 -0.00211987750513888 0.0019987616857344457 -0.00075055984476500234 0.00084109777857645836 -0.0027558885228175386 0.002764398657849857 -6.0092572554519089e-05 -0.0016103290580213071 -0.0011366724407438327 0.0030753247947855433 0.001404802454635501 -0.0023829607866131344 -4.1192140063988824e-05 0.00059812476160004736 -0.0011605696396769158 -0.00057763277009750412 0.00022861224477874832 -0.00094952157153984761 -0.0002277275849510694 0.0033145138450587789 -0.00077726956094718641 -0.00049504967852650832 -0.00043957689435799316
leaf_weight=24 25 33 26 35 30 35 26 41 33 23 29 26 21 24 20 54 55 20 26 30 20 35 45 29 59 21 24 63 24 29
leaf_count=24 25 33 26 35 30 35 26 41 33 23 29 26 21 24 20 54 55 20 26 30 20 35 45 29 59 21 24 63 24 29
internal_value=0 -0.0008582 -0.000513007 0.00262883 0.00314991 0.000137024 -0.000889787 -0.00238259 0.00152655 -0.000666221 0.000534902 -0.00272755 0.00297043 -0.000105163 -0.00195281 -0.00113929 0.00306744 0.00118026 -0.00256942 -0.000231766 0.000373454 -0.00130602 -0.000530264 9.7878e-05 -0.00103896 -0.000473966 0.00314799 -0.000838841 -0.000370299 -0.000335715
internal_weight=0 742 605 243 165 222 383 137 78 202 84 76 135 138 61 181 100 45 52 85 55 68 113 53 113 90 79 89 45 55
internal_count=985 742 605 243 165 222 383 137 78 202 84 76 135 138 61 181 100 45 52 85 55 68 113 53 113 90 79 89 45 55
is_linear=0
shrinkage=0.05


Tree=15
num_leaves=31
num_cat=0
split_feature=9 12 12 10 9 12 5 16 2 12 9 16 9 4 0 5 5 0 14 9 5 12 12 10 6 1 8 14 6 2
split_gain=0.72438 0.150845 0.0585519 0.0323585 0.0230943 0.00595349 0.00536688 0.00459773 0.00455816 0.00320523 0.00298061 0.00204361 0.00185658 0.00140163 0.00118077 0.00107866 0.00101953 0.000939615 0.000812274 0.000548043 0.000478133 0.00040049 0.00039241 0.000315972 0.000271378 0.000270148 0.000249427 0.000237795 0.000189787 0.000188175
threshold=1.1766428571428575 1.0989701024409568 1.0530591810581647 1.2221178571428573 1.1326214285714287 1.2631560873998064 55.093772199131813 1.1966866007061967 1.1894567433903604 1.1181724674466722 1.0813500000000003 1.0463164251680031 1.1533500000000001 -1.1255195084817424 0.29164495091885684 49.247246078875797 44.412725376731679 0.29164495091885684 0.54588818002843087 1.072214285714286 57.019864558369768 1.0890907725406644 1.1058666314562426 1.2545535714285718 -0.0004386604165367291 0.33945497778425932 1.0000000180025095e-35 -0.14535452398869761 0.0055640487630153066 0.035452673018154808
decision_type=2 2 2 2 2 2 2 2 2 2 2 2 2 2 2 2 2 2 2 2 2 2 2 2 2 2 2 2 2 2
left_child=1 2 6 7 9 13 11 -2 12 15 14 -1 24 -5 19 -3 -13 26 21 -4 23 27 -17 -15 -6 -24 -11 -12 -22 -21
right_child=3 4 10 5 8 -7 -8 -9 -10 17 18 16 -14 20 -16 22 -18 -19 -20 29 28 -23 25 -25 -26 -27 -28 -29 -30 -31
leaf_value=-0.0030200042495770116 0.0011686262741152729 -0.00059398431656197377 -0.0015497528873384 0.0024852598001333802 0.00010887142919403103 0.003707812105615934 -0.0018460687469033636 0.002013015514239669 0.0011458300138739023 -0.00025224912673625763 -0.0011162466054563138 -0.0026022839938869349 0.00060833351769057733 0.0027478747216886598 -0.00096175135497469455 -0.00052906317054294053 -0.0021660970790045603 0.00025224323057045696 -0.00060394470696337524 -0.0013624943234026433 0.0031559587456285957 -0.00085496559827210944 -0.0003699484752126946 0.0029895424488044922 0.00029842784113986081 -0.00017860211386765254 -2.7272949228063226e-05 -0.00094917007362502713 0.002943144189193845 -0.0011481959882768849
leaf_weight=21 28 68 25 22 35 24 34 38 22 28 34 37 48 38 25 20 21 20 20 20 22 74 39 21 41 35 22 57 20 21
leaf_count=21 28 68 25 22 35 24 34 38 22 28 34 37 48 38 25 20 21 20 20 20 22 74 39 21 41 35 22 57 20 21
internal_value=0 -0.000721415 -0.00141262 0.00257452 -1.00928e-05 0.00298746 -0.00237132 0.00165479 0.000482564 -0.000320127 -0.00102011 -0.00259738 0.000364888 0.00284691 -0.00125439 -0.000442292 -0.00244435 -3.74017e-05 -0.000904873 -0.00136524 0.00292568 -0.000941349 -0.000332557 0.00283389 0.000211132 -0.000279447 -0.00015326 -0.00101159 0.00305462 -0.00125273
internal_weight=0 767 389 213 378 147 113 66 146 232 276 79 124 123 91 162 58 70 185 66 101 165 94 59 76 74 50 91 42 41
internal_count=980 767 389 213 378 147 113 66 146 232 276 79 124 123 91 162 58 70 185 66 101 165 94 59 76 74 50 91 42 41
is_linear=0
shrinkage=0.05


Tree=16
num_leaves=31
num_cat=0
split_feature=12 12 12 10 12 12 16 12 2 15 12 12 12 4 15 3 8 8 0 15 21 6 4 7 6 10 1 17 1 17
split_gain=0.653619 0.134183 0.0528431 0.0316072 0.0200967 0.00537302 0.00466865 0.0040667 0.00399726 0.00300925 0.00267992 0.00243932 0.00191581 0.00126497 0.000963046 0.000907434 0.000857077 0.00059294 0.000514908 0.000468049 0.000413786 0.000396761 0.000313937 0.000294164 0.000267324 0.000263069 0.000263015 0.000261248 0.000193152 0.000172761
threshold=1.1746487298716282 1.0989701024409568 1.0530591810581647 1.2221178571428573 1.1304305567636599 1.2631560873998064 1.1966866007061967 1.0129409599134658 1.1894567433903604 -0.70820993250201403 1.0832540656599201 1.1181724674466722 1.1528604112981873 -1.1255195084817424 0.50304075262706516 -1.0354027175341005 0.00079105461838459626 0.00069484579879506062 0.061581772272156783 0.69725535260911342 7.5000000000000009 -0.00039747685876001521 0.59535582253913433 0.001561635584340646 -0.0004386604165367291 1.0869607142857145 -0.09567379741984848 1.2323017229961513 -0.47937633769704052 1.0788433325678752
decision_type=2 2 2 2 2 2 2 2 2 2 2 2 2 2 2 2 2 2 2 2 2 2 2 2 2 2 2 2 2 2
left_child=1 2 7 6 11 13 -2 -1 12 -9 15 14 24 -5 21 -4 -13 23 22 27 -11 28 -17 29 -6 -19 -23 -15 -3 -12
right_child=3 4 10 5 8 -7 -8 9 -10 20 17 16 -14 19 -16 18 -18 25 -20 -21 -22 26 -24 -25 -26 -27 -28 -29 -30 -31
leaf_value=-0.0028155125230550767 0.0010855325287388218 -0.00071541206866857551 -0.001419945077970624 0.0023609967817637056 9.5673062259309176e-05 0.0035224215360358359 0.0019123647325231059 -0.0024361521660073385 0.0010855643078684807 -0.0019678815910271533 -0.00093001929377870907 -0.00021074648921577525 0.00058320253676279112 0.0026096625648664709 -0.00024777167432653692 -0.0010837267104793211 0.00016824045266660575 -0.0008052836901143841 -0.0009486875183051226 0.002957587633971815 -0.0016803189265457066 -0.0004974205592839882 -0.0013412255886942148 -0.0010215450708261308 0.00027302642803650007 -0.00056614169101838188 -0.00026172906513238558 0.0027986632932613538 -0.00052646307679089278 -0.00078261065924459185
leaf_weight=25 31 21 25 22 42 24 38 37 20 29 35 35 47 33 54 29 26 23 41 27 22 29 20 34 43 23 20 41 38 46
leaf_count=25 31 21 25 22 42 24 38 37 20 29 35 35 47 33 54 29 26 23 41 27 22 29 20 34 43 23 20 41 38 46
internal_value=0 -0.000691394 -0.00134199 0.00242371 -1.65076e-05 0.00283809 0.00154089 -0.00225275 0.000426843 -0.00209288 -0.000969107 -0.000318702 0.000327037 0.00270456 -0.000420177 -0.00115346 -4.92111e-05 -0.000837429 -0.00107943 0.0027794 -0.00184383 -0.00050638 -0.00118883 -0.000898116 0.000185393 -0.000685713 -0.00040122 0.00271438 -0.000593716 -0.000846306
internal_weight=0 764 389 216 375 147 69 113 152 88 276 223 132 123 162 115 61 161 90 101 51 108 49 115 85 46 49 74 59 81
internal_count=980 764 389 216 375 147 69 113 152 88 276 223 132 123 162 115 61 161 90 101 51 108 49 115 85 46 49 74 59 81
is_linear=0
shrinkage=0.05


Tree=17
num_leaves=31
num_cat=0
split_feature=9 13 9 10 9 5 11 16 2 9 11 9 9 5 14 4 5 8 3 5 8 4 2 14 6 11 9 14 2 13
split_gain=0.590154 0.122021 0.0445824 0.0263166 0.0216256 0.00510622 0.0050042 0.00372397 0.00371614 0.00313682 0.00188198 0.00181563 0.00149671 0.00142029 0.00117069 0.00103784 0.00076954 0.00070063 0.000509159 0.000485992 0.000345347 0.000310788 0.000302532 0.000250767 0.000221722 0.000193986 0.000184564 0.000156653 0.000149995 0.000149489
threshold=1.1766428571428575 1.0978305710306058 1.0554142857142861 1.2221178571428573 1.1326214285714287 55.365172910567992 1.2549166666666671 1.1966866007061967 1.1894567433903604 1.1175285714285716 1.024840666666667 1.0813500000000003 1.1533500000000001 45.589650213576583 -0.24581774137723875 0.19525526358910031 58.759143432874424 -4.932442810695185e-05 -1.8662989706931807 60.664768991068122 0.0011860212527361263 -1.1255195084817424 -0.34624473088616931 0.40728706632181816 -0.0004386604165367291 1.1269233333333335 1.1039142857142858 0.22111002057749732 0.10309649349558027 1.1076768241178485
decision_type=2 2 2 2 2 2 2 2 2 2 2 2 2 2 2 2 2 2 2 2 2 2 2 2 2 2 2 2 2 2
left_child=1 2 5 7 9 10 15 -2 12 13 -1 14 24 29 -4 21 22 -11 -12 26 -17 -5 -13 -16 -6 -26 -15 -19 -28 -3
right_child=3 4 11 6 8 -7 -8 -9 -10 17 18 16 -14 19 23 20 -18 27 -20 -21 -22 -23 -24 -25 25 -27 28 -29 -30 -31
leaf_value=-0.002669316783015217 0.0010568153528895761 -0.00067586902933683066 -0.0013984243886975142 0.0022429469380189073 9.8644204179955928e-05 -0.0016220526174745627 0.0032723014118770759 0.0018167465098055181 0.0010342604607682336 -0.00023242622264660895 -0.0023089925226356302 -0.00097711220490358155 0.00054771019276813606 -0.00049329606182355848 -0.0010711979726329447 0.0026064929963890895 -0.00054375040926970544 -1.6682813590953381e-05 -0.0019985467195510866 -0.00013456529568429688 0.0028579819016158583 0.0024870720633771272 -0.00082254998526105319 -0.00085782929839167221 0.00016384547880512576 0.0003814272291492671 -0.0004252837211914504 0.00017423791772065063 -0.00026470380826415778 -0.0005267201249288129
leaf_weight=28 28 42 26 22 35 36 30 38 22 32 28 48 48 27 40 43 20 22 25 25 20 32 93 21 21 20 26 21 33 28
leaf_count=28 28 42 26 22 35 36 30 38 22 32 28 48 48 27 40 43 20 22 25 25 20 32 93 21 21 20 26 21 33 28
internal_value=0 -0.000651155 -0.001313 0.00232379 -5.02249e-05 -0.00211752 0.00269618 0.00149435 0.000435381 -0.000327172 -0.00233773 -0.000933447 0.000329129 -0.000439836 -0.00111749 0.00254846 -0.000833997 -5.52755e-05 -0.00216256 -0.00032861 0.00268633 0.00238761 -0.000875167 -0.000997743 0.000191077 0.000269983 -0.000385019 7.65575e-05 -0.000335468 -0.000616209
internal_weight=0 767 365 213 402 117 147 66 146 256 81 248 124 181 87 117 161 75 53 111 63 54 141 61 76 41 86 43 59 70
internal_count=980 767 365 213 402 117 147 66 146 256 81 248 124 181 87 117 161 75 53 111 63 54 141 61 76 41 86 43 59 70
is_linear=0
shrinkage=0.05


Tree=18
num_leaves=31
num_cat=0
split_feature=9 12 12 10 9 11 5 12 2 12 9 11 9 4 14 15 14 8 3 15 12 12 14 4 14 6 6 20 15 11
split_gain=0.532648 0.108725 0.0430702 0.0263089 0.0161738 0.00457174 0.00401739 0.00388381 0.00320442 0.00237377 0.00220944 0.00169849 0.00122742 0.00101272 0.000935801 0.000790902 0.000658947 0.000652708 0.000459516 0.000358216 0.000324749 0.000298771 0.000275152 0.000262694 0.000239919 0.000227744 0.000200104 0.000182222 0.000179543 0.000175072
threshold=1.1740714285714289 1.0989701024409568 1.0530591810581647 1.2221178571428573 1.1326214285714287 1.2573516666666669 55.163801007739316 1.2015430575987638 1.1894567433903604 1.1181724674466722 1.0813500000000003 1.024840666666667 1.1533500000000001 -1.1255195084817424 -0.19368546738259987 0.50304075262706516 0.54588818002843087 -4.932442810695185e-05 -1.8662989706931807 0.69725535260911342 1.1079870915322561 1.0870580964845649 -0.2131797303188416 1.2296675791108049 -0.38307856021741155 0.001336926372559222 -0.0004386604165367291 15.500000000000002 0.098627871260292585 1.1269233333333335
decision_type=2 2 2 2 2 2 2 2 2 2 2 2 2 2 2 2 2 2 2 2 2 2 2 2 2 2 2 2 2 2
left_child=1 2 6 7 9 13 11 -2 12 15 14 -1 26 -5 -4 20 21 -11 -13 25 22 -12 -3 28 -23 -15 -6 -22 -16 -28
right_child=3 4 10 5 8 -7 -8 -9 -10 17 16 18 -14 19 23 -17 -18 -19 -20 -21 27 24 -24 -25 -26 -27 29 -29 -30 -31
leaf_value=-0.002535850967147521 0.0010516035836189985 -0.00068204717774113471 -0.0013107285931192596 0.0021307995585216721 9.3711995494751531e-05 0.0031926210581635439 -0.0015591419243719429 0.0018013854841551474 0.00097315483615689345 -0.00020245502457856353 -0.0008810222191785119 -0.0021935429024909224 0.00051101609986896324 0.0023695913575044495 -0.00100018399534747 -0.00022340492798523178 -0.00050431779120117424 0.00010491770267552242 -0.0018986193984746932 0.0026610533189442426 -0.00028402074102424588 -0.00089852056233212345 -0.00044924566716266179 -0.0011104337804551637 -0.00070184146870683499 0.0025460572800401486 0.00015565320194409218 -0.00046440826845355336 -0.00079085901989379807 0.00036235587147530172
leaf_weight=28 39 22 29 22 35 24 32 31 21 31 76 28 45 41 20 54 20 39 25 27 28 20 30 21 69 33 21 28 21 20
leaf_count=28 39 22 29 22 35 24 32 31 21 31 76 28 45 41 20 54 20 39 25 27 28 20 30 21 69 33 21 28 21 20
internal_value=0 -0.000625981 -0.00121122 0.00218146 -1.72697e-05 0.00256137 -0.00203346 0.00138365 0.000403012 -0.000274511 -0.000874578 -0.00222085 0.000304062 0.0024382 -0.00107629 -0.000379644 -0.00077536 -3.12045e-05 -0.00205443 0.00250516 -0.000457763 -0.000808213 -0.000547739 -0.000966626 -0.000746039 0.00244829 0.000181523 -0.000374215 -0.000892969 0.000256484
internal_weight=0 763 389 217 374 147 113 70 142 232 276 81 121 123 91 162 185 70 53 101 108 165 52 62 89 74 76 56 41 41
internal_count=980 763 389 217 374 147 113 70 142 232 276 81 121 123 91 162 185 70 53 101 108 165 52 62 89 74 76 56 41 41
is_linear=0
shrinkage=0.05


Tree=19
num_leaves=31
num_cat=0
split_feature=12 12 12 10 12 21 5 12 16 2 12 16 12 5 15 15 0 0 12 14 12 4 17 1 14 1 12 12 7 17
split_gain=0.480723 0.100553 0.0388709 0.0208444 0.0154511 0.00408657 0.00362569 0.00342538 0.00296619 0.0020374 0.00198354 0.00145473 0.000868059 0.000797113 0.000783027 0.000781062 0.000740206 0.000616571 0.000607654 0.000471267 0.000341951 0.000339038 0.000316377 0.000314582 0.000248324 0.000246876 0.000223361 0.000206897 0.000175388 0.000167971
threshold=1.1757066181513067 1.0989701024409568 1.0530591810581647 1.2221178571428573 1.1362779874323783 2.5000000000000004 55.163801007739316 1.1198725417883166 1.1966866007061967 1.1894567433903604 1.0832540656599201 1.0463164251680031 1.1542149751966149 57.019864558369768 -0.70820993250201403 0.50304075262706516 0.18426717552068042 0.29164495091885684 1.0718516163407319 0.53304776289059908 1.1079870915322561 -1.1255195084817424 1.008507111883427 -0.57607816274637391 -0.2131797303188416 -0.65468393760793042 1.0870580964845649 1.1295735347917364 -0.0014271821241943325 1.1449467687355328
decision_type=2 2 2 2 2 2 2 2 2 2 2 2 2 2 2 2 2 2 2 2 2 2 2 2 2 2 2 2 2 2
left_child=1 2 6 8 7 -5 11 15 -2 12 16 -1 -6 21 22 20 18 23 -4 25 24 -7 -13 -9 -3 -12 -27 -25 -20 -14
right_child=3 4 10 5 9 13 -8 17 -10 -11 19 14 29 -15 -16 -17 -18 -19 28 -21 -22 -23 -24 27 -26 26 -28 -29 -30 -31
leaf_value=-0.0024679700178759441 0.00095733256182736835 -0.00064794482261111791 -0.0012815123753777396 0.0029432692655151894 0.00023165450512897223 0.0020464875308486325 -0.0014811848232056946 -0.0002090370708174305 0.0016427458092374237 0.00093091535032726832 -0.00090605064760893592 -0.0022527862805873156 0.00063612325937442834 0.0024776891572400928 -0.0017290001409128307 -0.00019909518902606674 -0.00078948577619016621 0.00026749036000442823 -0.00087114128030159267 -0.00050802449240227752 -0.00034711942190326575 0.0022736798004748728 -0.0019715494103729725 -9.2359221265983916e-05 -0.00042678338087474306 -0.00081899939104914667 -0.0006730284817565821 0.00011525462183661667 -0.0010503346462630563 0.00044599776156246663
leaf_weight=21 27 22 24 31 50 24 32 20 38 20 22 20 21 40 20 57 33 21 22 23 63 52 20 21 30 40 76 28 36 26
leaf_count=21 27 22 24 31 50 24 32 20 38 20 22 20 21 40 20 57 33 21 22 23 63 52 20 21 30 40 76 28 36 26
internal_value=0 -0.00058594 -0.00115066 0.00210362 -6.32067e-06 0.00243331 -0.00193179 -0.000219661 0.00135804 0.000471415 -0.000830849 -0.0021098 0.000376673 0.00229702 -0.00198445 -0.000350437 -0.000989448 3.02682e-05 -0.00106992 -0.000717564 -0.000425451 0.00220193 -0.00211217 -4.19298e-05 -0.000520352 -0.000752487 -0.000723363 2.62773e-05 -0.000982365 0.000530947
internal_weight=0 768 389 212 379 147 113 262 65 117 276 81 97 116 60 172 115 90 82 161 115 76 40 69 52 138 116 49 58 47
internal_count=980 768 389 212 379 147 113 262 65 117 276 81 97 116 60 172 115 90 82 161 115 76 40 69 52 138 116 49 58 47
is_linear=0
shrinkage=0.05


Tree=20
num_leaves=31
num_cat=0
split_feature=16 11 11 10 6 2 11 15 10 10 16 11 15 5 5 5 7 5 16 15 4 11 5 5 14 11 10 17 11 1
split_gain=0.424876 0.081374 0.035665 0.0288895 0.00663039 0.0057921 0.00499387 0.00498112 0.00468143 0.00294719 0.00266527 0.00162942 0.00151043 0.0013929 0.00111742 0.000816317 0.000802217 0.000658868 0.000491415 0.000412331 0.000405823 0.000350242 0.000325698 0.000249389 0.000216048 0.000214743 0.000183953 0.000178272 0.000152274 0.000146445
threshold=1.1851811208822969 1.0748016666666669 1.2146350000000001 1.112582142857143 0.002490177447899145 1.3441568121825622 1.2573516666666669 -0.3740066264449648 1.0946250000000002 1.133114285714286 1.1966866007061967 1.0257923333333336 -0.16789910026644853 48.304367666749449 47.382895279198948 53.277572757540888 0.0086992147971369071 43.948004265696547 1.1688214517938098 -0.75856100566811058 1.1441933485968894 1.0853516666666667 60.664768991068122 34.126307080114849 -0.41176622710503957 1.1147983333333336 1.2457821428571429 1.2323017229961513 1.1035016666666668 0.053804797458933969
decision_type=2 2 2 2 2 2 2 2 2 2 2 2 2 2 2 2 2 2 2 2 2 2 2 2 2 2 2 2 2 2
left_child=1 4 7 8 11 9 15 -2 14 12 -9 -1 23 19 21 24 -6 -13 -11 -10 -16 -3 28 -5 -4 -14 -26 -17 -15 -21
right_child=2 3 6 5 16 -7 -8 10 13 18 -12 17 25 22 20 27 -18 -19 -20 29 -22 -23 -24 -25 26 -27 -28 -29 -30 -31
leaf_value=-0.0022398522087874319 0.00054155444296815529 -0.0010432135433919968 0.001950080573026623 -0.00049485469295177612 -0.0013747607616500723 0.00082815064076839921 0.0029450853355228904 0.00099686429370194674 -0.00074865579605102543 0.00014747606227625843 0.0016528593114344403 -0.0019326633350415666 -8.1547025345369355e-05 -0.00042908318185557923 -0.00072047428790635124 0.0022421232708122419 -0.00097291895350360357 -0.0016190386432058672 0.00038509575703452964 -0.00056225468007916658 -0.00050979238973620047 -0.00082274074449615426 -0.00010853580231644 -0.00026000711704210309 0.0020348339248448611 0.00011133023906422163 0.002242172031622866 0.0024271457456052307 -0.00025966511788687465 -0.00039431339781731368
leaf_weight=26 29 31 21 20 27 26 28 30 20 55 32 33 27 21 96 23 23 34 36 27 30 43 26 26 20 31 23 30 36 25
leaf_count=26 29 31 21 20 27 26 28 30 20 55 32 33 27 21 96 23 23 34 36 27 30 43 26 26 20 31 23 30 36 25
internal_value=0 -0.000586686 0.00185833 -0.00032165 -0.00165425 0.000127144 0.00234527 0.00108245 -0.00060104 3.3676e-05 0.00133544 -0.00190389 -0.000148152 -0.00039479 -0.000760884 0.00220172 -0.00118991 -0.00177351 0.000241479 -0.00055572 -0.000670312 -0.000915101 -0.000255188 -0.000362115 0.00208154 2.15425e-05 0.00214574 0.00234685 -0.000322082 -0.000481514
internal_weight=0 719 236 576 143 221 145 91 355 195 62 93 104 155 200 117 50 67 91 72 126 74 83 46 64 58 43 53 57 52
internal_count=955 719 236 576 143 221 145 91 355 195 62 93 104 155 200 117 50 67 91 72 126 74 83 46 64 58 43 53 57 52
is_linear=0
shrinkage=0.05


Tree=21
num_leaves=31
num_cat=0
split_feature=12 12 12 12 9 13 12 12 12 12 2 1 5 5 1 5 20 1 14 12 12 9 9 9 14 10 13 20 8 13
split_gain=0.391597 0.0752159 0.0259269 0.0250752 0.00999774 0.00443275 0.00342753 0.00310065 0.00258064 0.002311 0.00116422 0.00115151 0.00109274 0.000943568 0.000803016 0.000751349 0.000685061 0.000629338 0.000371656 0.000344234 0.000304929 0.000294526 0.000272979 0.000214059 0.000194983 0.000166018 0.000152152 0.000146195 0.000138231 0.00011604
threshold=1.1635063380526069 1.0801583291107471 1.2264962167726523 1.1155248100660031 1.0467000000000002 1.259578228164955 1.0951591829948248 1.1366020572200064 1.1819565842831306 1.0129409599134658 1.0000000180025095e-35 -0.21372882842550231 61.110484396575821 37.824168279238158 -0.13738781033635902 53.277572757540888 18.500000000000004 0.04632427211943569 -0.15387698734906535 1.1052390837321246 1.1279419698214959 1.1516357142857145 1.1009928571428573 1.0851142857142861 -0.41176622710503957 1.2457821428571429 1.251762857902897 20.500000000000004 0.0002395473020475979 1.0885028917180868
decision_type=2 2 2 2 2 2 2 2 2 2 2 2 2 2 2 2 2 2 2 2 2 2 2 2 2 2 2 2 2 2
left_child=1 4 8 6 9 15 18 14 17 -1 -11 -6 21 -8 20 24 -16 -2 29 22 -5 -9 -15 -20 -4 -26 -17 -21 -13 -3
right_child=2 3 5 7 11 -7 13 12 -10 10 -12 28 -14 19 16 26 -18 -19 23 27 -22 -23 -24 -25 25 -27 -28 -29 -30 -31
leaf_value=-0.0021785004458461819 0.00070033188909292233 -0.00084149596547441823 0.0018525765499188788 -0.00026750086082029156 -0.0012723956373520196 0.0027931196881192076 -0.0005574064342201584 0.00018175361178221245 0.0014307425344029341 -0.001821601640030339 -0.0014163025860291195 -0.00083006714350741481 0.00070795827301811773 -0.00025378977393715599 0.00028959775964949587 0.0021660471447941029 -2.2547292834273184e-05 0.0010716202070138283 -0.00071281435175074483 -0.00016857808150234633 -1.523657138813692e-05 0.00039456955749522647 -0.00048567036127982041 -0.00057223702897317712 0.0019330922234803438 0.0021300634369254114 0.0023408205714076759 -0.00032189157892666435 -0.00099416494014717286 -0.00069282582207095059
leaf_weight=26 25 35 21 25 32 28 45 29 37 37 34 33 22 22 32 33 39 21 45 48 23 37 30 68 20 23 20 23 21 21
leaf_count=26 25 35 21 25 32 28 45 29 37 37 34 33 22 22 32 33 39 21 45 48 23 37 30 68 20 23 20 23 21 21
internal_value=0 -0.000550356 0.00182461 -0.000255382 -0.00142722 0.00222801 -0.000521432 0.000177753 0.00111988 -0.0017752 -0.00162751 -0.00103472 0.000402784 -0.0003615 1.1343e-05 0.00209276 0.000118138 0.000869833 -0.000680417 -0.000289827 -0.000146624 0.00030106 -0.000387567 -0.000628219 0.00197746 0.00203845 0.002232 -0.000218243 -0.000893883 -0.000785745
internal_weight=0 727 228 544 183 145 337 207 83 97 71 86 88 168 119 117 71 46 169 123 48 66 52 113 64 43 53 71 54 56
internal_count=955 727 228 544 183 145 337 207 83 97 71 86 88 168 119 117 71 46 169 123 48 66 52 113 64 43 53 71 54 56
is_linear=0
shrinkage=0.05


Tree=22
num_leaves=31
num_cat=0
split_feature=12 12 13 12 9 11 12 12 5 4 5 21 5 2 12 2 0 0 20 0 15 3 9 12 7 12 2 12 10 15
split_gain=0.353417 0.0678823 0.02343 0.0226304 0.0090262 0.00461185 0.00309334 0.00279833 0.00234771 0.00234039 0.000986197 0.000978398 0.00085685 0.000846714 0.000807214 0.000722971 0.0006353 0.000429609 0.000408111 0.000386449 0.000344545 0.000300979 0.00026581 0.000216118 0.0002053 0.000198655 0.00017452 0.000179978 0.000171231 0.000165762
threshold=1.1635063380526069 1.0801583291107471 1.2101909477883235 1.1155248100660031 1.0491928571428575 1.2573516666666669 1.0951591829948248 1.1366020572200064 54.890116589966311 3.6746221005446671 61.110484396575821 9.5000000000000018 46.969858380574401 -0.83823192106806099 1.2471964187254176 -0.43386501136073446 -0.1099404821445049 0.090764715153757183 13.500000000000002 0.16733080874760112 -0.17460127448498738 -1.8662989706931807 1.1516357142857145 1.1052390837321246 0.00033240880907230017 1.2549325952001784 -0.87524244919352501 1.1023925705440678 1.0846500000000001 -0.21951647512520814
decision_type=2 2 2 2 2 2 2 2 2 2 2 2 2 2 2 2 2 2 2 2 2 2 2 2 2 2 2 2 2 2
left_child=1 4 9 6 8 14 20 16 11 15 22 21 26 -6 24 -2 29 -15 -18 25 -3 -1 -9 -14 -4 -16 -8 -28 -22 -5
right_child=2 3 5 7 13 -7 12 10 -10 -11 -12 -13 23 17 19 -17 18 -19 -20 -21 28 -23 -24 -25 -26 -27 27 -29 -30 -31
leaf_value=-0.0018201133275094134 0.00058398955304818671 -0.00074780944539400358 0.001887369298686584 -0.00023669528059794439 -0.0012490254919975997 0.0026589827412473307 -0.00059116744986650622 0.00017266592974543718 -0.0013100189817768912 0.0014469557558186353 0.00067256036590234466 -0.0020914766471832992 -0.00034694043501718521 -0.00099432538263499737 0.0019130005555994371 0.0009639529090735221 0.00025779610158578077 -0.00072985070707675607 1.1908077115852697e-05 0.0022443366236984731 -0.00066907460840934143 -0.0015640779102051802 0.00037484108197040279 -0.00019007930855995285 0.0016888157586040704 0.0021085929391639574 -0.0005133180659658347 -0.0003234409411258336 -0.00054419857280498202 -4.7824127977946777e-05
leaf_weight=24 21 56 30 21 20 28 22 29 31 20 22 24 34 34 34 31 27 28 45 20 47 22 37 62 23 21 26 24 66 26
leaf_count=24 21 56 30 21 20 28 22 29 31 20 22 24 34 34 34 31 27 28 45 20 47 22 37 62 23 21 26 24 66 26
internal_value=0 -0.000522838 0.00173338 -0.000242613 -0.00135586 0.00207772 -0.00049536 0.000168865 -0.00167226 0.000987298 0.000382645 -0.00183268 -0.000343425 -0.000966139 0.00195057 0.000810506 1.07759e-05 -0.000874885 0.000104116 0.00205612 -0.000646396 -0.00169766 0.000286007 -0.000245634 0.0018012 0.00198768 -0.000473813 -0.000422177 -0.000596138 -0.000132213
internal_weight=0 727 228 544 183 156 337 207 101 72 88 70 168 82 128 52 119 62 72 75 169 46 66 96 53 55 72 50 113 47
internal_count=955 727 228 544 183 156 337 207 101 72 88 70 168 82 128 52 119 62 72 75 169 46 66 96 53 55 72 50 113 47
is_linear=0
shrinkage=0.05


Tree=23
num_leaves=31
num_cat=0
split_feature=12 12 11 12 12 11 12 12 5 12 5 21 5 1 5 1 1 12 20 1 5 16 12 1 0 0 12 2 15 15
split_gain=0.318958 0.0612638 0.0211721 0.0204239 0.00815575 0.00367841 0.00279174 0.0025279 0.00240947 0.0021805 0.000927317 0.000873325 0.000777839 0.000710569 0.000631792 0.000592101 0.000507888 0.000470082 0.000387382 0.000321755 0.000306769 0.000280276 0.000219648 0.000177447 0.00016603 0.000161865 0.000160768 0.000141513 0.000110056 0.000105146
threshold=1.1635063380526069 1.0801583291107471 1.2146350000000001 1.1155248100660031 1.0512179937406032 1.2573516666666669 1.0951591829948248 1.1362779874323783 54.890116589966311 1.1819565842831306 61.110484396575821 9.5000000000000018 37.824168279238158 0.28212196696260078 53.277572757540888 -0.21372882842550231 0.04632427211943569 1.1279419698214959 17.500000000000004 0.44150371715093734 43.948004265696547 1.1135052465601836 1.1528604112981873 -0.50103483387349257 0.11955846202460486 0.24837709815227485 1.0890907725406644 0.41116557058412667 -0.17460127448498738 0.0233858883482581
decision_type=2 2 2 2 2 2 2 2 2 2 2 2 2 2 2 2 2 2 2 2 2 2 2 2 2 2 2 2 2 2
left_child=1 4 9 6 8 14 19 13 11 16 22 20 -8 17 23 -6 -2 -5 -15 26 -1 27 -9 -4 -17 -16 28 -14 -3 -23
right_child=2 3 5 7 15 -7 12 10 -10 -11 -12 -13 21 18 25 24 -18 -19 -20 -21 -22 29 -24 -25 -26 -27 -28 -29 -30 -31
leaf_value=-0.0017261354597630325 0.00062775661982595926 -0.00075245410960633318 0.0016631776644360453 -0.00022229057305796435 -0.0010848739999346436 0.0025260336796886157 -0.00050412549507907693 0.00018070846211533839 -0.0012296378968612237 0.0012956203123542004 0.00063893234711775385 -0.0019869028474204242 -0.0004639468577806838 0.00031467360954376915 0.0019449384883046151 -0.00088880847115069619 0.00096130082827238818 3.8969579272264981e-05 2.337450000050012e-05 -0.00049410807370718222 -0.0014677737839519978 -0.00027982837577837926 0.00035791987221968802 0.0018404947074000225 -0.00070658356742933398 0.0021235874233146508 -0.0005692469935195568 -0.00027585584277403538 -0.00064015745641275625 -0.00016420485555107577
leaf_weight=27 25 40 21 36 28 28 45 36 34 37 22 24 20 21 32 25 21 33 25 42 20 32 34 43 25 21 39 20 48 51
leaf_count=27 25 40 21 36 28 28 45 36 34 37 22 24 20 21 32 25 21 33 25 42 20 32 34 43 25 21 39 20 48 51
internal_value=0 -0.000496696 0.00164671 -0.000230482 -0.00128806 0.00201124 -0.000470592 0.000160422 -0.00157576 0.00100987 0.000355775 -0.0017415 -0.000326254 4.13951e-06 0.00188805 -0.000900786 0.000780027 -9.73401e-05 0.000156359 -0.000614076 -0.00161619 -0.000261179 0.000266783 0.00178231 -0.000797696 0.00201572 -0.000653751 -0.000369901 -0.000691201 -0.000208783
internal_weight=0 727 228 544 183 145 337 207 105 83 92 71 168 115 117 78 46 69 46 169 47 123 70 64 50 53 127 40 88 83
internal_count=955 727 228 544 183 145 337 207 105 83 92 71 168 115 117 78 46 69 46 169 47 123 70 64 50 53 127 40 88 83
is_linear=0
shrinkage=0.05


Tree=24
num_leaves=31
num_cat=0
split_feature=9 13 13 9 9 11 14 9 14 9 15 10 1 14 8 14 15 9 13 14 1 13 6 9 14 1 1 0 17 13
split_gain=0.286562 0.055184 0.0203321 0.0195211 0.00560419 0.00374704 0.00272021 0.00230511 0.0022813 0.00219085 0.00166391 0.00105884 0.000942177 0.000655225 0.000623292 0.00055425 0.000532698 0.000456639 0.000447885 0.000405645 0.00025128 0.000272771 0.000245762 0.000224457 0.000208974 0.00018195 0.000175418 0.000147026 0.000140592 0.000135153
threshold=1.1621928571428572 1.0767254048181183 1.2101909477883235 1.1141714285714288 1.0441785714285714 1.2573516666666669 0.95420289218038612 1.0949428571428574 0.090379877663413141 1.1321214285714287 1.1318742317531176 1.0235192857142861 -0.15049601868552528 -0.25420871052734678 0.0010237022958662432 -0.14535452398869761 -0.262055130410633 1.1516357142857145 1.2533941934088926 -0.27667696722885782 -0.47937633769704052 1.2430184497423742 -0.0016691971913356249 1.0851142857142861 0.36143633602506459 0.31918325272711773 -0.34950033383717155 0.17586909749143234 1.0095494947369843 1.0885028917180868
decision_type=2 2 2 2 2 2 2 2 2 2 2 2 2 2 2 2 2 2 2 2 2 2 2 2 2 2 2 2 2 2
left_child=1 4 8 7 10 14 9 15 16 19 11 -1 -6 -9 18 29 -2 26 20 -5 -4 -22 -15 -17 -25 -24 -11 -14 -13 -3
right_child=2 3 5 6 12 -7 -8 13 -10 17 -12 28 27 22 -16 23 -18 -19 -20 -21 21 -23 25 24 -26 -27 -28 -29 -30 -31
leaf_value=-0.0018903240661269855 0.00044036769802914934 -0.00075914717486335172 0.0014835873991250993 -0.00026221314440287341 -0.0011650403319247839 0.0023997319962031079 0.00068054451185162179 -0.00050102605164283889 0.0011875004260218703 3.347535560654554e-05 -0.0011441361913014027 -0.001586380893025886 -0.00088369063715535139 -0.00035047896880828575 0.0019563565962016582 -0.00060837824507702695 0.00079690815923227519 0.00035614396851414292 0.0018763566318039712 -3.8247929912740216e-05 0.0015747755691409113 0.0018060871973060646 -0.00028994903134714278 -0.00052818638277148794 -0.00034077867305660179 -0.00011541985782059783 0.00019846833477328932 -0.00069637884967960423 -0.0014076276385987347 -0.00060293372604064649
leaf_weight=28 20 45 20 30 29 28 20 40 32 24 21 22 22 46 31 54 22 39 26 62 25 26 28 51 21 32 49 20 22 20
leaf_count=28 20 45 20 30 29 28 20 40 32 24 21 22 22 46 31 54 22 39 26 62 25 26 28 51 21 32 49 20 22 20
internal_value=0 -0.000473558 0.00155202 -0.000237702 -0.00128036 0.0018758 0.000124067 -0.000478165 0.000869451 6.95108e-05 -0.00153574 -0.00164996 -0.000945844 -0.000328596 0.00176119 -0.000592495 0.000627127 0.000218018 0.00169881 -0.00011128 0.00163379 0.0016927 -0.000263529 -0.00053132 -0.000473526 -0.000196867 0.000144224 -0.000794495 -0.001497 -0.000711081
internal_weight=0 725 230 561 164 156 224 337 74 204 93 72 71 146 128 191 42 112 97 92 71 51 106 126 72 60 73 42 44 65
internal_count=955 725 230 561 164 156 224 337 74 204 93 72 71 146 128 191 42 112 97 92 71 51 106 126 72 60 73 42 44 65
is_linear=0
shrinkage=0.05


Tree=25
num_leaves=31
num_cat=0
split_feature=9 9 9 9 21 5 9 15 10 14 5 9 9 5 2 9 5 5 9 1 15 1 10 1 5 21 4 11 17 20
split_gain=0.268532 0.0553605 0.0204791 0.0184829 0.00384244 0.00329352 0.00322677 0.00250885 0.00181899 0.00164936 0.00111669 0.00102249 0.000672912 0.000563066 0.000560035 0.000471997 0.000449889 0.000307664 0.000287588 0.000279919 0.000278294 0.000241775 0.000238101 0.00023607 0.000174571 0.000166912 0.000148663 0.000144902 0.000137778 0.000130716
threshold=1.1621928571428572 1.0666285714285717 1.1148428571428572 1.2116285714285715 2.5000000000000004 43.948004265696547 1.094314285714286 1.4455295739946716 1.1386142857142858 0.23555205234908824 58.759143432874424 1.2355071428571429 1.0803571428571432 37.824168279238158 -0.79258918666746936 1.0264857142857144 56.537701765432381 46.328256932826633 1.1235000000000002 -0.22695859003546978 -0.3740066264449648 -0.21372882842550231 1.1551464285714288 -0.01803517162229373 60.664768991068122 5.5000000000000009 -0.012842726096723432 1.0310256666666671 1.2375207535314898 18.500000000000004
decision_type=2 2 2 2 2 2 2 2 2 2 2 2 2 2 2 2 2 2 2 2 2 2 2 2 2 2 2 2 2 2
left_child=1 5 6 9 -5 15 12 8 14 20 27 -6 17 -8 -4 -1 28 -3 29 -10 -2 -14 -21 26 25 -25 -15 -7 -13 -16
right_child=3 2 7 4 11 10 13 -9 19 -11 -12 16 21 23 18 -17 -18 -19 -20 22 -22 -23 -24 24 -26 -27 -28 -29 -30 -31
leaf_value=-0.0017515256974313942 0.00046260265487944711 -0.00082908693834074911 -0.00028338070662270882 0.0022282979944173026 0.0013754481511811416 -0.0013590793631135904 -0.00046642859306302855 0.00063669151457447916 0.00014672375287166993 0.001114884089717331 -0.00090874336855185619 0.001570825467351824 -0.00061973625659879491 -0.00025126831387751737 -1.2513828247998996e-05 -0.0014559751545841044 0.0018466758239712264 -0.0006260967429261655 6.6342793256458563e-05 0.00023600821618658858 0.00071283486019819986 -0.00049234233052575834 0.00047189616132527592 -0.00034096168493852021 -7.8893955097472917e-05 -0.0001660314807092315 -0.00044405243868823169 -0.0012023418893416724 0.0017223611784478029 -0.00017753669211136489
leaf_weight=35 20 35 21 34 30 29 40 21 30 24 31 40 59 20 24 22 37 40 65 23 25 101 20 25 22 30 20 30 24 24
leaf_count=35 20 35 21 34 30 29 40 21 30 24 31 40 59 20 24 22 37 40 65 23 25 101 20 25 22 30 20 30 24 24
internal_value=0 -0.000467677 -0.000260837 0.00146732 0.00175468 -0.00134006 -0.000479993 0.000115958 6.31299e-05 0.000780147 -0.00115172 0.00163176 -0.000597246 -0.000304485 -4.62681e-05 -0.00163745 0.00170789 -0.000720826 -2.20293e-06 0.000263943 0.000601621 -0.000539319 0.000345724 -0.00024912 -0.000197931 -0.000245545 -0.00034766 -0.00127938 0.00162765 -9.50253e-05
internal_weight=0 767 620 234 165 147 392 228 207 69 90 131 235 157 134 57 101 75 113 73 45 160 43 117 77 55 40 59 64 48
internal_count=1001 767 620 234 165 147 392 228 207 69 90 131 235 157 134 57 101 75 113 73 45 160 43 117 77 55 40 59 64 48
is_linear=0
shrinkage=0.05


Tree=26
num_leaves=31
num_cat=0
split_feature=12 12 12 12 12 12 15 12 11 6 6 12 6 0 9 12 2 2 3 6 12 12 0 0 18 7 3 3 21 14
split_gain=0.242938 0.0495057 0.0183855 0.0177803 0.00383721 0.00320377 0.00265549 0.00181367 0.00115531 0.000877577 0.000853246 0.000741914 0.000682534 0.00066746 0.000571295 0.000526601 0.000453695 0.000354092 0.000333733 0.000266539 0.000260722 0.000247607 0.00023358 0.000223677 0.000218309 0.000216446 0.000210765 0.00019587 0.000175325 0.000169357
threshold=1.1585355537375908 1.0631525380172195 1.2015430575987638 1.11506653723876 1.255705923032671 1.0951591829948248 -0.18222629200786053 1.1362779874323783 1.2146350000000001 0.010304876038368162 0.005163414062289152 1.0326310513808832 0.0020878743427954487 0.36303347991156759 1.0803571428571432 1.1762981548321112 0.077109151296628223 -0.9652377888393403 -0.57843251110839533 -0.0004386604165367291 1.1483267633378507 1.1279419698214959 0.28412206384570432 0.24837709815227485 0.04785752617632013 -0.0051149860290633647 0.69648922018513704 -0.75365877551921134 8.5000000000000018 -0.26210102131803081
decision_type=2 2 2 2 2 2 2 2 2 2 2 2 2 2 2 2 2 2 2 2 2 2 2 2 2 2 2 2 2 2
left_child=1 6 9 5 8 14 11 13 -4 15 -6 25 24 21 26 -2 20 -7 -10 -19 -9 27 -21 -20 -8 -1 28 -5 -3 -16
right_child=2 3 4 7 10 17 12 16 18 -11 -12 -13 -14 -15 29 -17 -18 19 23 22 -22 -23 -24 -25 -26 -27 -28 -29 -30 -31
leaf_value=-0.0017505244529318243 0.00034611393275554294 -0.00080338681813480113 0.001235509963495837 -0.00025878437958280781 0.0018274906401832898 -0.00046996892541011971 -0.0013464723504148426 8.291876393145528e-05 0.0014508232985052372 0.00092878855232681563 0.0022585817782038993 -0.001278999202292074 -0.00093171104247606281 0.00024964299343992029 -0.00060190208889760594 0.00069033076195046308 0.00041018656982870245 -0.0003235276443280912 0.0015890147294039311 -0.00024282640375781293 0.00030570677111730525 1.5014379416243175e-05 -4.1213983422494493e-05 0.0017893044231459499 -0.0011128543922677638 -0.0015307202236726882 -0.0005421200970886275 -6.4567827543856663e-05 -0.00062688002702392023 -0.0004858631032228502
leaf_weight=21 20 34 31 21 24 22 20 29 31 21 22 22 37 20 43 25 38 70 46 51 24 50 20 20 20 24 20 34 24 117
leaf_count=21 20 34 31 21 24 22 20 29 31 21 22 22 37 20 43 25 38 70 46 51 24 50 20 20 20 24 20 34 24 117
internal_value=0 -0.000452009 0.00137246 -0.000257184 0.00164199 -0.000454177 -0.00128678 0.00010853 0.00150123 0.000661896 0.00203366 -0.00151696 -0.00108649 -1.50896e-05 -0.000571136 0.000537346 0.000278337 -0.000283403 0.00158615 -0.000254293 0.000183804 -6.55148e-05 -0.000186034 0.00164971 -0.00122966 -0.0016333 -0.000682086 -0.000138723 -0.00073035 -0.000517049
internal_weight=0 761 240 617 174 401 144 216 128 66 46 67 77 125 238 45 91 163 97 141 53 105 71 66 40 45 78 55 58 160
internal_count=1001 761 240 617 174 401 144 216 128 66 46 67 77 125 238 45 91 163 97 141 53 105 71 66 40 45 78 55 58 160
is_linear=0
shrinkage=0.05


Tree=27
num_leaves=31
num_cat=0
split_feature=12 12 11 12 12 12 4 5 12 5 4 12 11 10 12 4 14 0 14 9 5 12 20 3 8 2 11 12 0 0
split_gain=0.219252 0.0446789 0.0166113 0.0160522 0.00324421 0.00300427 0.0028758 0.00253155 0.00132768 0.000739288 0.000697752 0.000684064 0.000582628 0.000542649 0.000533392 0.000522089 0.000452042 0.000399172 0.000338099 0.000315734 0.000307038 0.000254746 0.000232694 0.000207159 0.000195095 0.000156362 0.000155041 0.000153889 0.000144405 0.000129565
threshold=1.1585355537375908 1.0631525380172195 1.2038083333333336 1.1061724702183511 1.133121364072694 1.2583543484945479 3.1071701279255408 52.155577263413626 1.0870580964845649 57.866685002260482 3.052165383002448 1.2380556181106328 1.0266676666666668 1.1551464285714288 1.1181724674466722 3.052165383002448 -0.16142250722147675 0.24837709815227485 -0.33478471779206759 1.1784785714285715 46.328256932826633 1.0951591829948248 15.500000000000002 -1.8662989706931807 -0.00023624888339194029 0.61462458058538794 1.0843433333333337 1.2533641195843293 0.29164495091885684 0.4437928342620579
decision_type=2 2 2 2 2 2 2 2 2 2 2 2 2 2 2 2 2 2 2 2 2 2 2 2 2 2 2 2 2 2
left_child=1 7 6 8 14 11 19 12 20 -7 13 -4 -1 -6 22 -9 -10 27 -16 -2 26 -18 -5 -14 -24 -23 -3 -13 -20 -22
right_child=2 3 5 4 10 9 -8 15 16 -11 -12 17 23 -15 18 -17 21 -19 28 -21 29 25 24 -25 -26 -27 -28 -29 -30 -31
leaf_value=-0.0016003318739911685 0.00033998600140746152 -0.00076781579991802573 0.0012571650139730553 -0.00011472389074531913 0.0001028054717907041 0.0017535616550594568 0.0011337113199540629 -0.0010927657674377163 -0.00051217544958210334 0.0021834708470851185 0.00048770837886314398 0.0014153925014571064 -0.0013855984744926295 0.00038131492341483906 -0.00017400920009384376 -0.00079240587175540304 -0.00041034835989453968 0.0017160161033920622 -6.0540054619195874e-06 0.00059108302943528662 -0.00056844464637106288 -0.00032501628791376587 -0.00037063037490715154 -0.001184897238854319 -0.00017071767920942178 -0.00015582155002365737 -0.00060670853636111141 0.0015667206042313149 0.00016521267974894729 -0.00042793378635819652
leaf_weight=26 21 28 29 55 73 20 26 39 52 20 21 42 36 23 22 23 56 23 32 31 75 36 23 20 26 22 32 28 20 21
leaf_count=26 21 28 29 55 73 20 26 39 52 20 21 42 36 23 22 23 56 23 32 31 75 36 23 20 26 22 32 28 20 21
internal_value=0 -0.000429408 0.00130384 -0.000244325 2.21229e-05 0.00159248 0.000704356 -0.00122244 -0.000488431 0.00196852 0.00022664 0.00146919 -0.00140473 0.000169532 -0.000112307 -0.000981342 -0.000390008 0.0015353 -9.69834e-06 0.000489678 -0.000593163 -0.000334282 -0.000185317 -0.00131392 -0.000264554 -0.000260839 -0.000681892 0.00147592 5.98178e-05 -0.000537708
internal_weight=0 761 240 617 295 162 78 144 322 40 117 122 82 96 178 62 166 93 74 52 156 114 104 56 49 58 60 70 52 96
internal_count=1001 761 240 617 295 162 78 144 322 40 117 122 82 96 178 62 166 93 74 52 156 114 104 56 49 58 60 70 52 96
is_linear=0
shrinkage=0.05


Tree=28
num_leaves=31
num_cat=0
split_feature=12 12 12 12 21 12 5 12 12 4 6 0 17 5 1 9 5 1 12 2 9 5 12 1 12 1 2 3 1 0
split_gain=0.197878 0.039807 0.0162725 0.0139695 0.00327136 0.00274934 0.00228473 0.00115395 0.00110666 0.000760223 0.000652306 0.000504468 0.000482452 0.000473161 0.000472084 0.000470451 0.000426499 0.00039292 0.000357787 0.000302242 0.000335488 0.000277102 0.000273355 0.000230872 0.000178686 0.000166918 0.000161337 0.00013453 0.000125865 0.000116933
threshold=1.1579333183196256 1.0631525380172195 1.2015430575987638 1.1058666314562426 2.5000000000000004 1.133121364072694 52.155577263413626 1.0870580964845649 1.2380556181106328 3.052165383002448 0.010601072093284649 0.36303347991156759 1.0095494947369843 61.110484396575821 -0.12039868172306066 1.1766428571428575 39.886669969234795 0.70266272789987216 1.1483267633378507 -0.9797968955935098 1.1197428571428574 46.328256932826633 1.2531536121990141 0.080010036458977321 1.096106589010821 0.28212196696260078 -0.43386501136073446 -1.2479965617441022 -0.13738781033635902 0.4437928342620579
decision_type=2 2 2 2 2 2 2 2 2 2 2 2 2 2 2 2 2 2 2 2 2 2 2 2 2 2 2 2 2 2
left_child=1 6 10 7 -4 11 12 21 23 18 15 19 16 -8 -9 -2 -1 22 28 -5 25 27 -10 -6 -16 26 -21 -3 -7 -23
right_child=2 3 4 5 8 9 13 14 17 -11 -12 -13 -14 -15 24 -17 -18 -19 -20 20 -22 29 -24 -25 -26 -27 -28 -29 -30 -31
leaf_value=-0.0015633947992076476 0.0003213682001881788 -0.00073638400342315442 0.0019219671732143445 -0.00032617510820273312 0.0010351745213847607 2.4481086413665067e-06 -0.0010383491025258524 -0.00047774657230967516 0.0013227453222498299 0.00048599639416352147 0.00082584155938093319 8.2522622512348385e-05 -0.0011705397724591452 -0.00075240978748416121 -0.00036877858978650517 0.0006265574999685798 -0.0012796692442722047 0.0016576365346000308 0.00029120132558405049 -0.00010826380527023937 -8.6065462235875098e-06 -0.00054002241704923415 0.001510011434162918 0.0012725431072924819 -0.00023363517501182171 -6.7085723800119014e-05 -0.00027940813508394059 -0.00058452112799776458 0.00014424079646393212 -0.00040653710003382346
leaf_weight=27 23 25 34 20 20 29 39 65 40 20 20 29 29 23 51 28 26 21 29 21 46 75 38 21 47 25 40 35 34 21
leaf_count=27 23 25 34 20 20 29 39 65 40 20 20 29 29 23 51 28 26 21 29 21 46 75 38 21 47 25 40 35 34 21
internal_value=0 -0.000413349 0.00122174 -0.000237357 0.00148204 1.19e-05 -0.00116132 -0.000466297 0.0013752 0.000206607 0.00058383 -0.000108582 -0.0013345 -0.000932275 -0.000373264 0.000488923 -0.00142421 0.00146566 0.00014587 -0.000145042 -0.000117598 -0.000563505 0.00141398 0.00115675 -0.000303965 -0.000175895 -0.00022049 -0.000647797 7.89711e-05 -0.000510823
internal_weight=0 756 245 612 174 293 144 319 140 112 71 181 82 62 163 51 53 99 92 152 132 156 78 41 98 86 61 60 63 96
internal_count=1001 756 245 612 174 293 144 319 140 112 71 181 82 62 163 51 53 99 92 152 132 156 78 41 98 86 61 60 63 96
is_linear=0
shrinkage=0.05


Tree=29
num_leaves=31
num_cat=0
split_feature=12 12 12 12 21 12 5 12 12 17 4 17 12 1 5 5 15 14 10 9 13 17 14 5 7 1 12 18 10 1
split_gain=0.178586 0.0363909 0.0135295 0.0131471 0.0029524 0.00234841 0.00206196 0.00133995 0.000998757 0.000717237 0.000437642 0.000435413 0.000416471 0.000409451 0.000384915 0.000367653 0.000364253 0.000362664 0.000325302 0.000294572 0.000281055 0.000247404 0.000221292 0.000205916 0.000198662 0.000169454 0.000166555 0.00013838 0.000131865 0.000127785
threshold=1.1585355537375908 1.0631525380172195 1.2015430575987638 1.11506653723876 2.5000000000000004 1.0912830579892272 52.155577263413626 1.1362779874323783 1.2380556181106328 1.1379642898555351 3.052165383002448 1.0095494947369843 1.1058666314562426 -0.098691045587900858 39.886669969234795 52.956921542129422 -0.4370383867734482 0.33995654960955402 1.177907142857143 1.0803571428571432 1.109376378260561 1.0948169412391768 0.16601046233260533 46.328256932826633 -0.00033467916613868018 -0.11041620277513207 1.1483267633378507 0.022970732353956941 1.112582142857143 0.39056081067627707
decision_type=2 2 2 2 2 2 2 2 2 2 2 2 2 2 2 2 2 2 2 2 2 2 2 2 2 2 2 2 2 2
left_child=1 6 9 5 -4 19 11 16 22 -2 -8 14 17 26 -1 -10 -5 24 -11 23 -14 -18 -6 -3 -7 -21 -9 -17 -22 -15
right_child=2 3 4 7 8 12 10 13 15 18 -12 -13 20 29 -16 27 21 -19 -20 25 28 -23 -24 -25 -26 -27 -28 -29 -30 -31
leaf_value=-0.0014852250219081287 0.00081715116277337086 -0.00067581323285897574 0.0018258688341387932 -0.00014143464633027753 0.00097988609457388509 -0.00032518088542753007 -0.00098767638809453616 1.9536496693035589e-05 0.0012910294990511016 0.0003196176518113961 -0.00071267865841155467 -0.001112012785120771 -2.5639079588775833e-05 0.00027070054163535437 -0.0012156858073117643 0.0013808116875588894 -9.6528609182037735e-05 -0.00017159948850218958 0.00058579770363091188 -0.00053119637058653797 -0.00031752664331829045 9.4667480623655831e-05 0.001212277560539189 -0.00051285107232009375 -0.00048020238342184218 -0.0004112931865700589 0.00022114826613341436 0.0015484676143387333 -0.00017000230465341842 0.00043386276185628956
leaf_weight=27 20 36 34 38 20 62 39 20 47 22 23 29 21 30 26 20 23 28 24 52 28 64 21 42 31 68 21 32 33 20
leaf_count=27 20 36 34 38 20 62 39 20 47 22 23 29 21 30 26 20 23 28 24 52 28 64 21 42 31 68 21 32 33 20
internal_value=0 -0.000387545 0.00117673 -0.000220508 0.00140793 -0.000389902 -0.00110325 9.39683e-05 0.00130644 0.000567178 -0.000885661 -0.00126777 -0.000270402 0.000239924 -0.001353 0.00139238 -1.22876e-05 -0.000329358 0.000458494 -0.00051242 -0.000183405 4.41214e-05 0.00109892 -0.000588064 -0.000376855 -0.000463251 0.000122801 0.00148398 -0.000237718 0.000335965
internal_weight=0 761 240 617 174 401 144 216 140 66 62 82 203 91 53 99 125 121 46 198 82 87 41 78 93 120 41 52 61 50
internal_count=1001 761 240 617 174 401 144 216 140 66 62 82 203 91 53 99 125 121 46 198 82 87 41 78 93 120 41 52 61 50
is_linear=0
shrinkage=0.05


Tree=30
num_leaves=31
num_cat=0
split_feature=12 12 11 12 12 11 5 4 9 11 3 10 14 5 4 10 8 14 3 15 5 0 11 0 9 0 1 6 19 7
split_gain=0.155236 0.0302605 0.0125927 0.0116495 0.00277147 0.00215461 0.00155704 0.00131568 0.000926768 0.00064325 0.000630597 0.000545806 0.000531525 0.0005243 0.000465816 0.000315514 0.000298366 0.000289085 0.000285858 0.000200482 0.00017943 0.000167032 0.000145255 0.000136342 0.000132542 0.000119701 0.000112613 0.000110456 0.00010783 0.000105588
threshold=1.1603511649701175 1.0631525380172195 1.2038083333333336 1.1052390837321246 1.1327374438996161 1.2549166666666671 45.084512107548669 3.1680165934945608 1.0898071428571432 1.2146350000000001 1.5466844787761282 1.1551464285714288 -0.55294521026437982 58.759143432874424 0.337199889958606 1.0358678571428575 0.00044180881390595925 0.33995654960955402 -1.0354027175341005 -0.41683247698551279 47.74626140987089 0.50578222420445418 1.1095000000000002 0.24837709815227485 1.1141714285714288 -0.0091074808906077536 -0.36830016054908982 0.0041665625516466029 2.5000000000000004 -3.5748001307178613e-05
decision_type=2 2 2 2 2 2 2 2 2 2 2 2 2 2 2 2 2 2 2 2 2 2 2 2 2 2 2 2 2 2
left_child=1 6 7 8 12 9 15 19 18 -4 11 20 -5 28 26 -1 24 -10 -3 -2 -6 27 -18 -16 -14 -22 -11 29 -8 -20
right_child=2 3 5 4 10 -7 13 -9 17 14 -12 -13 16 -15 23 -17 22 -19 21 -21 25 -23 -24 -25 -26 -27 -28 -29 -30 -31
leaf_value=-0.0013203052240178773 0.0003017350422305754 -0.00062915049756186148 0.0010038203722797336 -0.00029752302479239243 -2.8592956680638183e-06 0.0017221697955392302 -0.0010447804264172359 0.00086860045138746503 -0.00035763540582465993 0.0011139053199440243 0.00044732497715033659 0.00035380404442548753 -0.00019528121300229235 -0.00068400833935646172 0.0013530130601591536 -0.0010788127713437592 -5.8522335873729192e-05 -0.0001791373946616659 -0.00049157647053053714 0.00050610505063862856 0.0002388175069609133 -0.00032807282230351125 8.0825523531302687e-05 0.0015133231479142395 -6.6565597891591702e-05 6.7900196414224671e-05 0.0012618818785995246 -0.00058271199130736613 -0.00089565745570739218 -0.00038377693150147438
leaf_weight=38 20 31 20 31 35 32 27 25 93 20 21 24 45 22 36 21 45 30 85 30 20 20 32 21 36 21 36 23 22 31
leaf_count=38 20 31 20 31 35 32 27 25 93 20 21 24 45 22 36 21 45 30 85 30 20 20 32 21 36 21 36 23 22 31
internal_value=0 -0.000350648 0.00110964 -0.000205858 1.13967e-05 0.00135382 -0.00104453 0.000572438 -0.000421031 0.00126519 0.000198242 0.000145935 -0.000108224 -0.000886785 0.00131145 -0.00123435 -7.10829e-05 -0.000314099 -0.000490256 0.000424357 8.02918e-05 -0.000463176 -6.11537e-07 0.00141207 -0.000138074 0.000151274 0.00120903 -0.000482615 -0.000977827 -0.000462768
internal_weight=0 753 240 623 310 165 130 75 313 133 121 100 189 71 113 59 158 123 190 50 76 159 77 57 81 41 56 139 49 116
internal_count=993 753 240 623 310 165 130 75 313 133 121 100 189 71 113 59 158 123 190 50 76 159 77 57 81 41 56 139 49 116
is_linear=0
shrinkage=0.05


Tree=31
num_leaves=31
num_cat=0
split_feature=12 12 11 12 12 11 5 4 9 11 1 14 5 4 17 12 8 14 3 8 1 17 6 4 9 1 11 7 11 7
split_gain=0.1401 0.0273101 0.0113649 0.0105136 0.00250125 0.00194534 0.00140523 0.00119308 0.000836408 0.000630683 0.000597965 0.000479701 0.000473181 0.000385694 0.000365528 0.00036354 0.000269275 0.000262788 0.000257987 0.000257574 0.000167817 0.000166143 0.000136525 0.000184895 0.000119619 0.000112644 9.88305e-05 7.70743e-05 7.47997e-05 7.07551e-05
threshold=1.1603511649701175 1.0631525380172195 1.2038083333333336 1.1052390837321246 1.1327374438996161 1.2573516666666669 45.084512107548669 3.6746221005446671 1.0898071428571432 1.2146350000000001 0.40861894957813233 -0.55294521026437982 58.759143432874424 -0.24506980916307872 1.0116792232912635 1.1483267633378507 0.00044180881390595925 0.29063319553786754 -1.0354027175341005 -0.0019762943233840595 0.77027372533265981 1.0967554326375155 0.0049307033177676826 0.74651489546470062 1.1141714285714288 -0.15049601868552528 1.0291153333333336 -0.00031269532029419344 1.249476666666667 0.001634617837102816
decision_type=2 2 2 2 2 2 2 2 2 2 2 2 2 2 2 2 2 2 2 2 2 2 2 2 2 2 2 2 2 2
left_child=1 6 7 8 11 9 14 19 18 -4 15 -5 26 28 -1 25 24 27 -3 -2 -15 29 23 -20 -13 -6 -8 -10 -11 -18
right_child=2 3 5 4 10 -7 12 -9 17 13 -12 16 -14 20 -16 -17 21 -19 22 -21 -22 -23 -24 -25 -26 -27 -28 -29 -30 -31
leaf_value=-0.0012651499452706622 0.00028042045829351992 -0.00059769297048689867 0.00095362934982404126 -0.00028264687618150588 -2.0288492474907703e-05 0.0016924020983278753 -0.0010144428373314441 0.000874521775986068 -0.00031038674528876289 0.001061758955474943 0.00039090118412527121 -0.0001855171517025964 -0.00064980792495506737 0.00127708320742694 -0.0010052207036919537 0.00025173233156642206 -0.00011250303317259143 -0.0001801513198776828 -0.00044821981295316884 0.00050535360085112704 0.0014416710872735298 0.00011195697259846266 -0.00055563494917640289 -0.00029541097780262741 -6.3237318863684783e-05 0.00012031088059042564 -0.00086996559021544878 -0.00040881803239850952 0.0011985065881162883 2.6776159817624527e-06
leaf_weight=38 20 31 20 31 29 25 20 20 59 20 28 45 22 59 21 36 24 34 113 35 21 23 22 24 36 28 29 30 20 30
leaf_count=38 20 31 20 31 29 25 20 20 59 20 28 45 22 59 21 36 24 34 113 35 21 23 22 24 36 28 29 30 20 30
internal_value=0 -0.000333116 0.00105415 -0.000195566 1.08269e-05 0.00128613 -0.0009923 0.000543816 -0.00039998 0.00121358 0.00018833 -0.000102813 -0.000842446 0.0012569 -0.00117263 0.000127341 -6.75288e-05 -0.000298394 -0.000465743 0.00042356 0.00132029 -5.8096e-07 -0.000440017 -0.00042145 -0.000131171 4.87779e-05 -0.000928936 -0.000343566 0.00113013 -4.85138e-05
internal_weight=0 753 240 623 310 165 130 75 313 140 121 189 71 120 59 93 158 123 190 55 80 77 159 137 81 57 49 89 40 54
internal_count=993 753 240 623 310 165 130 75 313 140 121 189 71 120 59 93 158 123 190 55 80 77 159 137 81 57 49 89 40 54
is_linear=0
shrinkage=0.05


Tree=32
num_leaves=31
num_cat=0
split_feature=12 12 11 12 12 11 15 6 9 16 1 14 4 16 6 10 21 9 14 3 14 0 0 20 14 1 10 20 8 15
split_gain=0.126441 0.0246474 0.0102568 0.00948855 0.00225738 0.00176775 0.00123959 0.00110554 0.000754859 0.0005525 0.000539663 0.00043293 0.000428683 0.000387527 0.000338791 0.000332697 0.000254058 0.000247218 0.000237393 0.000232833 0.000192378 0.000159544 0.000148229 0.000189595 9.80862e-05 9.76431e-05 7.58942e-05 7.57171e-05 7.6343e-05 7.49455e-05
threshold=1.1603511649701175 1.0631525380172195 1.2038083333333336 1.1052390837321246 1.1327374438996161 1.2549166666666671 -0.18222629200786053 0.012841776072628376 1.0898071428571432 1.2406761217623423 0.40861894957813233 -0.55294521026437982 0.337199889958606 1.1743543402595804 0.0020878743427954487 1.0368535714285716 8.5000000000000018 1.1235000000000002 0.33995654960955402 -1.0354027175341005 0.69189400784249711 0.24837709815227485 0.50578222420445418 11.500000000000002 -0.29138403616987485 -0.13738781033635902 1.0765035714285716 24.500000000000004 0.00056560178556072584 -0.046513668543712354
decision_type=2 2 2 2 2 2 2 2 2 2 2 2 2 2 2 2 2 2 2 2 2 2 2 2 2 2 2 2 2 2
left_child=1 6 7 8 11 9 15 16 19 -4 13 -5 24 25 -8 -1 -2 20 -10 -3 27 -14 23 29 -11 -6 -25 28 -13 -21
right_child=2 3 5 4 10 -7 14 -9 18 12 -12 17 21 -15 -16 -17 -18 -19 -20 22 -22 -23 -24 26 -26 -27 -28 -29 -30 -31
leaf_value=-0.0011945955909024447 0.0002741095692212896 -0.00056780831974690717 0.00091263658621094446 -0.00026851453266346891 -3.9479858761686563e-06 0.0015554694036836736 -0.0008918510892544873 0.00083496688399463902 -0.00032292677294785255 0.0010041058651127277 0.00037135612801648677 -0.0001324012215051577 0.0012216886851404395 0.00027259880112853415 -0.0006673949300953797 -0.0009514224271036008 0.00049197038329111824 6.7757407643888462e-05 -0.0001611729611734821 -0.00045825500662128135 4.8738177283667028e-05 0.0013987167505547405 -0.00029074470192426817 -0.00048155317141208804 0.0011407919294599976 0.00012011660537923333 -0.00037161735133551003 -0.00020787054570973855 -3.3597100615413086e-05 -0.0005860178837214004
leaf_weight=39 23 31 22 31 35 32 40 20 93 21 28 60 35 29 29 22 32 29 30 24 20 20 20 20 35 29 73 20 29 22
leaf_count=39 23 31 22 31 35 32 40 20 93 21 28 60 35 29 29 22 32 29 30 24 20 20 20 20 35 29 73 20 29 22
internal_value=0 -0.00031646 0.00100145 -0.000185787 1.02855e-05 0.00122182 -0.000942685 0.000516625 -0.000379981 0.00114154 0.000178914 -9.76721e-05 0.00118691 0.000120974 -0.000797514 -0.00110689 0.000400865 -6.41524e-05 -0.000283475 -0.000442456 -9.38065e-05 0.00128606 -0.000418016 -0.000436328 0.00108953 5.22688e-05 -0.000395259 -0.000119961 -0.000100207 -0.000519359
internal_weight=0 753 240 623 310 165 130 75 313 133 121 189 111 93 69 61 55 158 123 190 129 55 159 139 56 64 93 109 89 46
internal_count=993 753 240 623 310 165 130 75 313 133 121 189 111 93 69 61 55 158 123 190 129 55 159 139 56 64 93 109 89 46
is_linear=0
shrinkage=0.05


Tree=33
num_leaves=31
num_cat=0
split_feature=12 12 11 12 12 11 5 4 9 16 3 10 8 5 4 19 14 3 1 14 15 6 0 20 20 16 10 7 6 11
split_gain=0.114113 0.0222443 0.00925678 0.00856342 0.00203729 0.00160718 0.00114789 0.00102991 0.00068126 0.000541712 0.000508007 0.000431327 0.000391466 0.000340419 0.000333738 0.000261881 0.000215863 0.000210132 0.000194893 0.000191561 0.000155492 0.000142043 0.000133777 0.000171109 0.000122145 0.000153189 8.63311e-05 7.22576e-05 7.05807e-05 6.97722e-05
threshold=1.1603511649701175 1.0631525380172195 1.2038083333333336 1.1052390837321246 1.1327374438996161 1.2573516666666669 56.413277458098939 3.1680165934945608 1.0898071428571432 1.2406761217623423 1.5466844787761282 1.1551464285714288 0.00044180881390595925 44.790351964041513 -0.24506980916307872 2.5000000000000004 0.29063319553786754 -1.0354027175341005 0.67766149691205213 -0.61863705877676967 -0.41683247698551279 0.0022148568777451421 0.50578222420445418 11.500000000000002 16.500000000000004 1.1275908815311484 1.1122035714285714 0.0024188615719091281 -0.00026032330671488241 1.0843433333333337
decision_type=2 2 2 2 2 2 2 2 2 2 2 2 2 2 2 2 2 2 2 2 2 2 2 2 2 2 2 2 2 2
left_child=1 6 7 8 12 9 13 20 17 -4 11 21 19 15 -11 -1 28 -3 -16 -5 -2 -6 23 29 -14 -26 -21 -28 -10 -19
right_child=2 3 5 4 10 -7 -8 -9 16 14 -12 -13 24 -15 18 -17 -18 22 -20 26 -22 -23 -24 -25 25 -27 27 -29 -30 -31
leaf_value=-0.00097045525202922752 0.00025178826879709962 -0.00053941790331831017 0.00086700475182045593 -0.00029426308174151927 6.3715272021495785e-06 0.0015300085302442314 -0.00064589329669936845 0.00075282541476190097 -0.00028395607961018951 0.0010198328242404387 0.0003935322611747931 0.00030780759610327856 7.7766941265306543e-05 -0.00087014353917672842 0.0011510600930015589 -0.0011875238987461975 -0.00016213361262035667 -0.00054982907488010824 0.0013320634141564371 -0.00020895248341151851 0.00043177211989435218 0.00014481890093520633 -0.00027620747889159244 -0.00037549648877757138 -0.0001363061778613849 3.373454602786716e-05 -5.2135635032755088e-05 -0.000157996971608588 -0.00038566807583581818 -0.00042620290824699967
leaf_weight=33 20 31 22 20 44 25 34 25 66 40 21 24 27 39 58 24 34 25 20 22 30 32 20 93 27 26 40 27 23 21
leaf_count=33 20 31 22 20 44 25 34 25 66 40 21 24 27 39 58 24 34 25 20 22 30 32 20 93 27 26 40 27 23 21
