tree
version=v4
num_class=1
num_tree_per_iteration=1
label_index=0
max_feature_idx=21
objective=regression
feature_names=return_1d return_3d return_5d return_10d return_20d rsi_14 macd macd_signal macd_diff sma_7 sma_14 sma_30 ema_7 ema_14 rate_vs_sma7 rate_vs_sma14 bb_upper bb_lower bb_width day_of_week day_of_month month
feature_infos=[-1.5056785591373245:1.2057226837827395] [-2.3535580087967189:1.6445572222400617] [-2.8656699119146922:2.1855389656558089] [-3.6418511066398374:3.1184901905916718] [-4.0412114752642285:4.7809636971952063] [9.6456738105739532:84.922690878928975] [-0.036589398329783585:0.030889190182664006] [-0.032232571434868698:0.029218835260888931] [-0.012568404438367455:0.0096913459472904549] [3.0748428571428574:3.5590857142857142] [3.0773928571428573:3.5519642857142855] [3.0803666666666669:3.5410566666666665] [3.0756823864171143:3.5575235706667536] [3.0771214380572127:3.5514081227281524] [-1.9512725054422537:1.3731871771270621] [-2.7906254207272339:1.8865526979390514] [3.0822213729680206:3.5752252172075436] [3.0593110973762827:3.5252201023199965] [0.0026182834227724281:0.058910546373332533] [0:4] [1:31] [1:12]
tree_sizes=2645 2856 2860 2854 2864 2870 2862 2875 2872 2869 2878 2882 2864 2881 2878 2883 2905 2887 2892 2894 2903 2894 2891 2902 2914 2901 2913 2928 2902 2920 2926 2927 2932 2933 2936 2919 2925 2941 2935 2931 2955 2950 2957 2964 2969 2949 2974 2962 2964 2960 2980 2984 2970 2990 2959 2985 2964 2969 2972 2996 2992 2986 2984 2963 2991 2982 2976 2983 2991 2976 2995 2992 2991 2995 2989 2975 2996 2992 2980 2984 3013 2990 2996 2988 3000 2994 2988 2997 3001 2983 2970 2983 2982 2987 2986 3000 2995 3008 3002 3009 3003

Tree=0
num_leaves=31
num_cat=0
split_feature=12 9 12 12 9 12 12 12 12 12 12 12 12 5 8 4 21 15 12 5 1 2 12 15 15 5 15 7 5 8
split_gain=13.4089 4.0491 1.08808 0.293433 0.174567 0.141969 0.0596627 0.0350679 0.0316198 0.0257866 0.0221488 0.0142074 0.0141672 0.0116066 0.0109584 0.00912861 0.00870279 0.00711925 0.00648579 0.00563295 0.00537037 0.00471107 0.00421436 0.00232854 0.00223345 0.00206038 0.0020017 0.00198087 0.00171717 0.00144871
threshold=3.2617253248987708 3.3883071428571432 3.1504607909949702 3.4644306044361755 3.2057357142857148 3.3158950950493264 3.509268009216012 3.100976073924222 3.2870058773603854 3.4301328046503952 3.341610425092798 3.1732293380077046 3.2389092955194374 47.508580570636845 -0.00051642023432150205 0.8503011643532955 2.5000000000000004 0.18737995407953559 3.4919759731356996 59.071172146440709 -0.044046121662405506 0.27870394725424413 3.088657580339897 -0.058134650252765582 -0.18130775990214312 44.173508900179563 0.46859288260651694 -0.0016990120015533874 46.746214061361449 -0.0014135292640359402
decision_type=2 2 2 2 2 2 2 2 2 2 2 2 2 2 2 2 2 2 2 2 2 2 2 2 2 2 2 2 2 2
left_child=2 5 7 9 11 8 18 22 14 -3 17 -4 20 25 -2 24 -8 29 28 -11 -6 -12 -1 -13 -9 -10 -16 -15 -5 -7
right_child=1 3 4 6 12 10 16 15 13 19 21 23 -14 27 26 -17 -18 -19 -20 -21 -22 -23 -24 -25 -26 -27 -28 -29 -30 -31
leaf_value=3.2731270546787363 3.2819122693798826 3.2895960278798064 3.277072127290737 3.2929492932092859 3.2796984627520693 3.2846649191686828 3.2961010522730421 3.2740684606828672 3.2832997564329469 3.2909141357876432 3.2862382107921819 3.277978461104547 3.2815603828178306 3.2841429845527803 3.2830337166814316 3.2755138773233576 3.2948536329151334 3.2858723496677196 3.2941426275370898 3.291939413652373 3.2808163176496636 3.287323460555164 3.2736964912142015 3.278669112423247 3.2746225522339545 3.2838928360931114 3.2836489611530504 3.2847138241686467 3.2934198894300444 3.2852266423738166
leaf_weight=64 21 37 45 36 22 24 27 31 27 37 20 26 39 21 39 24 29 36 24 21 21 20 66 23 44 32 20 55 42 22
leaf_count=64 21 37 45 36 22 24 27 31 27 37 20 26 39 21 39 24 29 36 24 21 21 20 66 23 44 32 20 55 42 22
internal_value=3.2832 3.28804 3.27623 3.29282 3.27918 3.28445 3.29414 3.27396 3.28368 3.29063 3.28582 3.27771 3.28087 3.28415 3.28289 3.27467 3.29546 3.28535 3.29342 3.29129 3.28024 3.28678 3.27342 3.2783 3.27439 3.28362 3.28324 3.28456 3.2932 3.28493
internal_weight=0 590 405 253 176 337 158 229 215 95 122 94 82 135 80 99 56 82 102 58 43 40 130 49 75 59 59 76 78 46
internal_count=995 590 405 253 176 337 158 229 215 95 122 94 82 135 80 99 56 82 102 58 43 40 130 49 75 59 59 76 78 46
is_linear=0
shrinkage=1


Tree=1
num_leaves=31
num_cat=0
split_feature=12 9 12 12 9 12 12 12 12 6 12 12 12 9 14 4 7 15 12 20 0 12 4 12 15 15 15 14 12 13
split_gain=12.1015 3.65431 0.981988 0.264823 0.157547 0.128127 0.0538456 0.0316488 0.0286474 0.025683 0.0199893 0.0129677 0.0128222 0.0104764 0.00948687 0.00823857 0.00749302 0.00642512 0.0059457 0.00512016 0.00449903 0.00414294 0.00407603 0.00380345 0.0032567 0.0021015 0.00201569 0.00171402 0.0014455 0.00143059
threshold=3.2617253248987708 3.3883071428571432 3.1504607909949702 3.4644306044361755 3.2057357142857148 3.3158950950493264 3.509268009216012 3.100976073924222 3.2977835706270446 -0.0029887662499887831 3.341610425092798 3.2317977524565853 3.1732293380077046 3.4412857142857147 -0.23153804770202543 0.8503011643532955 0.00855862884089152 0.18737995407953559 3.4888371315238671 16.500000000000004 0.039557565922920819 3.2870058773603854 -0.26677429137059722 3.088657580339897 -0.047719001820392584 -0.058134650252765582 -0.18130775990214312 0.031879453499468011 3.4301328046503952 3.4833258085536456
decision_type=2 2 2 2 2 2 2 2 2 2 2 2 2 2 2 2 2 2 2 2 2 2 2 2 2 2 2 2 2 2
left_child=2 5 7 9 12 8 18 23 14 -3 17 -6 -4 28 -2 26 -8 -7 27 -13 -12 24 -10 -1 -16 -14 -9 29 -11 -5
right_child=1 3 4 6 11 10 16 15 22 13 20 19 25 -15 21 -17 -18 -19 -20 -21 -22 -23 -24 -25 -26 -27 -28 -29 -30 -31
leaf_value=-0.0095677582547068606 -0.00087998585775494575 0.0054655628651380543 -0.0058199396812253536 0.0089306529983878141 -0.0030395050874600809 0.001648430078310649 0.011212763355837929 -0.0086734227836132056 0.00065888061743372918 0.0066614483483135702 0.0028730603167787198 -0.0013418584479950369 -0.004958922616564311 0.0081671372288838039 -0.00058256039439584127 -0.0073002768680453306 0.012419815845787526 0.0025402712816786437 0.010231082431144185 -0.0023616786673665048 0.0039336058311164384 0.00058116585795962535 0.0014122845010896183 -0.0090267941129930085 0.00018972821518366612 -0.0043028039938729744 -0.0081470362164757469 0.0097585714161396026 0.0072426610342834312 0.0095215265239988051
leaf_weight=64 25 20 45 20 30 46 36 31 26 20 20 32 26 32 20 24 20 36 36 20 20 43 58 66 43 23 44 25 23 21
leaf_count=64 25 20 45 20 30 46 36 31 26 20 20 32 26 32 20 24 20 36 36 20 20 43 58 66 43 23 44 25 23 21
internal_value=0 0.00460225 -0.00662175 0.00914377 -0.00381336 0.00119274 0.0103981 -0.00878016 0.00045833 0.00705758 0.00248697 -0.00221169 -0.00521057 0.00748211 -3.83518e-06 -0.00810659 0.0116439 0.00203997 0.0097142 -0.0017341 0.00340333 0.000202804 0.00117909 -0.00929311 -5.54428e-05 -0.00465095 -0.00836461 0.00943226 0.00697233 0.0092333
internal_weight=0 590 405 253 176 337 158 229 215 95 122 82 94 75 131 99 56 82 102 52 40 106 84 130 63 49 75 66 43 41
internal_count=995 590 405 253 176 337 158 229 215 95 122 82 94 75 131 99 56 82 102 52 40 106 84 130 63 49 75 66 43 41
is_linear=0
shrinkage=0.05


Tree=2
num_leaves=31
num_cat=0
split_feature=12 9 12 12 9 12 12 12 12 4 12 9 5 18 9 14 4 5 12 5 14 12 1 14 12 15 12 5 12 12
split_gain=10.9227 3.13422 1.03522 0.239003 0.125913 0.0996128 0.0757184 0.0485956 0.0263918 0.0222554 0.0217451 0.0143561 0.0123497 0.0108758 0.00984811 0.00801374 0.00652539 0.0064759 0.00541872 0.00470471 0.00448209 0.00355512 0.0030191 0.00295956 0.00258402 0.00252111 0.00220741 0.00203212 0.00163568 0.00156845
threshold=3.2692288967152074 3.3883071428571432 3.1603807512188706 3.4644306044361755 3.2141857142857146 3.3212252304377614 3.1274619325144459 3.509268009216012 3.2977835706270446 -0.55189910297387945 3.0978775210542193 3.2458428571428573 63.253259021021321 0.014360709442508954 3.4412857142857147 -0.0030935760395617829 0.27494984750222612 47.31635514095364 3.4919759731356996 53.352041958685994 0.096763270701727924 3.341610425092798 -0.044046121662405506 0.083497079860653897 3.2887402824231349 0.1739008456771392 3.4275099278623529 46.489856049386496 3.1069052079241444 3.0866731299012531
decision_type=2 2 2 2 2 2 2 2 2 2 2 2 2 2 2 2 2 2 2 2 2 2 2 2 2 2 2 2 2 2
left_child=2 5 6 9 13 8 10 18 20 -3 25 22 21 -4 26 -13 -9 -10 -5 -12 24 23 -6 -7 -2 29 -11 -15 -21 -1
right_child=1 3 4 7 11 12 -8 16 17 14 19 15 -14 27 -16 -17 -18 -19 -20 28 -22 -23 -24 -25 -26 -27 -28 -29 -30 -31
leaf_value=-0.0092263733121481818 -0.00037394526818122645 0.0053506691089790807 -0.0051648415515528007 0.0090263382746623121 -0.0027557395763047367 0.001628104426736872 -0.0058798676466240603 0.010521927662193776 0.00054248988335193311 0.0062628449872136121 -0.0082516276122381292 -0.0017186604865381252 0.0034856445535465528 -0.0043040014126084067 0.0078291366000970211 -0.00035016659880056979 0.011601393989154272 0.0014352699661153235 0.0098854814966519676 -0.0079129730435934936 0.00053645260716924292 0.0027711515447923114 -0.0019540837771880133 0.002406734495383242 0.00023099348613721951 -0.0084777353395675808 0.0069886329499157995 -0.0036163661451566785 -0.0073596711106160111 -0.0088041968305002574
leaf_weight=44 41 23 34 78 23 26 34 28 27 20 48 23 27 22 30 20 28 82 24 22 42 21 24 23 31 29 22 21 34 44
leaf_count=44 41 23 34 78 23 26 34 28 27 20 48 23 27 22 30 20 28 82 24 22 42 21 24 23 31 29 22 21 34 44
internal_value=0 0.00452774 -0.00607241 0.00868658 -0.00301227 0.00123966 -0.0080765 0.00987822 0.000657845 0.0067047 -0.00841444 -0.00174236 0.00257724 -0.00449658 0.00713724 -0.00108215 0.0110617 0.00121412 0.00922849 -0.00788839 0.000125965 0.00222685 -0.00234638 0.00199358 -0.000113486 -0.00888205 0.00664302 -0.00396818 -0.00757704 -0.00901529
internal_weight=0 573 422 253 167 320 255 158 223 95 221 90 97 77 72 43 56 109 102 104 114 70 47 49 72 117 42 43 56 88
internal_count=995 573 422 253 167 320 255 158 223 95 221 90 97 77 72 43 56 109 102 104 114 70 47 49 72 117 42 43 56 88
is_linear=0
shrinkage=0.05


Tree=3
num_leaves=31
num_cat=0
split_feature=12 12 12 12 12 12 12 12 6 12 6 5 12 12 12 12 6 4 12 5 4 14 5 14 15 5 2 15 5 12
split_gain=9.85814 2.97525 0.800114 0.203961 0.127973 0.113218 0.043875 0.0258184 0.0241535 0.0206321 0.020058 0.0122542 0.0120455 0.0095976 0.0081093 0.00730321 0.00691124 0.00610384 0.0060174 0.00536166 0.00498518 0.00430565 0.00330579 0.00215775 0.00209341 0.00194676 0.00160786 0.00156151 0.001415 0.00139791
threshold=3.2617253248987708 3.3983481316931781 3.1504607909949702 3.4644306044361755 3.2036186377433205 3.3158950950493264 3.5116219093826779 3.100976073924222 0.00065284335248838598 3.341610425092798 -0.0021874293219419356 38.84808773692226 3.2281326827187438 3.1732293380077046 3.2887402824231349 3.439750955265406 0.0060271344531122048 0.27494984750222612 3.4919759731356996 59.608838386735464 1.2092551548610444 -0.17904179634617481 50.763163658559371 0.13133361219931744 -0.058134650252765582 56.21915553378431 -0.18649605353676099 -0.083583982558236056 46.746214061361449 3.088657580339897
decision_type=2 2 2 2 2 2 2 2 2 2 2 2 2 2 2 2 2 2 2 2 2 2 2 2 2 2 2 2 2 2
left_child=2 5 7 10 13 8 18 22 11 19 -3 -2 -6 -4 27 -12 25 -8 28 26 -11 -14 29 -16 -15 -9 -7 -13 -5 -1
right_child=1 3 4 6 12 9 17 16 -10 20 15 14 21 24 23 -17 -18 -19 -20 -21 -22 -23 -24 -25 -26 -27 -28 -29 -30 -31
leaf_value=-0.0087083272906866953 -0.00096449674674659036 0.0050221697986125953 -0.0052517649365795985 0.0083449968033366736 -0.002855105364117129 0.0012444418367522304 0.010032196486225496 -0.0077078281177414797 0.0012366506219324139 0.0026668726720593195 0.0063616515137255199 -0.0005126057082088664 -0.0021810007281601431 -0.004556811243916551 0.00045470847708993072 0.0073750685667619111 -0.0065570806031641756 0.011115624526372323 0.0094294997198241109 0.0024020888676334704 0.0037438922339961644 -0.0012613525121871914 -0.0079884211356575415 0.0010663818789734727 -0.003889272426781447 -0.0071498399769718002 0.0017935078280667466 2.6284757943979394e-05 0.008772185240827856 -0.0083139805221243909
leaf_weight=55 24 20 45 36 29 24 26 54 63 22 40 20 20 24 46 32 23 26 28 28 21 35 37 21 23 22 30 41 42 38
leaf_count=55 24 20 45 36 29 24 26 54 63 22 40 20 20 24 46 32 23 26 28 28 21 35 37 21 23 22 30 41 42 38
internal_value=0 0.00415382 -0.00597655 0.00829453 -0.00344154 0.00110918 0.00938431 -0.00792486 0.000413476 0.00230579 0.00642295 7.22911e-05 -0.00203054 -0.00472985 0.000266689 0.00681206 -0.00731649 0.0105739 0.00880073 0.00184061 0.00319286 -0.00159577 -0.00838816 0.000646427 -0.00423014 -0.00754631 0.00154948 -0.000150401 0.00857502 -0.0085472
internal_weight=0 590 405 250 176 340 158 229 215 125 92 152 84 92 128 72 99 52 106 82 43 55 130 67 47 76 54 61 78 93
internal_count=995 590 405 250 176 340 158 229 215 125 92 152 84 92 128 72 99 52 106 82 43 55 130 67 47 76 54 61 78 93
is_linear=0
shrinkage=0.05


Tree=4
num_leaves=31
num_cat=0
split_feature=12 9 12 12 9 12 12 12 12 4 12 9 18 9 9 21 2 15 12 15 3 0 1 12 15 16 12 9 4 2
split_gain=8.89891 2.5532 0.843463 0.194381 0.102407 0.0814795 0.0619687 0.0396423 0.0237753 0.0185125 0.0176767 0.0119514 0.00893908 0.00794142 0.0076212 0.00612058 0.00609414 0.00515905 0.00454627 0.00384366 0.00343949 0.00340678 0.00254076 0.0020604 0.00205769 0.0018841 0.00176925 0.00170989 0.00158022 0.00131976
threshold=3.2692288967152074 3.3883071428571432 3.1603807512188706 3.4644306044361755 3.2141857142857146 3.3231856278362275 3.1274619325144459 3.509268009216012 3.2977835706270446 -0.55189910297387945 3.0964346371791698 3.2458428571428573 0.014360709442508954 3.4412857142857147 3.3458428571428578 2.5000000000000004 -0.058385644793251805 -0.051219700235363021 3.4888371315238671 -0.18130775990214312 0.48886273492053661 0.10914357803969434 -0.044046121662405506 3.1069052079241444 0.1739008456771392 3.4422267192332225 3.2854784179138625 3.3066642857142865 -0.80960013384340213 0.13618742332515146
decision_type=2 2 2 2 2 2 2 2 2 2 2 2 2 2 2 2 2 2 2 2 2 2 2 2 2 2 2 2 2 2
left_child=2 5 6 9 12 8 10 18 21 -3 24 22 -4 25 20 -9 -13 -10 29 -12 -7 26 -6 -21 -1 -11 -2 -19 -14 -5
right_child=1 3 4 7 11 14 -8 15 17 13 19 16 28 -15 -16 -17 -18 27 -20 23 -22 -23 -24 -25 -26 -27 -28 -29 -30 -31
leaf_value=-0.0081737243911115132 -0.00029958647097492715 0.0048181815963724388 -0.0046633081620230396 0.0079182057359883963 -0.0025002458375757157 0.0016748549159744692 -0.0053028526442015882 0.010525707762550426 0.00069650146665067457 0.0056689162162088212 -0.0075890957244804927 -0.001552772145210342 -0.0038886511787062602 0.0070689262698094045 0.0030009802266517107 0.0094795924579275069 -0.000361970210477531 0.0010222843367322955 0.0087802405572599829 -0.0072260857031152051 0.0024751399718225004 0.00049181946938355958 -0.0017648334750750413 -0.0067084065172821287 -0.0076704736109133118 0.0063386892633778714 0.00018964427797045299 0.0015415879823587031 -0.0032822747291489083 0.0083874414472476302
leaf_weight=82 42 23 34 43 23 29 34 27 44 21 35 22 21 30 34 29 21 23 36 37 25 39 24 40 27 21 33 51 22 23
leaf_count=82 42 23 34 43 23 29 34 27 44 21 35 22 21 30 34 29 21 23 36 37 25 39 24 40 27 21 33 51 22 23
internal_value=0 0.00408682 -0.00548107 0.00784044 -0.00271885 0.00111912 -0.00729006 0.00891509 0.000627742 0.00605311 -0.00759578 -0.0015736 -0.00405746 0.0064476 0.00241458 0.00998397 -0.000971218 0.00112525 0.00832826 -0.00715464 0.00204536 0.000112777 -0.00212472 -0.00695716 -0.00804907 0.0060038 -8.43249e-05 0.00138018 -0.00357841 0.00808173
internal_weight=0 573 422 253 167 320 255 158 232 95 221 90 77 72 88 56 43 118 102 112 54 114 47 77 109 42 75 74 43 66
internal_count=995 573 422 253 167 320 255 158 232 95 221 90 77 72 88 56 43 118 102 112 54 114 47 77 109 42 75 74 43 66
is_linear=0
shrinkage=0.05


Tree=5
num_leaves=31
num_cat=0
split_feature=12 9 12 12 12 12 12 12 12 12 12 5 12 5 5 12 3 14 6 4 5 12 1 8 13 12 12 14 11 8
split_gain=7.92617 2.52899 0.568416 0.16693 0.0938807 0.0808927 0.0312492 0.0233209 0.020011 0.0198229 0.0191145 0.0080307 0.00765519 0.00650269 0.00643936 0.00603888 0.00571383 0.0055803 0.00518003 0.00469829 0.00437427 0.00429055 0.00281969 0.00270793 0.00179955 0.00169157 0.00153465 0.00138193 0.00134511 0.00123999
threshold=3.2543525150024819 3.3883071428571432 3.1504607909949702 3.4766061313813093 3.3080605155529348 3.1976769153151952 3.5151306339059829 3.1069052079241444 3.2854784179138625 3.3309678049286373 3.4301328046503952 44.054259464104582 3.2281326827187438 51.180188594749239 50.238273109350281 3.1732293380077046 0.30655104227671487 0.057518991931708723 0.0094042907149425332 0.97709934902796569 50.094637489657309 3.4919759731356996 -0.24049089339652771 -0.00041259176034931028 3.0909107073155782 3.3188899348505871 3.088657580339897 0.038257562153132425 3.3042450000000003 0.00293775801901929
decision_type=2 2 2 2 2 2 2 2 2 2 2 2 2 2 2 2 2 2 2 2 2 2 2 2 2 2 2 2 2 2
left_child=2 4 7 10 8 15 21 14 11 20 -3 -2 -7 22 26 27 -11 -12 -8 -9 -6 -5 -10 -14 -16 -22 -1 -4 -24 -13
right_child=1 3 5 6 9 12 18 19 13 16 17 29 23 -15 24 -17 -18 -19 -20 -21 25 -23 28 -25 -26 -27 -28 -29 -30 -31
leaf_value=-0.0078864281188766924 -0.00096225113858427233 0.0049610822668506045 -0.0050203072076494045 0.007792543920118418 0.00087322827370371668 -0.0026162798542322383 0.0091073068169256043 -0.0066219906768073215 -0.00013428244771300041 0.0020109738598787976 0.0059126870988896402 -0.00027289688092423602 -0.0020226573804393412 0.0011249563414477619 -0.0074311949312686927 -0.0038809689104949176 0.0029963450506329536 0.0068128373059961533 0.010182600823186692 -0.0057040431909263136 0.0013474193291346493 0.0084963155444711443 0.00028110137664043576 -0.001199867562390864 -0.0068752104113268299 0.001859591655167086 -0.0075002652257680899 -0.0044660085812211038 0.00082905073567027504 0.00021157487634419731
leaf_weight=53 39 36 22 67 35 36 24 46 24 31 33 25 20 37 22 38 28 36 21 20 38 32 24 20 43 28 50 23 21 28
leaf_count=53 39 36 22 67 35 36 24 46 24 31 33 25 20 37 22 38 28 36 21 20 38 32 24 20 43 28 50 23 21 28
internal_value=0 0.00354131 -0.00557274 0.00741113 0.000849727 -0.0032659 0.00851661 -0.0071402 0.000121874 0.00175045 0.00589505 -0.000417675 -0.00208732 0.000590161 -0.00745306 -0.00434508 0.00247861 0.00638233 0.00960911 -0.00634382 0.00132508 0.00802003 0.000303387 -0.00161126 -0.00706339 0.0015647 -0.00769897 -0.004737 0.000536811 -1.69495e-05
internal_weight=0 607 393 249 358 159 144 234 198 160 105 92 76 106 168 83 59 69 45 66 101 99 69 40 65 66 103 45 45 53
internal_count=1000 607 393 249 358 159 144 234 198 160 105 92 76 106 168 83 59 69 45 66 101 99 69 40 65 66 103 45 45 53
is_linear=0
shrinkage=0.05


Tree=6
num_leaves=31
num_cat=0
split_feature=12 9 9 12 12 12 12 12 12 12 12 2 5 12 5 5 21 3 6 12 5 12 13 5 1 13 14 5 12 11
split_gain=7.15337 2.28242 0.513175 0.150655 0.0847273 0.0652664 0.0282025 0.0273972 0.0180599 0.0178901 0.0172508 0.0077241 0.00725122 0.00636247 0.00586868 0.00581152 0.00558208 0.00515673 0.00467498 0.00412127 0.00394777 0.00387222 0.00372692 0.00266014 0.00254477 0.00162409 0.00160582 0.0015292 0.00138502 0.00121396
threshold=3.2543525150024819 3.3883071428571432 3.1532214285714288 3.4766061313813093 3.3080605155529348 3.1976769153151952 3.5151306339059829 3.1069052079241444 3.2854784179138625 3.3309678049286373 3.4301328046503952 -0.12475400115157241 43.676457696943892 3.1217605286929127 51.180188594749239 50.238273109350281 9.5000000000000018 0.30655104227671487 0.0094042907149425332 3.1732293380077046 50.094637489657309 3.4919759731356996 3.2228150707278682 58.292085379035129 -0.24049089339652771 3.0909107073155782 -0.081357349545783206 58.741467361985521 3.088657580339897 3.3042450000000003
decision_type=2 2 2 2 2 2 2 2 2 2 2 2 2 2 2 2 2 2 2 2 2 2 2 2 2 2 2 2 2 2
left_child=2 4 7 10 8 19 21 15 12 20 -3 -7 -2 26 24 28 23 -11 -8 -4 -6 -5 -13 -12 -10 -17 -9 -22 -1 -26
right_child=1 3 5 6 9 11 18 13 14 17 16 22 -14 -15 -16 25 -18 -19 -20 -21 27 -23 -24 -25 29 -27 -28 -29 -30 -31
leaf_value=-0.0074921068858425574 -0.00092595095323447739 0.0047130281829999556 -0.0044233123526761405 0.0074029167029839851 0.00082956685551575254 -0.0025285201998693605 0.0086519414869447551 -0.0065288935504529792 -0.00012756831365550171 0.00191042514728202 0.0054317820058376702 -0.0020057134702801704 -2.4419954852587753e-05 -0.0051857191891897291 0.0010687085474224611 -0.0070596352219581609 0.0067205403508110483 0.0028465277448828734 0.0096734713585603805 -0.0036869205975610963 0.0013277734012302497 0.0080714997835457328 -0.001052012746748958 0.00619258837774396 0.00026704630581662062 -0.0065314499098201133 -0.0059694484261603193 0.001851469953544438 -0.0071252521276473999 0.00078759820219905441
leaf_weight=53 38 36 38 67 35 35 24 23 24 31 27 20 54 21 37 22 22 28 21 38 46 32 21 20 24 43 29 20 50 21
leaf_count=53 38 36 38 67 35 35 24 23 24 31 27 20 54 21 37 22 22 28 21 38 46 32 21 20 24 43 29 20 50 21
internal_value=0 0.00336424 -0.0052941 0.00704058 0.000807241 -0.00301904 0.00809078 -0.00672899 0.00011578 0.00166292 0.00560029 -0.00198296 -0.000396791 -0.00592026 0.000560653 -0.00708041 0.00606321 0.00235468 0.00912866 -0.00405512 0.00125883 0.00761902 -0.00151723 0.00575553 0.000288218 -0.00671022 -0.0062169 0.00148647 -0.00731402 0.000509971
internal_weight=0 607 393 249 358 152 144 241 198 160 105 76 92 73 106 168 69 59 45 76 101 99 41 47 69 65 52 66 103 45
internal_count=1000 607 393 249 358 152 144 241 198 160 105 76 92 73 106 168 69 59 45 76 101 99 41 47 69 65 52 66 103 45
is_linear=0
shrinkage=0.05


Tree=7
num_leaves=31
num_cat=0
split_feature=12 9 12 12 12 12 12 12 12 12 12 2 5 5 5 5 12 14 4 4 12 12 4 12 16 12 2 12 17 14
split_gain=6.45592 2.05988 0.463455 0.135966 0.07651 0.0657551 0.0254527 0.0222811 0.0188973 0.0155689 0.00946951 0.006971 0.00655611 0.00584226 0.0052449 0.00489669 0.00487066 0.00472311 0.00422339 0.00402572 0.00349468 0.00304932 0.00230013 0.00188838 0.00153548 0.00145905 0.00129148 0.00124998 0.000980526 0.00092418
threshold=3.2543525150024819 3.3883071428571432 3.1504607909949702 3.4766061313813093 3.3010304867021087 3.1976769153151952 3.5151306339059829 3.3286186250041125 3.1069052079241444 3.4301328046503952 3.2854784179138625 -0.12475400115157241 44.054259464104582 46.866394878497267 50.238273109350281 63.253259021021321 3.1732293380077046 0.057518991931708723 0.46894466390895456 0.97709934902796569 3.4919759731356996 3.2317977524565853 0.016664352773010375 3.317475566322619 3.3838189905944831 3.0940670072704948 -0.032397598858935332 3.088657580339897 3.2302091738795076 -0.081357349545783206
decision_type=2 2 2 2 2 2 2 2 2 2 2 2 2 2 2 2 2 2 2 2 2 2 2 2 2 2 2 2 2 2
left_child=2 4 8 9 10 16 20 13 14 -3 12 -7 -2 -6 27 24 26 -11 -8 29 -5 -13 -12 -15 -9 -16 -4 -1 -14 -10
right_child=1 3 5 6 7 11 18 15 19 17 22 21 28 23 25 -17 -18 -19 -20 -21 -22 -23 -24 -25 -26 -27 -28 -29 -30 -31
leaf_value=-0.0071175013791840037 -0.00086899683601819936 0.0044773767598801188 -0.0045452389019456779 0.0070327705689775411 0.00039292925955831178 -0.0024020941661936895 0.0081984806643879936 0.0016367169437356867 -0.0061907721161842347 0.005327983911741864 0.00021345626724572262 -0.0018621802285668397 0.00026136977245187152 0.0010611707222243935 -0.0066843338776379829 0.0028272070502862335 -0.0035025744551890775 0.0061561169930630264 0.0091674981130795054 -0.0051356594823300837 0.0076679244055412711 -0.00099952130985911944 0.00085166890290565799 0.0015050388822281683 0.0022194486111402514 -0.0061934656849721584 -0.0040093878203112145 -0.0067689892500638962 -0.00018230581132835748 -0.0057408394380694351
leaf_weight=53 39 36 22 67 27 35 23 26 25 33 48 21 20 68 24 20 38 36 22 20 32 20 20 37 20 41 23 50 33 21
leaf_count=53 39 36 22 67 27 35 23 26 25 33 48 21 20 68 24 20 38 36 22 20 32 20 20 37 20 41 23 50 33 21
internal_value=0 0.00319603 -0.00502939 0.00668855 0.000766879 -0.00294641 0.00768624 0.00142395 -0.00644476 0.00532028 -4.62518e-05 -0.00188381 -0.000376952 0.0010489 -0.00672639 0.00217406 -0.00391939 0.00576005 0.00867222 -0.00572788 0.00723807 -0.00144137 0.000401166 0.00121758 0.00189008 -0.00637471 -0.00427136 -0.00694832 -1.48811e-05 -0.00598537
internal_weight=0 607 393 249 358 159 144 198 234 105 160 76 92 132 168 66 83 69 45 66 99 41 68 105 46 65 45 103 53 46
internal_count=1000 607 393 249 358 159 144 198 234 105 160 76 92 132 168 66 83 69 45 66 99 41 68 105 46 65 45 103 53 46
is_linear=0
shrinkage=0.05


Tree=8
num_leaves=31
num_cat=0
split_feature=12 12 12 12 12 12 12 12 12 12 4 12 16 12 5 8 5 5 3 6 2 12 1 21 12 13 8 14 14 21
split_gain=5.82647 1.85723 0.418526 0.116386 0.0739433 0.047552 0.026878 0.0229711 0.0184733 0.0146705 0.0134206 0.00726671 0.00685201 0.00629876 0.00628085 0.00613662 0.00486925 0.00473427 0.00438843 0.00382509 0.00339381 0.00315395 0.00227817 0.00170105 0.0016708 0.00166082 0.0015505 0.00153438 0.00131609 0.00128208
threshold=3.2543525150024819 3.3983481316931781 3.1546622466241425 3.4766061313813093 3.3080605155529348 3.1976769153151952 3.1069052079241444 3.5151306339059829 3.341610425092798 3.2854784179138625 -0.55189910297387945 3.1217605286929127 3.4488961654628381 3.2389092955194374 59.608838386735464 -0.00051642023432150205 51.180188594749239 47.995588027793055 0.094721472280878696 0.0094042907149425332 -0.069304170839895582 3.4919759731356996 -0.24904969027043641 9.5000000000000018 3.1752700328116821 3.0909107073155782 0.00293775801901929 0.1131118971787118 -0.081357349545783206 4.5000000000000009
decision_type=2 2 2 2 2 2 2 2 2 2 2 2 2 2 2 2 2 2 2 2 2 2 2 2 2 2 2 2 2 2
left_child=2 4 6 10 9 18 17 21 14 15 -3 28 -12 20 27 -2 22 -1 24 -9 -7 -5 -11 -14 -4 -19 -17 29 -8 -6
right_child=1 3 5 7 8 13 11 19 -10 16 12 -13 23 -15 -16 26 -18 25 -20 -21 -22 -23 -24 -25 -26 -27 -28 -29 -30 -31
leaf_value=-0.0066284271297595834 -0.0009599870239416588 0.0040007195181467319 -0.0041461055955061546 0.0066811321998265262 0.001174030105903512 -0.002524268224835396 -0.0058997913547184158 0.0078074020333588129 0.0025072396034374837 -0.0001776852520249252 0.0048963135460744038 -0.0046062977570626466 0.0055311463773250582 -0.0011394804838346319 0.0018931977161816484 -0.00030290819531988489 0.00096760679227520245 -0.0063993428567690512 -0.0030477712086091442 0.0087314229281175697 -0.0017083582683251456 0.0072845284943468874 0.0004467061444984211 0.0061616444960236553 -0.0035382381733506923 -0.0059128975139019343 0.00019627914685510668 0.0013997727190144362 -0.0053933247795392731 0.00074942145285604054
leaf_weight=93 29 22 26 67 32 25 23 24 38 21 37 27 23 25 29 35 37 28 24 21 26 32 48 20 20 47 28 24 29 40
leaf_count=93 29 22 26 67 32 25 23 24 38 21 37 27 23 25 29 35 37 28 24 21 26 32 48 20 20 47 28 24 29 40
internal_value=0 0.00303623 -0.00477792 0.00638661 0.000753143 -0.00265562 -0.0060324 0.00730193 0.00154183 0.000103871 0.0050944 -0.00527179 0.00539516 -0.00178962 0.00124834 -0.000358104 0.00050483 -0.00639007 -0.00359586 0.00823861 -0.00210831 0.00687617 0.000256674 0.0058244 -0.00388182 -0.0060945 -8.10472e-05 0.00105355 -0.00561734 0.000938136
internal_weight=0 607 393 246 361 146 247 144 163 198 102 79 80 76 125 92 106 168 70 45 51 99 69 43 46 75 63 96 52 72
internal_count=1000 607 393 246 361 146 247 144 163 198 102 79 80 76 125 92 106 168 70 45 51 99 69 43 46 75 63 96 52 72
is_linear=0
shrinkage=0.05


Tree=9
num_leaves=31
num_cat=0
split_feature=12 9 9 12 12 12 9 12 12 12 12 2 4 5 5 5 4 5 14 12 13 14 14 12 13 14 12 2 13 1
split_gain=5.25839 1.67854 0.378162 0.11057 0.0624158 0.0477174 0.0207603 0.0199371 0.0182836 0.0129688 0.00793294 0.00586562 0.00573643 0.00536372 0.00487537 0.00430108 0.00429993 0.00420295 0.00386787 0.00297226 0.00292313 0.00256584 0.00251093 0.00158038 0.00120019 0.00111438 0.00111144 0.0010888 0.00103568 0.00088669
threshold=3.2543525150024819 3.3883071428571432 3.1532214285714288 3.4766061313813093 3.3010304867021087 3.1976769153151952 3.5121928571428573 3.1069052079241444 3.3286186250041125 3.4301328046503952 3.2806241615844751 -0.12475400115157241 1.100580537418139 49.104883270158716 46.866394878497267 50.238273109350281 0.46894466390895456 63.253259021021321 0.057518991931708723 3.1732293380077046 3.2228150707278682 0.19574645034737495 0.17892829520660131 3.317475566322619 3.0909107073155782 -0.081357349545783206 3.088657580339897 -0.28635423198500315 3.48529692502315 -0.28189084486562316
decision_type=2 2 2 2 2 2 2 2 2 2 2 2 2 2 2 2 2 2 2 2 2 2 2 2 2 2 2 2 2 2
left_child=2 4 7 9 10 19 22 15 14 -3 13 -7 25 -2 -6 26 -8 27 -11 -4 -13 29 28 -16 -17 -9 -1 -10 -5 -12
right_child=1 3 5 6 8 11 16 12 17 18 21 20 -14 -15 23 24 -18 -19 -20 -21 -22 -23 -24 -25 -26 -27 -28 -29 -30 -31
leaf_value=-0.0064310697662942817 -0.00084048807083700718 0.0040339355150030721 -0.0037846295849273078 0.0060871683992445476 0.00034610543133803059 -0.0021755587389426572 0.0073476614366317613 -0.0055698026636881491 0.0014241287729237228 0.0048136180944063451 -0.0001772293266549241 -0.0017269009118899706 -0.0043593606445938354 9.770136335282586e-05 0.00095634568518589201 -0.0060524695806882601 0.0082746523009105174 0.0025696953758597377 0.005563033082418972 -0.0031592599312333688 -0.00088228125213867144 0.00073315492592796339 0.0069886114634573468 0.0013624055915184925 -0.0055984177561693412 -0.0051105240285396585 -0.0061024387255311022 0.0019148349941063387 0.0064880729785987317 0.00021153829450089355
leaf_weight=53 39 36 38 24 27 35 29 28 20 33 20 20 20 25 68 22 22 20 36 38 21 21 20 37 43 25 50 26 49 55
leaf_count=53 39 36 38 24 27 35 29 28 20 33 20 20 20 25 68 22 22 20 36 38 21 21 20 37 43 25 50 26 49 55
internal_value=0 0.00288442 -0.00453903 0.00603713 0.000691613 -0.00258604 0.00693684 -0.00577079 0.00128509 0.00480324 -4.28139e-05 -0.00170014 -0.00508089 -0.000474008 0.000945344 -0.00607057 0.00774754 0.00196458 0.00520462 -0.00347194 -0.00129429 0.000244649 0.00649226 0.00109943 -0.0057521 -0.00535316 -0.00627154 0.00170148 0.00635627 0.000107867
internal_weight=0 607 393 249 358 152 144 241 198 105 160 76 73 64 132 168 51 66 69 76 41 96 93 105 65 53 103 46 73 75
internal_count=1000 607 393 249 358 152 144 241 198 105 160 76 73 64 132 168 51 66 69 76 41 96 93 105 65 53 103 46 73 75
is_linear=0
shrinkage=0.05


Tree=10
num_leaves=31
num_cat=0
split_feature=12 9 12 12 9 12 12 12 4 6 12 1 15 14 12 2 4 13 13 16 6 14 9 6 14 20 9 20 2 0
split_gain=4.71336 1.29623 0.46294 0.101626 0.0551052 0.039156 0.0359952 0.0200229 0.0167279 0.011876 0.00876837 0.00699921 0.00664049 0.00509944 0.00421502 0.00414073 0.00334496 0.00267091 0.00258584 0.00239231 0.00230625 0.0017846 0.00171581 0.00154939 0.00149011 0.00147091 0.000996088 0.000800846 0.000732272 0.000694153
threshold=3.2692288967152074 3.3682285714285718 3.1603807512188706 3.4552970719154055 3.2141857142857146 3.3220650920429518 3.1274619325144459 3.5053893037086996 -0.51144974351028372 -0.0001294185374243195 3.0956614524842618 0.41713008261725643 0.20466410422495626 -0.35682221740743547 3.2485421304795223 0.27870394725424413 0.46894466390895456 3.435654525622899 3.2933723590830035 3.2069967902362815 0.0030931160800438122 0.18171141118134773 3.4820642857142858 0.0068184126410304477 0.012480790815864911 17.500000000000004 3.3072785714285717 13.500000000000002 0.29945112596614371 0.093955361214770342
decision_type=2 2 2 2 2 2 2 2 2 2 2 2 2 2 2 2 2 2 2 2 2 2 2 2 2 2 2 2 2 2
left_child=2 5 6 8 12 9 10 21 -3 13 24 14 19 -2 -6 25 -9 -10 -15 -4 -12 22 -5 26 -1 -7 -11 -28 -22 -20
right_child=1 3 4 7 11 15 -8 16 17 23 20 -13 -14 18 -16 -17 -18 -19 29 -21 28 -23 -24 -25 -26 -27 27 -29 -30 -31
leaf_value=-0.0060527728211421236 -0.00059871485689654957 0.0030367873003706337 -0.0035994376787649735 0.0055209547467529778 -0.0017761235676803872 0.0017262232303619385 -0.0039513259218671385 0.0069353110886908867 0.0044733040212165745 0.00043550616042921326 -0.0054892691584037881 -0.00039896938826793548 -0.0022785691816049319 3.20978317970664e-05 -0.00099048704179304273 0.0020713957551962291 0.0077378887310624121 0.0051753347925841816 0.00037353024376751557 -0.0029458340989159688 -0.0051766810037436025 0.0064208192507857866 0.0060630917135212157 0.0011500219158320265 -0.0056973874637926067 0.0011796164581028279 0.0010932174324989319 0.00065605497855523781 -0.004788624085485936 0.00074584378661321743
leaf_weight=65 20 20 28 20 38 20 39 37 42 20 56 22 24 55 31 39 20 20 31 28 31 23 54 33 54 32 20 22 20 21
leaf_count=65 20 20 28 20 38 20 39 37 42 20 56 22 24 55 31 39 20 20 31 28 31 23 54 33 54 32 20 22 20 21
internal_value=0 0.0029181 -0.00404534 0.00571606 -0.00201713 0.000808461 -0.00535411 0.00647318 0.00429416 0.000450413 -0.00559619 -0.00117555 -0.00297442 0.00013412 -0.00142316 0.00168194 0.00721692 0.00469977 0.000271098 -0.00327264 -0.00526774 0.00603613 0.00591657 0.000873246 -0.00589151 0.00138985 0.00072593 0.000864228 -0.0050245 0.000523888
internal_weight=0 549 436 236 171 313 265 154 82 222 226 91 80 127 69 91 57 62 107 56 107 97 74 95 119 52 62 42 51 52
internal_count=985 549 436 236 171 313 265 154 82 222 226 91 80 127 69 91 57 62 107 56 107 97 74 95 119 52 62 42 51 52
is_linear=0
shrinkage=0.05


Tree=11
num_leaves=31
num_cat=0
split_feature=12 9 12 12 12 12 9 12 4 12 12 15 5 14 21 16 3 7 14 12 14 9 5 14 18 9 15 14 9 12
split_gain=4.25381 1.16985 0.41801 0.0917171 0.0423735 0.0422911 0.0354488 0.0180707 0.0150969 0.00809143 0.00791345 0.00598995 0.00573631 0.00483873 0.00384711 0.00346434 0.00312815 0.00305131 0.00275318 0.00263121 0.00246194 0.00244382 0.0020611 0.0016106 0.00156368 0.00154852 0.00138289 0.00114869 0.00104034 0.00103824
threshold=3.2692288967152074 3.3682285714285718 3.1652377571270414 3.4552970719154055 3.2218095378654916 3.1274619325144459 3.3203499999999999 3.5053893037086996 -0.51144974351028372 3.2962017224455593 3.0956614524842618 0.11040587956044613 58.356789646637985 -0.27570684062966239 2.5000000000000004 3.2721956115359263 -0.52360313256292745 0.0054702067196633402 -0.23787711302543504 3.1875720082009149 0.038257562153132425 3.4412857142857147 45.736316152240612 0.18171141118134773 0.01248470904497863 3.4820642857142858 0.1739008456771392 0.22747652987191322 3.1155571428571434 3.3138228571377195
decision_type=2 2 2 2 2 2 2 2 2 2 2 2 2 2 2 2 2 2 2 2 2 2 2 2 2 2 2 2 2 2
left_child=2 6 5 8 11 10 9 23 -3 18 26 19 17 -6 -9 -15 -11 -8 -2 -4 -7 -10 -12 25 -20 -5 -1 28 -24 -18
right_child=1 3 4 7 13 20 12 14 21 16 22 -13 -14 15 -16 -17 29 -19 24 -21 -22 -23 27 -25 -26 -27 -28 -29 -30 -31
leaf_value=-0.005687053157116778 -0.00041263049074803437 0.0028849478624761106 -0.0032476675343410723 0.0052449070103466515 -0.0015856723650358618 -0.0040293669471373923 0.0016100888237512362 0.007414780333638191 0.0042481568863704097 0.00016639181260307809 -0.0054124522022902972 -0.0020224278260554587 0.0019629011254595672 -0.0012397311694387879 0.0065540668328066126 -0.00042293732605872621 0.00074887843414520223 0.00084178963193802959 -4.4237717961412717e-05 -0.0025477039739489559 -0.0033192070363008462 0.0049196801148355014 -0.0051297277038873631 0.0060997782841972683 0.00039419079765585195 0.0057599371092187032 -0.0052745669793624154 -0.0045562218502163887 -0.0046932326629757883 0.0011525206378705446
leaf_weight=93 21 20 29 20 24 26 24 20 42 21 24 28 46 21 37 34 66 28 33 25 23 20 43 23 53 54 26 20 20 21
leaf_count=93 21 20 29 20 24 26 24 20 42 21 24 28 46 21 37 34 66 28 33 25 23 20 43 23 53 54 26 20 20 21
internal_value=0 0.0027722 -0.00384307 0.00543026 -0.00181971 -0.00502766 0.000768038 0.00614952 0.00407945 0.000408791 -0.00531638 -0.00261589 0.00155618 -0.000993296 0.00685607 -0.000734804 0.000714103 0.00119639 0.000100626 -0.00292361 -0.00369603 0.00446478 -0.00500436 0.00573433 0.000225957 0.00562074 -0.00559693 -0.00488635 -0.00499116 0.000846309
internal_weight=0 549 436 236 161 275 313 154 82 215 226 82 98 79 57 55 108 52 107 54 49 62 107 97 86 74 119 83 63 87
internal_count=985 549 436 236 161 275 313 154 82 215 226 82 98 79 57 55 108 52 107 54 49 62 107 97 86 74 119 83 63 87
is_linear=0
shrinkage=0.05


Tree=12
num_leaves=31
num_cat=0
split_feature=9 9 9 9 9 9 4 9 6 5 5 1 9 7 6 1 13 9 4 14 9 6 13 9 4 5 9 10 2 5
split_gain=3.8337 1.16058 0.280942 0.0817514 0.0435277 0.0396245 0.0149636 0.0143286 0.0131898 0.00928068 0.0082453 0.00600123 0.00573671 0.00368127 0.00360712 0.00342706 0.00312671 0.00288043 0.0025631 0.00250546 0.00247301 0.0024473 0.00238321 0.00233387 0.00192177 0.00164412 0.00151597 0.00132185 0.000941893 0.000907828
threshold=3.2545285714285721 3.3682285714285718 3.1532214285714288 3.4585785714285717 3.3096071428571436 3.1955142857142858 -0.51144974351028372 3.5121928571428573 0.0033922740434282343 44.272148537982609 59.071172146440709 0.44773762939613887 3.2818357142857146 -0.019771021251731271 0.0022688245690958291 0.0032369269642340552 3.435654525622899 3.090935714285715 1.100580537418139 0.18171141118134773 3.2287500000000011 -0.00056813379117492946 3.2963872571409465 3.3343571428571437 -0.066922347771619636 49.810048629553314 3.482535714285715 3.1724321428571436 -0.077400392308307739 45.404867712277031
decision_type=2 2 2 2 2 2 2 2 2 2 2 2 2 2 2 2 2 2 2 2 2 2 2 2 2 2 2 2 2 2
left_child=2 4 8 6 9 15 -3 19 17 12 13 20 -2 -6 22 27 -8 28 -10 26 -7 -9 -11 -12 -17 -15 -5 -4 -1 -19
right_child=1 3 5 7 10 11 16 21 18 14 23 -13 -14 25 -16 24 -18 29 -20 -21 -22 -23 -24 -25 -26 -27 -28 -29 -30 -31
leaf_value=-0.005550784107885863 -0.00086116755621567858 0.0027407005010172728 -0.0036046686920930045 0.0050422445471797681 0.001571036851964891 -0.002037709363704098 0.0040356320683800039 0.0062543676545222596 -0.0045392467507294251 3.4060617788724368e-05 0.0014110619185009488 -0.00070743579701229467 6.0924576462491899e-05 0.00054317175509464562 0.00083368733744024334 -0.0030074351079141101 0.0047418795228004462 -0.0051513989193317225 -0.0038296931050717832 0.0059895764570683241 -0.0013789261250557114 0.0069844555279070693 0.00056392855367448647 0.0020684800628158781 -0.0023438038025051355 0.0010123663154149125 0.0055380425191131136 -0.0030430265795439483 -0.0052270867404612632 -0.0048360276967287065
leaf_weight=38 31 20 22 21 20 29 42 24 35 63 27 20 37 33 31 24 25 39 20 24 28 22 32 27 20 43 58 20 55 55
leaf_count=38 31 20 22 21 20 29 42 24 35 63 27 20 37 33 31 24 25 39 20 24 28 22 32 27 20 43 58 20 55 55
internal_value=0 0.00245842 -0.00388109 0.00515875 0.000605868 -0.0022765 0.00394089 0.00586984 -0.00496187 0.000111309 0.0012455 -0.00145263 -0.000359441 0.00096747 0.000365364 -0.00301416 0.00429916 -0.00516206 -0.00428123 0.00554217 -0.0017141 0.00660354 0.000212542 0.00173977 -0.00270578 0.000808637 0.00540625 -0.00333722 -0.00535935 -0.00496687
internal_weight=0 580 405 236 344 163 87 149 242 194 150 77 68 96 126 86 67 187 55 103 57 46 95 54 44 76 79 42 93 94
internal_count=985 580 405 236 344 163 87 149 242 194 150 77 68 96 126 86 67 187 55 103 57 46 95 54 44 76 79 42 93 94
is_linear=0
shrinkage=0.05


Tree=13
num_leaves=31
num_cat=0
split_feature=12 9 12 12 12 12 9 12 4 6 12 1 15 5 14 21 7 17 12 14 9 10 15 14 9 14 9 7 14 16
split_gain=3.46545 0.952638 0.340742 0.0748057 0.0348469 0.0346672 0.0290943 0.0148919 0.0122776 0.00785018 0.00645259 0.00508837 0.00501675 0.00469964 0.00414445 0.00318053 0.00248996 0.00228041 0.0021144 0.002058 0.00200233 0.00188086 0.0017809 0.00131308 0.00125884 0.00119339 0.00109217 0.000986295 0.00102489 0.000820555
threshold=3.2692288967152074 3.3682285714285718 3.1652377571270414 3.4552970719154055 3.1274619325144459 3.2218095378654916 3.3203499999999999 3.5053893037086996 -0.51144974351028372 -0.0001294185374243195 3.100976073924222 0.41713008261725643 0.11040587956044613 58.356789646637985 -0.28938021051288038 2.5000000000000004 0.0054702067196633402 3.2457073136343793 3.1875720082009149 0.038257562153132425 3.4412857142857147 3.2917107142857147 0.1739008456771392 0.18171141118134773 3.4820642857142858 0.13133361219931744 3.1155571428571434 0.0014616584209468037 -0.054245900368720255 3.3587444161566853
decision_type=2 2 2 2 2 2 2 2 2 2 2 2 2 2 2 2 2 2 2 2 2 2 2 2 2 2 2 2 2 2
left_child=2 6 4 8 10 12 9 23 -3 14 22 17 18 16 -2 -9 -8 -7 -4 -6 -10 -16 -1 24 -5 26 -12 -11 -29 -15
right_child=1 3 5 7 19 11 13 15 20 27 25 -13 -14 29 21 -17 -18 -19 -20 -21 -22 -23 -24 -25 -26 -27 -28 28 -30 -31
leaf_value=-0.005111781348075186 -0.00050924162632410034 0.0026036654575727885 -0.0029341595118929603 0.0047320512868463992 -0.0036342243305765667 -0.0013506401113073272 0.0014556881234360239 0.0066997930593788628 0.0038322859488072849 0.00041848341177683326 -0.004734621177881192 -0.00020518475066637622 -0.0018189340730064682 0.0015822296775877477 3.3496606052862124e-05 0.0059171902569564623 0.00076164954807609328 -0.00069395870028529324 -0.0023066919408738615 -0.0029849328424619592 0.0044401332922279838 0.00045876301217224238 -0.0047042572767370281 0.0055034477587627331 0.0051964153501170658 -0.0041739770282919596 -0.0042801628261804579 0.00053560179340737791 0.00094909901071855052 0.0020061880616205081
leaf_weight=105 22 20 29 20 26 39 24 20 42 20 39 20 28 25 52 37 28 20 25 23 20 52 36 23 54 26 20 22 47 21
leaf_count=105 22 20 29 20 26 39 24 20 42 20 39 20 28 25 52 37 28 20 25 23 20 52 36 23 54 26 20 22 47 21
internal_value=0 0.00250217 -0.00346871 0.00490081 -0.00453822 -0.0016419 0.00069362 0.00555038 0.00368088 0.000368162 -0.0048003 -0.000894403 -0.00236205 0.00140764 0.00011424 0.00619179 0.00108198 -0.00112804 -0.00264367 -0.00332945 0.00402837 0.00024613 -0.00500773 0.00517347 0.00507091 -0.0044562 -0.00458057 0.000727647 0.000817259 0.00177578
internal_weight=0 549 436 236 275 161 313 154 82 215 226 79 82 98 126 57 52 59 54 49 62 104 141 97 74 85 59 89 69 46
internal_count=985 549 436 236 275 161 313 154 82 215 226 79 82 98 126 57 52 59 54 49 62 104 141 97 74 85 59 89 69 46
is_linear=0
shrinkage=0.05


Tree=14
num_leaves=31
num_cat=0
split_feature=12 9 12 12 12 9 12 6 12 12 12 8 12 2 21 5 5 5 12 3 13 1 8 11 1 3 9 5 11 11
split_gain=3.12801 0.94642 0.226452 0.0675122 0.0363399 0.0354293 0.01344 0.0112222 0.00814345 0.00737628 0.00716723 0.00472965 0.00397871 0.00396149 0.00287043 0.00255522 0.00226662 0.00212052 0.00192701 0.00191508 0.0017848 0.00170365 0.00166769 0.00132919 0.00129648 0.00129597 0.00125577 0.00117921 0.000855046 0.000851599
threshold=3.2543525150024819 3.3682285714285718 3.1465651718790864 3.4552970719154055 3.1976769153151952 3.3096071428571436 3.5053893037086996 -0.0013338791687664828 3.2816726899877962 3.3339536829294172 3.1069052079241444 0.0019472894254746736 3.1652377571270414 -0.12475400115157241 2.5000000000000004 51.180188594749239 59.608838386735464 45.321542029877442 3.4356888241500747 0.094721472280878696 3.2228150707278682 0.090242592618605691 0.0011381038735249224 3.0897833333333335 -0.24049089339652771 -0.57150521460156412 3.4843142857142859 39.351592461991942 3.3154450000000009 3.3042450000000003
decision_type=2 2 2 2 2 2 2 2 2 2 2 2 2 2 2 2 2 2 2 2 2 2 2 2 2 2 2 2 2 2
left_child=2 5 10 7 12 8 26 -3 11 16 17 27 -4 -6 -8 24 25 -1 -9 -14 -15 -11 -12 -19 -10 -7 -5 -2 -27 -26
right_child=1 3 4 6 13 9 14 18 15 21 22 -13 19 20 -16 -17 -18 23 -20 -21 -22 -23 -24 -25 29 28 -28 -29 -30 -31
leaf_value=-0.0048907351927666726 -0.00091883751558184267 0.002466962509788573 -0.0031257234640758146 0.0047292423454370902 -0.0017257415616768414 0.00041053876397199927 0.0063648032583296299 0.0035760884392349161 -0.00014126129393369648 0.0013488595606759191 -0.0042519685740654281 0.00023682590741056788 -0.0027196997940978586 -0.001313242759732973 0.0056213306816848552 0.0006558282717291843 0.0013131959189195187 -0.0047658559327062814 0.0041362188423850711 -0.0021124103416999183 -0.00066135904496713053 0.0019510574922289537 -0.0036903957929462199 -0.004381324256008322 0.00012756246124969467 0.00072950170174039704 0.0050892205014824868 -0.00040061203028966233 0.0011231228793886576 0.00049638668685380758
leaf_weight=79 21 20 44 47 32 20 20 34 23 24 39 23 34 21 37 42 24 38 28 21 21 23 20 55 34 37 50 23 22 29
leaf_count=79 21 20 44 47 32 20 20 34 23 24 39 23 34 21 37 42 24 38 28 21 21 23 20 55 34 37 50 23 22 29
internal_value=0 0.00221584 -0.0035127 0.00465577 -0.00214481 0.000546783 0.00527286 0.00349683 0.000102387 0.0011245 -0.00453713 -0.000344219 -0.00277134 -0.00130663 0.0058822 0.000336157 0.000887648 -0.00470025 0.00382905 -0.00248783 -0.000987301 0.00164355 -0.0040616 -0.00453844 0.000180039 0.000758368 0.0049148 -0.000647947 0.000876276 0.000297339
internal_weight=0 581 404 236 173 345 154 82 195 150 231 67 99 74 57 128 103 172 62 55 42 47 59 93 86 79 97 44 59 63
internal_count=985 581 404 236 173 345 154 82 195 150 231 67 99 74 57 128 103 172 62 55 42 47 59 93 86 79 97 44 59 63
is_linear=0
shrinkage=0.05


Tree=15
num_leaves=31
num_cat=0
split_feature=12 9 9 12 12 9 4 12 8 12 5 5 12 12 10 12 12 9 14 2 18 12 10 2 6 2 8 7 14 9
split_gain=2.70305 0.880053 0.199459 0.0704634 0.0314695 0.0312938 0.0141042 0.013171 0.00984554 0.0063507 0.00575746 0.0044944 0.00396082 0.00305311 0.00289463 0.00280857 0.00260666 0.00200605 0.00197118 0.00181129 0.00137941 0.0013665 0.00124573 0.00121567 0.00106452 0.000973927 0.000971382 0.000840145 0.000685581 0.000682572
threshold=3.2543525150024819 3.3646857142857147 3.1368214285714293 3.4552970719154055 3.1976769153151952 3.3096071428571436 -1.1233705903759714 3.499368151506387 -0.0029745915219889277 3.0978775210542193 58.741467361985521 52.052491186321475 3.2281326827187438 3.2887402824231349 3.4122357142857145 3.1652377571270414 3.5284351388318318 3.3343571428571437 0.10165411610507233 0.30510599978518244 0.014555860876988983 3.0836633589087392 3.4834285714285715 -0.55288461738137717 0.0052694625772711232 0.086066590933264756 -0.0011262152539010942 -0.0025116774418857527 -0.16018626729730603 3.1117928571428579
decision_type=2 2 2 2 2 2 2 2 2 2 2 2 2 2 2 2 2 2 2 2 2 2 2 2 2 2 2 2 2 2
left_child=2 5 9 6 15 8 -3 18 -2 21 23 13 -6 -10 -8 -4 25 -12 22 29 -17 -1 -5 -7 -16 -9 -14 -13 -23 -11
right_child=1 3 4 7 12 10 14 16 11 19 17 27 26 -15 24 20 -18 -19 -20 -21 -22 28 -24 -25 -26 -27 -28 -29 -30 -31
leaf_value=-0.0048037949280861098 -0.0009502671831631399 0.0021047086117323486 -0.0029442089442641307 0.0041811309038446501 -0.0016469190264064256 0.00047698501461686997 0.0030743201263248921 0.0051228060542295381 -0.00023211676118640195 -0.0042669474485922945 0.0011043386516609679 0.00029787549020035103 -0.0011603843525517733 0.00026921710954762573 0.0035854427031043802 -0.0026400846325688892 0.006025979444384575 0.0017083726906483726 0.0049219439652833071 -0.0036659033693097255 -0.0021346678198487672 -0.0046791657636111438 0.0046504322679773455 0.00087896138617960635 0.0040179897695779799 0.0055952376313507558 -0.00067349264919314361 0.00070011003716739231 -0.0043505682757026274 -0.0039354602495829264
leaf_weight=39 22 20 39 26 33 26 20 24 65 44 27 21 20 57 33 27 20 28 33 27 27 22 31 68 25 20 21 34 57 24
leaf_count=39 22 20 39 26 33 26 20 24 65 44 27 21 20 57 33 27 20 28 33 27 27 22 31 68 25 20 21 34 57 24
internal_value=0 0.00208709 -0.00330234 0.00433738 -0.00200863 0.000457568 0.00328928 0.00500434 4.72916e-05 -0.00431666 0.00100552 0.000171282 -0.00123918 2.113e-06 0.00359302 -0.00262089 0.00555268 0.00141185 0.00461441 -0.00401238 -0.00238738 -0.00456163 0.00443636 0.000767776 0.00377189 0.00533755 -0.000911001 0.00054653 -0.00444208 -0.00414995
internal_weight=0 600 380 252 167 348 98 154 199 213 149 177 74 122 78 93 64 55 90 95 54 118 57 94 58 44 41 55 79 68
internal_count=980 600 380 252 167 348 98 154 199 213 149 177 74 122 78 93 64 55 90 95 54 118 57 94 58 44 41 55 79 68
is_linear=0
shrinkage=0.05


Tree=16
num_leaves=31
num_cat=0
split_feature=12 12 12 12 12 12 12 12 15 6 12 6 12 14 12 14 13 2 14 13 15 16 12 12 3 8 4 14 12 17
split_gain=2.4395 0.794173 0.178809 0.0518436 0.0340099 0.0279712 0.0118868 0.011116 0.00838549 0.00687691 0.00633951 0.00416852 0.00357464 0.00268227 0.00252905 0.00240661 0.00238074 0.00215892 0.00177899 0.00149231 0.00131834 0.00130724 0.00128259 0.00123327 0.000998415 0.000876673 0.000841497 0.000618737 0.000610449 0.000601935
threshold=3.2543525150024819 3.3983481316931781 3.1465651718790864 3.4552970719154055 3.3080605155529348 3.1976769153151952 3.499368151506387 3.3530036354348272 -0.51586320737581093 -0.0021874293219419356 3.0978775210542193 0.0013733169301393124 3.2281326827187438 0.10891778189262839 3.1652377571270414 0.067731964564617206 3.2916838095725987 0.44927720909028196 0.10165411610507233 3.4815710808130835 -0.047719001820392584 3.4488961654628381 3.3249998384654522 3.0836633589087392 -0.27673785228483067 -0.0011262152539010942 0.60562141500850608 -0.16018626729730603 3.3010304867021087 3.2983111995752497
decision_type=2 2 2 2 2 2 2 2 2 2 2 2 2 2 2 2 2 2 2 2 2 2 2 2 2 2 2 2 2 2
left_child=2 4 10 9 8 14 18 13 -2 -3 23 16 -7 26 -4 -8 24 -12 19 -5 -16 -11 -15 -1 -10 -14 29 -25 -18 -6
right_child=1 3 5 6 7 12 15 -9 11 21 17 -13 25 22 20 -17 28 -19 -20 -21 -22 -23 -24 27 -26 -27 -28 -29 -30 -31
leaf_value=-0.0045636053364246322 -0.00081120333555736589 0.0024136056564748286 -0.0028046331594924669 0.0038795787397594679 0.00037243984153737192 -0.0015645730930070084 0.005004646225521962 0.0020662984472106806 -0.00038695464946795257 0.0032589373498090679 -0.0039081448568152139 0.00066473320724018035 -0.0011023651581490413 0.00086925495375782768 -0.0024728510790737348 0.0056227085845811028 0.00017436375474613725 -0.0033250839356333017 0.0046758467613747627 0.0044099447420901721 -0.0019700530493123969 0.0037010932923294605 0.0013283521169796587 -0.0044452074745839299 -7.9670949912325703e-06 -0.00063981801227089904 0.00092878892774815147 -0.0041330398828314059 0.00052443850523559382 0.0006998979803433435
leaf_weight=39 25 20 37 21 23 33 36 22 25 35 77 34 20 29 32 28 33 20 33 36 22 32 32 22 57 21 23 57 20 36
leaf_count=39 25 20 37 21 23 33 36 22 25 35 77 34 20 29 32 28 33 20 33 36 22 32 32 22 57 21 23 57 20 36
internal_value=0 0.00198273 -0.00313723 0.00420293 0.000492297 -0.00189914 0.00475412 0.00101999 4.34826e-05 0.00322724 -0.00408738 0.000169915 -0.00117722 0.000859023 -0.0024862 0.00527505 4.52947e-05 -0.00378793 0.00438369 0.00421455 -0.00226801 0.00347012 0.00111009 -0.00433355 -0.000123512 -0.000865451 0.000672251 -0.00421997 0.000306467 0.000572245
internal_weight=0 600 380 241 359 165 154 165 194 87 215 169 74 143 91 64 135 97 90 57 54 67 61 118 82 41 82 79 53 59
internal_count=980 600 380 241 359 165 154 165 194 87 215 169 74 143 91 64 135 97 90 57 54 67 61 118 82 41 82 79 53 59
is_linear=0
shrinkage=0.05


Tree=17
num_leaves=31
num_cat=0
split_feature=9 9 9 9 9 9 4 5 9 6 5 17 8 10 14 5 5 9 13 9 11 10 10 2 2 6 14 19 11 14
split_gain=2.19909 0.743944 0.140792 0.0560539 0.0287869 0.018596 0.0133065 0.00995412 0.00939134 0.0049368 0.00476129 0.00431208 0.00341315 0.0029306 0.00227452 0.00226828 0.00221656 0.00168967 0.00165661 0.00165208 0.00154202 0.00132705 0.00113866 0.00102914 0.000931893 0.000885626 0.000761691 0.000709809 0.00070674 0.000652187
threshold=3.2429285714285716 3.3646857142857147 3.1368214285714293 3.4609642857142862 3.3096071428571436 3.1955142857142858 -1.1233705903759714 43.459929002954929 3.5121928571428573 -6.0272797598459597e-05 58.741467361985521 3.2572524691871041 -0.0020291111050379602 3.4122357142857145 0.18171141118134773 62.148573299116102 55.746357040507981 3.2917071428571432 3.4820745812050671 3.3343571428571437 3.0922766666666672 3.527228571428572 3.1761750000000006 -0.55288461738137717 0.30510599978518244 0.0052694625772711232 0.012480790815864911 2.5000000000000004 3.3157400000000004 -0.095073766622825587
decision_type=2 2 2 2 2 2 2 2 2 2 2 2 2 2 2 2 2 2 2 2 2 2 2 2 2 2 2 2 2 2
left_child=2 4 9 6 7 15 -3 11 14 26 23 -2 -7 -8 18 22 17 -9 -5 -12 -11 -10 29 -6 -22 -15 -1 -13 -25 -4
right_child=1 3 5 8 10 12 13 16 21 20 19 27 -14 25 -16 -17 -18 -19 -20 -21 24 -23 -24 28 -26 -27 -28 -29 -30 -31
leaf_value=-0.0042446627712516647 -0.00091946631394920037 0.0018840025775716642 -0.0028760135639458897 0.0037505534011870625 0.00042374734409979567 -0.0016937997788190843 0.0027831319347023965 -2.8187555474057897e-05 0.0048997995406389241 -0.0039621542658536671 0.00099794511700531958 6.3527777716184831e-05 -0.00093753669926947044 0.0033041349663916562 0.0046829031637081733 -0.0019063183461271581 0.00055757994811822911 0.00041112217304268574 0.0042846120893955232 0.0015461036386633558 -0.0036697780749259086 0.0054389541702611109 -0.0022703940980136395 0.00064162714924249388 -0.003307716027592068 0.0036687214348104695 -0.0039595022176702821 -0.00034757082272941867 0.00096457184663449884 -0.0024722231365740303
leaf_weight=67 31 20 20 20 26 25 20 65 25 31 27 21 37 36 26 21 41 33 53 28 52 21 31 36 27 31 36 21 32 20
leaf_count=67 31 20 20 20 26 25 20 65 25 31 27 21 37 36 26 21 41 33 53 28 52 21 31 36 27 31 36 21 32 20
internal_value=0 0.00183023 -0.00306352 0.00391502 0.000374917 -0.00191178 0.00304693 6.00277e-07 0.00455561 -0.00389624 0.000907502 -0.000472169 -0.00124248 0.00331427 0.00428132 -0.00236282 0.000248889 0.000119743 0.00413829 0.00127701 -0.00366331 0.00514594 -0.00249784 0.000691301 -0.00354604 0.00347282 -0.004145 -0.000142022 0.000793601 -0.00267412
internal_weight=0 613 367 252 361 154 107 212 145 213 149 73 62 87 99 92 139 98 73 55 110 46 71 94 79 67 103 42 68 40
internal_count=980 613 367 252 361 154 107 212 145 213 149 73 62 87 99 92 139 98 73 55 110 46 71 94 79 67 103 42 68 40
is_linear=0
shrinkage=0.05


Tree=18
num_leaves=31
num_cat=0
split_feature=12 9 9 12 9 9 4 12 8 12 5 14 5 12 13 9 10 20 2 9 2 12 2 6 8 7 9 11 14 11
split_gain=1.98718 0.647209 0.14672 0.0518825 0.0231899 0.023028 0.0106659 0.00982425 0.00755454 0.00470266 0.00430795 0.00399554 0.00338246 0.00261062 0.00243992 0.00237465 0.00208366 0.00204307 0.00136651 0.00134064 0.00111375 0.00104947 0.000962715 0.000802437 0.000787388 0.000608973 0.000607071 0.000599719 0.000524167 0.000510378
threshold=3.2543525150024819 3.3646857142857147 3.1368214285714293 3.4552970719154055 3.2141857142857146 3.3096071428571436 -1.1233705903759714 3.4919759731356996 -0.0029745915219889277 3.0972802089263896 59.071172146440709 0.23058906723415609 52.052491186321475 3.1752700328116821 3.5240662681260178 3.2786285714285719 3.4122357142857145 14.500000000000002 0.30510599978518244 3.3343571428571437 0.15831050932463289 3.0836633589087392 -0.55288461738137717 0.0052694625772711232 -0.00037292156027708727 -0.0019092347898965363 3.113492857142858 3.3075350000000006 -0.16018626729730603 3.3157400000000004
decision_type=2 2 2 2 2 2 2 2 2 2 2 2 2 2 2 2 2 2 2 2 2 2 2 2 2 2 2 2 2 2
left_child=2 5 9 6 11 8 -3 24 -2 21 22 13 15 -4 20 -10 -8 -6 26 -12 -9 -1 -7 -18 -5 -14 -11 -17 -23 -24
right_child=1 3 4 7 17 10 16 14 12 18 19 -13 25 -15 -16 27 23 -19 -20 -21 -22 28 29 -25 -26 -27 -28 -29 -30 -31
leaf_value=-0.0041275789626897914 -0.0008336869528813457 0.0017898024509486279 -0.0025685920690496763 0.0037278073257766666 -0.00063546097720973199 0.00040255997491140777 0.0026439753035083415 0.0042817995250225066 -0.00031982045206043554 -0.0036607432838839794 0.00096769924991979041 -0.0015194671321660282 0.00027803553133233673 -0.0020237848639141683 0.0051209633350372315 5.4704551722453399e-05 0.0030739383320465235 -0.0012240036310435371 -0.0031423302677770458 0.0014707309866531029 0.0047757274692966827 -0.0040222600457214177 0.00063135861246091493 0.0034494838640093807 0.0040442123278683307 0.00061533166408480613 -0.0033435626463456589 0.00033659946488553727 -0.0037293418111013516 0.00090182107506376328
leaf_weight=39 22 20 45 32 30 26 20 25 39 48 26 20 23 43 25 54 33 29 27 27 21 21 37 25 51 32 22 29 56 33
leaf_count=39 22 20 45 32 30 26 20 25 39 48 26 20 23 43 25 54 33 29 27 27 21 21 37 25 51 32 22 29 56 33
internal_value=0 0.0017895 -0.00283148 0.00371927 -0.00172191 0.000392079 0.00281992 0.00429158 4.01344e-05 -0.00370142 0.000862126 -0.0021574 0.000148745 -0.00230238 0.00472337 1.98715e-06 0.00308406 -0.000924745 -0.0034445 0.00122396 0.00450729 -0.00391626 0.000662364 0.00323581 0.00392222 0.000474281 -0.00356106 0.000153198 -0.00380923 0.000758862
internal_weight=0 600 380 252 167 348 98 154 199 213 149 108 177 88 71 122 78 59 97 53 46 116 96 58 83 55 70 83 77 70
internal_count=980 600 380 252 167 348 98 154 199 213 149 108 177 88 71 122 78 59 97 53 46 116 96 58 83 55 70 83 77 70
is_linear=0
shrinkage=0.05


Tree=19
num_leaves=31
num_cat=0
split_feature=12 12 12 12 12 12 12 15 4 12 12 5 12 2 12 12 16 2 14 5 5 15 12 14 16 2 12 12 14 12
split_gain=1.79366 0.615783 0.103199 0.0382396 0.0301562 0.0123261 0.00983605 0.00645249 0.00631946 0.00621379 0.00473233 0.00308748 0.00290338 0.00270793 0.00241004 0.00197224 0.00174492 0.00149817 0.00145184 0.00141636 0.00114551 0.00112876 0.00109587 0.00108585 0.000951251 0.000901904 0.000534684 0.000485306 0.000448002 0.000391456
threshold=3.2405244245830254 3.3983481316931781 3.1465651718790864 3.4785816755183414 3.3010304867021087 3.1976769153151952 3.3530036354348272 -0.42879643493812253 -0.7677127725738585 3.5140289441464758 3.0988456407906644 55.746357040507981 3.3249998384654522 0.08072533549647877 3.4476418092525933 3.1652377571270414 3.2979596568646863 0.35927010866283476 0.18171141118134773 47.508580570636845 53.674201227822898 0.1739008456771392 3.5284351388318318 -0.081357349545783206 3.3282641388760883 0.11497319018897169 3.2675504710967505 3.0836633589087392 0.13133361219931744 3.1136637661967126
decision_type=2 2 2 2 2 2 2 2 2 2 2 2 2 2 2 2 2 2 2 2 2 2 2 2 2 2 2 2 2 2
left_child=2 4 10 8 7 15 12 -2 -3 18 21 16 19 -7 25 -4 26 29 -5 -6 -14 27 -11 -17 -21 -10 -9 -1 -26 -12
right_child=1 3 5 9 6 13 -8 11 14 22 17 -13 20 -15 -16 23 -18 -19 -20 24 -22 -23 -24 -25 28 -27 -28 -29 -30 -31
leaf_value=-0.0039336622937729488 -0.00069664005485891895 0.0021125946484971793 -0.0024148690765975296 0.0038187944005723252 0.00021278748847959963 -0.0014967902237549425 0.0017829305852170695 -0.00047306020550465862 0.002617605252280122 0.0044363424181938175 -0.0034259436690077492 0.00057574534729729228 0.00067633857049614844 -0.00078423334149799 0.00339105804092609 -0.0022012852618227834 0.00011196659383131193 -0.0028838895828179694 0.0043050805479288102 0.00046086577967798805 0.0011280696528653304 -0.0034520513901952657 0.0049329014681279669 -0.001747857720681256 0.00063250785705167803 0.0030448384520908199 -0.00014178051782876317 -0.0036995259166326165 0.00094187757468634217 -0.0031634475383907554
leaf_weight=38 37 20 37 66 28 30 22 21 21 25 49 23 23 24 39 23 65 23 20 48 36 32 20 31 25 30 29 53 22 20
leaf_count=38 37 20 37 66 28 30 22 21 21 25 49 23 23 24 39 23 65 23 20 48 36 32 20 31 25 30 29 53 22 20
internal_value=0 0.00162779 -0.00280938 0.00360385 0.000371247 -0.00177854 0.000784335 -0.000110295 0.00291653 0.00418098 -0.0035046 4.69136e-05 0.000663626 -0.0011801 0.00309518 -0.00213366 -5.88528e-05 -0.00323337 0.00393188 0.000525314 0.000951971 -0.00370748 0.00465704 -0.00194098 0.000617427 0.00286892 -0.000280918 -0.0037973 0.000777319 -0.00334986
internal_weight=0 620 360 241 379 145 204 175 110 131 215 138 182 54 90 91 115 92 86 123 59 123 45 54 95 51 50 91 47 69
internal_count=980 620 360 241 379 145 204 175 110 131 215 138 182 54 90 91 115 92 86 123 59 123 45 54 95 51 50 91 47 69
is_linear=0
shrinkage=0.05


Tree=20
num_leaves=31
num_cat=0
split_feature=16 17 10 10 6 16 6 16 2 10 7 8 3 5 3 16 4 5 16 17 4 1 14 11 18 11 11 10 7 5
split_gain=1.62942 0.541959 0.10473 0.0361851 0.018375 0.0122834 0.00971551 0.00800174 0.00759917 0.00632392 0.00627143 0.00407986 0.00397486 0.00386664 0.00226246 0.00210391 0.00182977 0.00165675 0.0016192 0.0014446 0.00141843 0.00140911 0.00132864 0.00107739 0.00100736 0.000660337 0.000658777 0.000611879 0.000505226 0.000418402
threshold=3.2812705164160296 3.3215298818390369 3.1501642857142862 3.4674892857142861 -0.00017240309672139628 3.2166070924254302 -0.0021874293219419356 3.5244546007842996 -0.88528264805128865 3.3051571428571438 0.0025563365934790174 -0.00025114981156956821 0.38689449165554285 59.608838386735464 0.28227808146950034 3.3375774417959447 1.0890099209378115 36.99827539861765 3.4513346407764431 3.1914682841289106 0.46894466390895456 -0.051675493704678159 -0.1230647762292187 3.2798683333333334 0.017950824201585117 3.0872900000000003 3.3174683333333337 3.1724321428571436 -0.0042436185039065001 45.404867712277031
decision_type=2 2 2 2 2 2 2 2 2 2 2 2 2 2 2 2 2 2 2 2 2 2 2 2 2 2 2 2 2 2
left_child=2 4 10 6 8 12 -3 14 -2 17 21 -7 27 24 22 -15 -12 -10 -8 -13 -9 -1 -5 -19 26 -23 -6 -4 -25 -27
right_child=1 3 5 7 13 11 18 20 9 -11 16 19 -14 15 -16 -17 -18 23 -20 -21 -22 25 -24 28 -26 29 -28 -29 -30 -31
leaf_value=-0.0036428641814451948 -0.00075106702821232897 0.0017174155418095843 -0.0024017035704234553 0.0031207717334230741 0.00052209058904146221 -0.0015339191786811822 0.0026954606024397389 0.0041885149975617727 -0.00045068364488543011 0.0007565252077256446 -0.0030582092081507047 -0.001047463486902416 -0.0014188336650840939 0.00062815393030177811 0.0039925632239491858 0.0012317379218681405 -0.0024834270775318146 -0.00025069658054828486 0.0031571963181098307 -0.00044650690324488096 0.0047064222581684597 -0.0035901871288106556 0.0036119044013321402 0.00023501147558391145 0.00023776592700058878 -0.003422784766760366 0.00083910786425289902 -0.0020473153552129156 -3.7671974076567072e-05 -0.0031812799975593042
leaf_weight=65 29 21 29 21 57 28 37 39 20 32 45 20 20 22 27 42 20 23 39 20 20 21 40 49 23 29 23 21 26 47
leaf_count=65 29 21 29 21 57 28 37 39 20 32 45 20 20 22 27 42 20 23 39 20 20 21 40 49 23 29 23 21 26 47
internal_value=0 0.00161438 -0.00263588 0.00341894 0.000341803 -0.00154963 0.00266937 0.00391355 -1.01438e-05 0.000133101 -0.00329625 -0.00107102 -0.00201457 0.00071904 0.0036115 0.00102426 -0.00288135 -3.59627e-05 0.0029324 -0.000746985 0.00436408 -0.00346272 0.00344283 4.86742e-05 0.000529391 -0.00334201 0.000613233 -0.00225286 0.000140481 -0.00327343
internal_weight=0 590 365 244 346 138 97 147 179 150 227 68 70 167 88 64 65 118 76 40 59 162 61 98 103 97 80 50 75 76
internal_count=955 590 365 244 346 138 97 147 179 150 227 68 70 167 88 64 65 118 76 40 59 162 61 98 103 97 80 50 75 76
is_linear=0
shrinkage=0.05


Tree=21
num_leaves=31
num_cat=0
split_feature=12 12 12 12 12 12 12 9 12 15 1 15 7 8 1 5 16 13 10 20 21 14 9 12 3 6 4 20 1 12
split_gain=1.48337 0.405942 0.171659 0.0229031 0.0216637 0.0200534 0.0108833 0.00619423 0.00554308 0.00460193 0.00363252 0.00341965 0.00319112 0.00275402 0.00191666 0.00166943 0.00150167 0.00138922 0.00115879 0.00114646 0.00099869 0.000958034 0.000956975 0.000799078 0.0007137 0.000573036 0.000572141 0.000515524 0.00047348 0.000454982
threshold=3.2748389421370354 3.4095478605338987 3.1603807512188706 3.4785816755183414 3.3249998384654522 3.2281326827187438 3.1116285126535934 3.3606000000000003 3.5039502332266736 -0.56633185904357564 -0.16703023300794204 0.23803894894303282 -0.0002432640006064701 0.0019472894254746736 0.14944490125151647 45.321542029877442 3.2069967902362815 3.5240662681260178 3.4527500000000004 13.500000000000002 10.500000000000002 -0.24730204374901363 3.1368214285714293 3.2933290861130118 0.28549606006146316 0.0052694625772711232 1.8821353667586529 12.500000000000002 -0.070827837130033031 3.0905998441494682
decision_type=2 2 2 2 2 2 2 2 2 2 2 2 2 2 2 2 2 2 2 2 2 2 2 2 2 2 2 2 2 2
left_child=2 4 6 10 9 11 15 19 24 -2 -3 16 23 21 22 29 -4 -10 25 -6 -17 -7 -8 -11 27 -12 -14 -5 -21 -1
right_child=1 3 5 8 7 13 14 -9 17 12 18 -13 26 -15 -16 20 -18 -19 -20 28 -22 -23 -24 -25 -26 -27 -28 -29 -30 -31
leaf_value=-0.0035205344814393255 -0.00039124693624520055 0.0021682470000814647 -0.0020388192236423493 0.0035768223181366927 0.001248795053371313 -0.00090261129551522795 -0.0028986867230672104 0.0018480364249886146 0.0039500139001756905 7.7019403139392151e-05 0.0026338675320148469 -0.0010652667911792244 0.00052813875066558236 1.2378568246039442e-05 -0.0021388909131612468 -0.003003470513267794 -0.0015314445963927679 0.0044251444637775422 0.0032438607975130993 0.00064317176901650705 -0.0033451193523022435 -0.00048899613506191175 -0.0024448780342936518 0.00037318222429247625 0.0037324200073877972 0.0029881586276349569 0.00082789780615712518 0.0032444529035793885 0.00097931088181212544 -0.0032838515836644817
leaf_weight=45 21 20 25 20 22 21 26 28 40 62 25 27 78 23 23 69 35 25 21 22 31 42 21 36 21 21 20 28 20 37
leaf_count=45 21 20 25 20 22 21 26 28 40 62 25 27 78 23 23 69 35 25 21 22 31 42 21 36 21 21 20 28 20 37
internal_value=0 0.00175505 -0.00221014 0.00339129 0.000584792 -0.000997348 -0.00304273 0.00122777 0.00380143 0.000312195 0.00275959 -0.00153257 0.000387564 -0.000455907 -0.0025129 -0.00324651 -0.00174285 0.00413276 0.00293611 0.000956398 -0.00310938 -0.000626868 -0.00269592 0.000185814 0.0034893 0.00279561 0.000589314 0.00338294 0.000803238 -0.00341374
internal_weight=0 530 425 221 309 173 252 92 134 217 87 87 196 86 70 182 60 65 67 64 100 63 47 98 69 46 98 48 42 82
internal_count=955 530 425 221 309 173 252 92 134 217 87 87 196 86 70 182 60 65 67 64 100 63 47 98 69 46 98 48 42 82
is_linear=0
shrinkage=0.05


Tree=22
num_leaves=31
num_cat=0
split_feature=12 12 12 12 12 12 12 9 12 15 5 0 7 8 6 10 13 5 20 11 9 12 11 3 2 5 8 7 2 12
split_gain=1.33874 0.366363 0.15503 0.0212515 0.02067 0.0195515 0.00694291 0.00559029 0.00500263 0.0041576 0.00399557 0.00291162 0.0028099 0.0024855 0.00195118 0.00142042 0.00125378 0.00121309 0.00103468 0.000754398 0.000736759 0.000721168 0.000681626 0.000644114 0.000639294 0.000599884 0.000595543 0.000548374 0.000469908 0.000583429
threshold=3.2748389421370354 3.4095478605338987 3.1565277660973821 3.2281326827187438 3.4785816755183414 3.3249998384654522 3.1069052079241444 3.3606000000000003 3.5039502332266736 -0.57763610939799415 46.489856049386496 -0.13129892111266026 -0.0002432640006064701 0.0019472894254746736 0.0083798113326407648 3.4527500000000004 3.5240662681260178 45.321542029877442 13.500000000000002 3.1864333333333339 3.1955142857142858 3.2933290861130118 3.0897833333333335 0.28549606006146316 -0.069304170839895582 60.115153211177393 -0.0015709094655727753 0.0081004237890243361 -0.061558757211616071 3.0902395931369866
decision_type=2 2 2 2 2 2 2 2 2 2 2 2 2 2 2 2 2 2 2 2 2 2 2 2 2 2 2 2 2 2
left_child=2 5 6 10 11 9 17 18 23 -2 19 -3 21 26 24 25 -10 28 -7 -4 -12 -11 -19 -6 -8 -13 -5 -14 29 -1
right_child=1 4 3 13 8 7 14 -9 16 12 20 15 27 -15 -16 -17 -18 22 -20 -21 -22 -23 -24 -25 -26 -27 -28 -29 -30 -31
leaf_value=-0.0035160066038370133 -0.00039029243343975396 0.0021244167477231135 -0.0020082934014499189 -0.0008129303631860586 0.0032137931479761998 0.001186355296522379 -0.0028243814397490388 0.0017556345672346653 0.0037525131646543742 7.31684331361565e-05 -0.0013622390028710167 0.0024402416861531409 0.00049498845548464775 1.1759638848319732e-05 -0.0021090160752646626 0.0031166589480232112 0.0042038871794939049 -0.0031527337391634249 0.00076307611459577906 -0.0016271221968862746 -0.00096165400040759295 0.00035452311541727495 -0.002873076913210581 0.0035457989821831384 -0.0024714822082647254 0.0028138501835720882 -0.00048682150469782457 0.00078807619284134486 -0.0030691234475892525 -0.0031864031571252598
leaf_weight=25 20 22 25 21 48 22 33 28 40 62 24 22 79 23 20 22 25 37 42 27 22 36 53 21 21 21 42 20 23 29
leaf_count=25 20 22 25 21 48 22 33 28 40 62 24 22 79 23 20 22 25 37 42 27 22 36 53 21 21 21 42 20 23 29
internal_value=0 0.0016673 -0.00209963 -0.00100672 0.00322173 0.000555553 -0.00293405 0.00116638 0.00361135 0.000296585 -0.0015101 0.00262161 0.000366319 -0.000433111 -0.00253089 0.00278989 0.00392612 -0.00311269 0.000908578 -0.00181038 -0.00117065 0.000176523 -0.00298805 0.00331484 -0.00268714 0.0026227 -0.000595524 0.000554198 -0.00325839 -0.003339
internal_weight=0 530 425 184 221 309 241 92 134 217 98 87 197 86 74 65 65 167 64 52 46 98 90 69 54 43 63 99 77 54
internal_count=955 530 425 184 221 309 241 92 134 217 98 87 197 86 74 65 65 167 64 52 46 98 90 69 54 43 63 99 77 54
is_linear=0
shrinkage=0.05


Tree=23
num_leaves=31
num_cat=0
split_feature=12 12 12 12 12 12 12 12 12 5 5 1 21 8 4 12 21 16 1 15 12 1 11 3 2 1 20 16 7 11
split_gain=1.20821 0.330643 0.139915 0.0191794 0.0186547 0.0176452 0.00626597 0.00476999 0.00451487 0.003827 0.00366597 0.00311404 0.00235518 0.00224316 0.00177961 0.00175708 0.00117452 0.00112868 0.00111416 0.00110641 0.000939329 0.000598847 0.000597302 0.000581313 0.000541946 0.000489996 0.00046526 0.000430859 0.000397326 0.000387488
threshold=3.2748389421370354 3.4095478605338987 3.1565277660973821 3.2281326827187438 3.4785816755183414 3.3249998384654522 3.1069052079241444 3.3652345052838508 3.5039502332266736 44.433547556422887 49.370607540809083 -0.16703023300794204 8.5000000000000018 0.0019472894254746736 1.1226222904607732 3.2925191661571787 2.5000000000000004 3.2024566952540283 -0.051675493704678159 0.42497398520888158 3.4433331230100221 -0.27853675931552296 3.0872900000000003 0.28549606006146316 -0.069304170839895582 0.14944490125151647 12.500000000000002 3.3418791038102764 0.00024712853805522076 3.2755783333333341
decision_type=2 2 2 2 2 2 2 2 2 2 2 2 2 2 2 2 2 2 2 2 2 2 2 2 2 2 2 2 2 2
left_child=2 5 6 10 11 9 18 19 23 12 17 -3 -2 21 24 25 -10 -4 28 -7 -13 -5 -20 26 -8 -11 -6 -17 -1 -23
right_child=1 4 3 13 8 7 14 -9 16 15 -12 20 -14 -15 -16 27 -18 -19 22 -21 -22 29 -24 -25 -26 -27 -28 -29 -30 -31
leaf_value=-0.0032149720846152891 0.00020137210493914844 0.0019430137472227216 -0.001884342222324302 -0.00078375635369281693 0.0032372915279120212 0.00071293661912932296 -0.0026831623336130927 0.0016666705495919341 0.0040076111753781637 -2.901734576722526e-05 -0.0010419358952424012 0.0024581692123319954 -0.00046640937102695361 1.1171655901505247e-05 -0.0020148139047835557 0.00044496653009967339 0.0035671989183600362 -0.0014541344018653036 -0.0030878797850825571 0.0011369549543596804 0.0028329758133207052 -0.00060861510379860801 -0.0027944763395480994 0.0033685090818575455 -0.0023533141380175948 0.00030937579984311017 0.0029215405828186443 0.00066141380793264799 -0.0029515752653506669 -0.00030487326439470057
leaf_weight=41 31 20 31 21 20 40 33 27 24 23 37 32 23 23 21 89 41 30 22 25 35 21 82 21 20 20 28 31 22 21
leaf_count=41 31 20 31 21 20 40 33 27 24 23 37 32 23 23 21 89 41 30 22 25 35 21 82 21 20 20 28 31 22 21
internal_value=0 0.00158393 -0.00199465 -0.000956388 0.00306064 0.000527775 -0.00278735 0.00110806 0.00343079 0.000281756 -0.00143459 0.00249053 -8.30533e-05 -0.000411456 -0.00240435 0.000402613 0.00372981 -0.00167276 -0.00295706 0.000876021 0.00265396 -0.000565748 -0.00285654 0.0031491 -0.00255869 0.000128375 0.0030531 0.000500882 -0.00312299 -0.000456744
internal_weight=0 530 425 184 221 309 241 92 134 217 98 87 54 86 74 163 65 61 167 65 67 63 104 69 53 43 48 120 63 42
internal_count=955 530 425 184 221 309 241 92 134 217 98 87 54 86 74 163 65 61 167 65 67 63 104 69 53 43 48 120 63 42
is_linear=0
shrinkage=0.05


Tree=24
num_leaves=31
num_cat=0
split_feature=13 9 9 9 9 6 9 15 4 21 15 1 9 14 11 3 3 7 4 1 7 1 6 10 21 9 3 18 15 2
split_gain=1.08708 0.368956 0.0596423 0.0275573 0.0143717 0.00804347 0.00582009 0.00493702 0.00493421 0.0040738 0.0024207 0.00186136 0.00161708 0.00149313 0.00138759 0.00135024 0.00134412 0.00127511 0.00122357 0.00103823 0.00102242 0.000920032 0.00086261 0.000843567 0.000619557 0.000549723 0.000409949 0.000339382 0.000289298 0.000277468
threshold=3.2440013808343688 3.3646857142857147 3.1549499999999999 3.4784071428571433 3.3066642857142865 -0.0034600466500200873 3.1955142857142858 -0.71494632988823936 0.81923836003622308 4.5000000000000009 0.42497398520888158 0.1734308953742936 3.4412857142857147 -0.081357349545783206 3.2829416666666669 0.29949762563649124 -0.7232708568968792 0.0027588192455110616 0.46894466390895456 0.13770437589692988 -0.0065878882458936016 -0.051675493704678159 -0.0047487922304110244 3.3272214285714292 5.5000000000000009 3.0918642857142862 0.28227808146950034 0.011871921527174624 0.1739008456771392 0.56169847407452356
decision_type=2 2 2 2 2 2 2 2 2 2 2 2 2 2 2 2 2 2 2 2 2 2 2 2 2 2 2 2 2 2
left_child=2 4 8 5 7 -3 13 -2 17 18 16 14 -7 -4 27 -8 -6 21 -5 -14 -13 -1 -15 24 -18 28 -11 -9 -23 -22
right_child=1 3 6 9 10 12 15 11 -10 26 -12 20 19 22 -16 -17 23 -19 -20 -21 29 25 -24 -25 -26 -27 -28 -29 -30 -31
leaf_value=-0.0029628187774077934 -0.00066388777556346257 0.0014087601993232968 -0.0018374206468222604 0.0033908716483932477 0.00012082245339115616 0.002198333064803765 -0.0011661363136954606 -0.00044270193146076056 -0.0021198739164641927 0.00289366731250828 0.00095277474297051279 -9.367650394172718e-06 0.0023747526363215666 -0.0016268910770304503 7.9485781142942704e-05 -0.00061968406841445434 0.00062764973586632153 -0.0024896662416202683 0.0038514822366691771 0.002845712684094906 0.00028626147527358541 -0.0028956797738105824 -0.0011822773279466978 0.00080278980728637961 0.00033629649355921052 -0.0025679706854538787 0.0031580112959173597 -0.00015141932060942054 -0.0026654950919605437 0.00054035263733980671
leaf_weight=68 27 25 31 46 20 42 20 20 35 44 38 21 22 20 63 26 36 35 21 25 21 39 24 28 37 36 22 20 21 22
leaf_count=68 27 25 31 46 20 42 20 20 35 44 38 21 22 20 63 26 36 35 21 25 21 39 24 28 37 36 22 20 21 22
internal_value=0 0.00128939 -0.00220131 0.00277164 0.000252241 0.0022012 -0.00130006 -3.65838e-05 -0.00266735 0.00326059 0.000604644 6.48366e-05 0.00242379 -0.00157163 -6.67458e-05 -0.000857272 0.000495313 -0.00276364 0.00353524 0.00262526 0.000276602 -0.00282211 -0.00138437 0.00056947 0.000479978 -0.00272244 0.00298178 -0.000297061 -0.00281512 0.000416262
internal_weight=0 600 355 247 353 114 121 194 234 133 159 167 89 75 103 46 121 199 67 47 64 164 44 101 73 96 66 40 60 43
internal_count=955 600 355 247 353 114 121 194 234 133 159 167 89 75 103 46 121 199 67 47 64 164 44 101 73 96 66 40 60 43
is_linear=0
shrinkage=0.05


Tree=25
num_leaves=31
num_cat=0
split_feature=9 9 9 9 9 9 18 10 5 14 5 9 14 21 2 14 5 9 9 20 10 1 9 9 2 15 9 16 14 8
split_gain=1.0715 0.338998 0.0708031 0.0232159 0.0113736 0.0107411 0.00654398 0.00438715 0.00344913 0.00341078 0.00226425 0.00166112 0.00122891 0.0012098 0.00102445 0.000967806 0.000927615 0.00127556 0.000805726 0.000832077 0.000668568 0.000606072 0.000588978 0.00056867 0.000542748 0.000539376 0.000489312 0.000431266 0.000428993 0.000293241
threshold=3.2429285714285716 3.3646857142857147 3.1368214285714293 3.4784071428571433 3.3066642857142865 3.2057357142857148 0.025517722988927443 3.5207964285714293 59.071172146440709 -0.28189082436676433 62.148573299116102 3.0971357142857152 0.064343027703553587 4.5000000000000009 0.31393518955284977 -0.40873345641845416 56.456923876364421 3.2909785714285715 3.3262571428571435 13.500000000000002 3.1761750000000006 0.1734308953742936 3.3343571428571437 3.1155571428571434 0.095988603350483107 -0.18130775990214312 3.4343428571428576 3.2927403780720845 0.030388192054262013 1.4389439955522604e-05
decision_type=2 2 2 2 2 2 2 2 2 2 2 2 2 2 2 2 2 2 2 2 2 2 2 2 2 2 2 2 2 2
left_child=2 4 11 6 9 10 14 13 15 -2 20 24 -7 29 26 -6 17 27 19 -17 25 23 -10 -13 -1 -4 -3 -11 -15 -5
right_child=1 3 5 7 8 12 -8 -9 22 16 -12 21 -14 28 -16 18 -18 -19 -20 -21 -22 -23 -24 -25 -26 -27 -28 -29 -30 -31
leaf_value=-0.0028192301834874516 -0.00046185446227547911 0.0019878915754025397 -0.0020052709244191649 0.0030130340802398594 0.00011093753869534426 -0.00092277994089301734 0.0013189088386882629 0.0035909507123212665 0.00077116048928620607 -0.00023751468155145026 -0.0011469664813305897 -0.0026320817985765218 -0.0004613766690319473 0.0027136652638243206 0.0025094809808901379 0.00059205885739966983 0.00040829901450446673 0.00028697120562868895 0.00074332447813661847 0.00024088314286583795 -0.0015226470448801088 -0.0022794058096284667 0.001114110299386084 -0.0023191794846206906 -0.0026016796463065681 -0.0016569037921726705 0.0022831305085370939 1.1558117474787795e-05 0.0029572337544683754 0.0032775675691664218
leaf_weight=79 33 23 20 22 21 31 21 31 31 24 26 53 27 48 35 31 21 39 23 37 36 30 21 20 45 25 36 63 29 20
leaf_count=79 33 23 20 22 21 31 21 31 31 24 26 53 27 48 35 31 21 39 23 37 36 30 21 20 45 25 36 63 29 20
internal_value=0 0.00130733 -0.0020441 0.00265138 0.000271941 -0.00125593 0.0021169 0.00306116 0.00057314 -2.48462e-06 -0.00155294 -0.00261701 -0.000707989 0.00292314 0.00229517 0.000416899 0.000100639 4.93626e-05 0.000487505 0.000400978 -0.00168325 -0.0024686 0.000909659 -0.00254636 -0.00274028 -0.00181173 0.00216804 -5.71516e-05 0.0028054 0.003139
internal_weight=0 609 392 265 344 165 115 150 164 180 107 227 58 119 94 112 147 126 91 68 81 103 52 73 124 45 59 87 77 42
internal_count=1001 609 392 265 344 165 115 150 164 180 107 227 58 119 94 112 147 126 91 68 81 103 52 73 124 45 59 87 77 42
is_linear=0
shrinkage=0.05


Tree=26
num_leaves=31
num_cat=0
split_feature=12 9 12 12 12 9 18 10 15 14 6 14 15 2 12 12 10 6 9 9 12 10 20 16 14 2 7 18 13 9
split_gain=0.970003 0.301561 0.0664495 0.0215193 0.00975431 0.00962694 0.00559882 0.0040391 0.00260304 0.00252542 0.00182562 0.00165131 0.001507 0.00115334 0.00114478 0.00112097 0.00100295 0.000928961 0.00102376 0.000792767 0.000515671 0.000447091 0.000392307 0.000346722 0.000320047 0.000293578 0.000288484 0.000371296 0.00026474 0.000260496
threshold=3.2485421304795223 3.3646857142857147 3.1465651718790864 3.4766061313813093 3.1976769153151952 3.3066642857142865 0.025517722988927443 3.5207964285714293 0.40617286849766837 -0.28189082436676433 0.0016899361991473685 0.064343027703553587 0.221651366699047 0.31393518955284977 3.499368151506387 3.3286186250041125 3.3213500000000002 0.00065284335248838598 3.2909785714285715 3.1155571428571434 3.0818674495874587 3.1761750000000006 13.500000000000002 3.2927403780720845 0.030388192054262013 1.0000000180025095e-35 -0.0043063885712905006 0.027786921890558796 3.48529692502315 3.4343428571428576
decision_type=2 2 2 2 2 2 2 2 2 2 2 2 2 2 2 2 2 2 2 2 2 2 2 2 2 2 2 2 2 2
left_child=2 5 10 6 12 9 13 14 15 -2 20 -6 21 29 24 16 22 18 23 -12 -1 -4 -7 -11 28 -22 27 -25 -5 -3
right_child=1 3 4 7 11 8 -8 -9 -10 17 19 -13 -14 -15 -16 -17 -18 -19 -20 -21 25 -23 -24 26 -26 -27 -28 -29 -30 -31
leaf_value=-0.0027588352396645966 -0.00039758552593411879 0.0018884969915708772 -0.0017053310759365559 0.0024428527953568851 -0.00093172563922692183 0.00057127997764231016 0.0012529633932336724 0.0034114031902244013 0.0009011072673064728 -0.00020643027431409188 -0.0023861618855824836 -0.00043700818576091426 -0.0011315197552270865 0.0023840069052364146 0.0029885097611241224 0.00065148439229233189 7.1776373974549081e-05 0.00040714052572314233 0.00027214960654317919 -0.002038918121252209 -0.0026046082872198898 -0.0014601046027725233 0.0003133810854267032 0.00023499149273530667 0.0027822959894204841 -0.002437941630681356 -0.00013025767875660677 -6.2674039872945294e-05 0.002681033466277378 0.0021091008849907669
leaf_weight=34 31 23 41 20 37 30 21 31 39 24 65 31 23 35 41 40 26 21 36 22 64 34 29 22 34 45 22 20 28 32
leaf_count=34 31 23 41 20 37 30 21 31 39 24 65 31 23 35 41 40 26 21 36 22 64 34 29 22 34 45 22 20 28 32
internal_value=0 0.00125438 -0.00192871 0.00251881 -0.00116631 0.000268864 0.0019881 0.00290134 0.000544483 1.20371e-05 -0.00247895 -0.000706193 -0.00148558 0.00215963 0.00277279 0.000433216 0.000330502 9.96115e-05 4.753e-05 -0.00229835 -0.00258883 -0.00159416 0.000444516 -4.43598e-05 0.00266493 -0.0025358 1.64166e-05 9.3246e-05 0.00258179 0.00201685
internal_weight=0 605 396 265 166 340 111 154 164 176 230 68 98 90 123 125 85 145 124 87 143 75 59 88 82 109 64 42 48 55
internal_count=1001 605 396 265 166 340 111 154 164 176 230 68 98 90 123 125 85 145 124 87 143 75 59 88 82 109 64 42 48 55
is_linear=0
shrinkage=0.05


Tree=27
num_leaves=31
num_cat=0
split_feature=12 12 12 12 12 12 12 6 5 8 2 12 3 17 8 6 5 11 0 2 9 12 14 16 18 11 9 14 10 0
split_gain=0.875459 0.234355 0.0956985 0.0146181 0.0116364 0.011566 0.00445779 0.00359811 0.00261583 0.00248122 0.00239634 0.00210401 0.00176791 0.00149023 0.00133441 0.00105985 0.0010521 0.00102884 0.00101184 0.000864084 0.000721932 0.0006702 0.000550698 0.000494092 0.000455496 0.000451542 0.000422377 0.000385202 0.000329619 0.000328769
threshold=3.2748389421370354 3.4095478605338987 3.1565277660973821 3.2084013244440563 3.341610425092798 3.4857293094888386 3.1193582494739922 0.00072376035305454789 58.356789646637985 0.0019472894254746736 -0.0030842717741730303 3.4529907863464726 0.52757386087990421 3.2973286715311931 -0.00037292156027708727 -0.00017240309672139628 59.608838386735464 3.2591650000000008 -0.25562543329257775 0.018847949699496439 3.2909785714285715 3.5039502332266736 -0.24730204374901363 3.2125840417791474 0.017206245721338869 3.0964300000000002 3.3175714285714291 -0.071549767504468065 3.0953642857142865 0.04246167704059501
decision_type=2 2 2 2 2 2 2 2 2 2 2 2 2 2 2 2 2 2 2 2 2 2 2 2 2 2 2 2 2 2
left_child=2 4 6 12 7 11 15 13 21 17 -6 19 23 18 -13 25 24 -5 -2 -3 -20 -7 -19 -4 -9 -1 -18 -27 -17 -22
right_child=1 5 3 9 10 8 -8 16 -10 -11 -12 14 -14 -15 -16 28 26 22 20 -21 29 -23 -24 -25 -26 27 -28 -29 -30 -31
leaf_value=-0.0026157362305599709 -0.00026995665535824154 0.0017020463189553648 -0.0015342023761736022 -0.0007885885993683978 0.00076365947388694626 0.0025658916016774521 -0.0017854366580852205 0.00044456723009602685 0.0032714341616918961 -3.0553242821177401e-05 0.0014565054345159578 0.0020616806584876032 -0.00090413275465834892 0.00049297388104605486 0.0025090749487280848 -0.0023855067925845704 0.00050303289986914029 -0.00062720315458829562 -1.1780795491106871e-05 0.0021056214813143016 0.0001300562488061339 0.0028621418933783261 -0.00028848673693054091 -0.0012404847845789932 0.00016903878684388474 -0.0025556315453006671 0.0008086637093443782 -0.0023030669997549723 -0.0022044643903007875 0.00040664142531265197
leaf_weight=46 21 21 45 35 24 35 36 60 31 27 26 25 20 22 50 41 20 21 52 36 22 42 28 21 20 26 26 36 65 21
leaf_count=46 21 21 45 35 24 35 36 60 31 27 26 25 20 22 50 41 20 21 52 36 22 42 28 21 20 26 26 36 65 21
internal_value=0 0.0013236 -0.00165078 -0.000826631 0.000424529 0.00249988 -0.00230021 0.000292065 0.00288362 -0.000447517 0.00112394 0.00218592 -0.00131595 0.000115684 0.00235994 -0.00238681 0.000485244 -0.000581542 4.41295e-05 0.00195694 0.000113559 0.00272748 -0.000433651 -0.00144075 0.000375685 -0.00249704 0.000675781 -0.00240898 -0.00227449 0.000265133
internal_weight=0 554 447 197 314 240 250 264 108 111 50 132 86 138 75 214 126 84 116 57 95 77 49 66 80 108 46 62 106 43
internal_count=1001 554 447 197 314 240 250 264 108 111 50 132 86 138 75 214 126 84 116 57 95 77 49 66 80 108 46 62 106 43
is_linear=0
shrinkage=0.05


Tree=28
num_leaves=31
num_cat=0
split_feature=12 9 12 12 12 9 5 10 5 1 12 5 5 9 8 21 21 1 1 9 20 1 12 9 10 19 9 9 2 12
split_gain=0.790488 0.245929 0.0541337 0.0174352 0.00790231 0.00771588 0.00507043 0.00341881 0.00256996 0.00198435 0.0015186 0.0014788 0.00105857 0.00109726 0.00101967 0.000943134 0.000940563 0.000857385 0.000833106 0.000685155 0.000707118 0.000578048 0.000523012 0.000498058 0.000355882 0.000346202 0.000425213 0.000342215 0.00033784 0.000323446
threshold=3.2485421304795223 3.3646857142857147 3.1465651718790864 3.4766061313813093 3.2084013244440563 3.3066642857142865 40.037821690900891 3.5207964285714293 59.071172146440709 -0.37609052927828895 3.0956614524842618 62.148573299116102 56.21915553378431 3.2902071428571436 -0.0012820814550774525 4.5000000000000009 9.5000000000000018 -0.57613435388796364 0.1734308953742936 3.3262571428571435 13.500000000000002 0.27591434311894375 3.3329554810899555 3.4343428571428576 3.1761750000000006 2.5000000000000004 3.2786285714285719 3.1155571428571434 0.15201682585895829 3.0818674495874587
decision_type=2 2 2 2 2 2 2 2 2 2 2 2 2 2 2 2 2 2 2 2 2 2 2 2 2 2 2 2 2 2
left_child=2 5 10 6 11 9 -3 15 17 -2 29 24 13 25 -6 -5 21 -7 27 20 -19 23 -10 -8 -4 26 -11 -12 -17 -1
right_child=1 3 4 7 14 8 16 -9 22 12 18 -13 -14 -15 -16 28 -18 19 -20 -21 -22 -23 -24 -25 -26 -27 -28 -29 -30 -31
leaf_value=-0.0024930423344759383 -0.00035063253058509759 0.0010756974853575231 -0.0015168267096457788 0.0026925625723032728 -0.0008558905551857923 6.6298828183096789e-05 0.0016151568382629196 0.0030878237118163419 0.00063840721259425515 -0.00027490639726498295 -0.0022586714067872157 -0.00098494650984111312 0.0004183763067149336 0.00025825308450868381 -0.0004319440265897209 0.0023323624848541973 0.0022484416940382551 0.00051366542749981881 -0.0018948905928427295 0.00064996594046533578 0.00018788790851734423 0.0020791466855867346 0.00095768212340772161 0.0019375580261744884 -0.0013053157089932545 7.6275878156342644e-05 -1.7366003734862496e-06 -0.0020265131257474422 0.0025534194484353066 -0.0023102605205384038
leaf_weight=34 31 20 43 42 23 21 25 31 29 28 57 26 21 38 37 56 21 31 33 24 36 22 23 23 37 29 29 22 25 84
leaf_count=34 31 20 43 42 23 21 25 31 29 28 57 26 21 38 37 56 21 31 33 24 36 22 23 23 37 29 29 22 25 84
internal_value=0 0.00113238 -0.00174111 0.00227424 -0.00105299 0.000242393 0.00179653 0.00261856 0.000489144 1.24669e-05 -0.00223776 -0.00131254 9.0095e-05 3.4499e-05 -0.000594457 0.00250029 0.00195496 0.000354277 -0.00210588 0.000420734 0.000338621 0.00186691 0.000779625 0.00176964 -0.001419 -6.43691e-05 -0.000135925 -0.00219402 0.00240059 -0.00236293
internal_weight=0 605 396 265 166 340 111 154 164 176 230 106 145 124 60 123 91 112 112 91 67 70 52 48 80 86 57 79 81 118
internal_count=1001 605 396 265 166 340 111 154 164 176 230 106 145 124 60 123 91 112 112 91 67 70 52 48 80 86 57 79 81 118
is_linear=0
shrinkage=0.05


Tree=29
num_leaves=31
num_cat=0
split_feature=12 9 12 12 9 12 5 10 14 5 6 5 2 12 14 21 21 10 17 13 21 5 1 9 12 21 7 14 17 2
split_gain=0.713686 0.228247 0.0433738 0.0157353 0.00773372 0.00549433 0.00457606 0.00308547 0.0026783 0.0025418 0.00139864 0.00124616 0.0011631 0.00127143 0.000896082 0.000851178 0.000848858 0.000769567 0.000767184 0.000646674 0.000600814 0.000710265 0.000521688 0.000449497 0.000382139 0.000363738 0.000489765 0.000337196 0.000333994 0.000254141
threshold=3.2405244245830254 3.3646857142857147 3.1465651718790864 3.4766061313813093 3.2909785714285715 3.1976769153151952 40.037821690900891 3.5207964285714293 -0.27185778867014404 59.608838386735464 0.0016899361991473685 62.148573299116102 -0.81063243498989956 3.3286186250041125 0.12896469845557787 4.5000000000000009 9.5000000000000018 3.315871428571429 3.2116548274502299 3.1124799104324361 5.5000000000000009 51.180188594749239 0.27591434311894375 3.4343428571428576 3.0818674495874587 9.5000000000000018 -0.0043063885712905006 0.030388192054262013 3.2792003491584718 1.0000000180025095e-35
decision_type=2 2 2 2 2 2 2 2 2 2 2 2 2 2 2 2 2 2 2 2 2 2 2 2 2 2 2 2 2 2
left_child=2 4 10 6 8 11 -3 15 -2 12 24 -4 -6 20 -7 -5 22 -11 -10 -12 28 -22 23 -8 -1 26 -20 -17 -14 -26
right_child=1 3 5 7 9 14 16 -9 18 17 19 -13 13 -15 -16 27 -18 -19 25 -21 21 -23 -24 -25 29 -27 -28 -29 -30 -31
leaf_value=-0.0023683902095345891 -0.0005732373392675072 0.0010219126037554816 -0.0013756198229620585 0.0025579344348183701 -6.2459024484269314e-05 -0.00081372389201230053 0.0015343990090768787 0.0029334325283285109 0.00029147685461794031 0.00045782933157170194 -0.0020446868923803172 -0.00096100149664077132 0.00024849400603367636 0.00068548110607282624 -0.00040868636860977862 0.0022002329039387406 0.0021360195951447601 0.00083960327602019831 0.00018332526212907398 -0.0017261272509737564 6.4917505638327895e-05 0.00039317627065779215 0.0019751893525773831 0.001840680120917766 -0.0022404117247788236 -0.0002042029337189888 -0.00011632507276469066 0.0024101210097151418 0.00050210693199701114 -0.0020853429515328673
leaf_weight=34 24 20 74 42 20 36 25 31 20 22 66 24 21 23 22 50 21 33 25 21 45 26 22 23 64 27 30 31 34 45
leaf_count=34 24 20 74 42 20 36 25 31 20 22 66 24 21 23 22 50 21 33 25 21 45 26 22 23 64 27 30 31 34 45
internal_value=0 0.00105353 -0.00168937 0.00216053 0.000215376 -0.0010458 0.00170671 0.00248763 -9.80021e-05 0.000391651 -0.00212587 -0.00127408 0.000295567 0.000343624 -0.000660089 0.00237527 0.00185721 0.000686894 1.3818e-05 -0.00196779 0.000281221 0.000185125 0.00177357 0.00168116 -0.00222204 -5.39037e-05 1.98796e-05 0.00228056 0.000405273 -0.00217639
internal_weight=0 615 386 265 350 156 111 154 126 224 230 98 169 149 58 123 91 55 102 87 126 71 70 48 143 82 55 81 55 109
internal_count=1001 615 386 265 350 156 111 154 126 224 230 98 169 149 58 123 91 55 102 87 126 71 70 48 143 82 55 81 55 109
is_linear=0
shrinkage=0.05


Tree=30
num_leaves=31
num_cat=0
split_feature=12 12 12 9 21 9 12 12 14 14 8 1 12 9 12 2 3 8 4 2 15 4 11 1 6 14 14 14 11 3
split_gain=0.589612 0.202757 0.0397052 0.0121475 0.00849464 0.00554685 0.00445305 0.00341548 0.00339932 0.00192631 0.0018747 0.00161079 0.00133864 0.00128639 0.00116973 0.00115634 0.00112693 0.000900776 0.000822443 0.000664446 0.000654778 0.00063588 0.000705909 0.000562721 0.000471567 0.000408419 0.000391122 0.000382081 0.000379206 0.000319
threshold=3.2485421304795223 3.4095478605338987 3.1217605286929127 3.3434000000000004 4.5000000000000009 3.2141857142857146 3.2854784179138625 3.4476418092525933 0.266405596623776 1.0000000180025095e-35 0.0019472894254746736 -0.6325765648556968 3.0930848040844254 3.3076857142857148 3.1698391828925465 0.29188573669900469 -0.081882670371002927 -0.00043489986067986233 -0.72721314789378477 0.090003603305643956 0.13900199167728619 -0.84862515070100442 3.2784633333333337 -0.16703023300794204 0.014315813130568069 -0.081357349545783206 0.014179847690405202 0.19574645034737495 3.3154450000000009 -0.35287082382345897
decision_type=2 2 2 2 2 2 2 2 2 2 2 2 2 2 2 2 2 2 2 2 2 2 2 2 2 2 2 2 2 2
left_child=2 3 12 6 16 8 10 19 14 -5 21 -8 29 18 -4 17 -3 -9 -13 -6 -7 -2 -23 -16 26 -14 -15 -20 -28 -1
right_child=1 4 5 9 7 20 11 15 -10 -11 -12 13 25 24 23 -17 -18 -19 27 -21 -22 22 -24 -25 -26 -27 28 -29 -30 -31
leaf_value=-0.0022893135435879232 -0.00044179385877214373 0.0024260965001303703 -0.0015055991164067896 0.00063275318169382037 0.001381497982874862 -0.00070648949505055267 -0.00013691100146388636 0.0018174760417561189 -0.00062714952054312046 0.0012121628118620721 0.0002109502313418709 0.00046277385025115858 -0.0020142116150710476 0.00028272375599217844 -0.0013375869063152509 0.0023922764496611699 0.0028366292161600935 0.0021514627545212326 3.2019861968043037e-05 0.0017717143249077101 -0.00035438703109874674 -0.00033701650443783204 5.5091940923072494e-05 -0.0010022423751973387 0.00065850816345551901 -0.0018189521480194281 0.00035071331691194878 0.00027635606529656797 0.00061824615630838619 -0.0020874439151241232
leaf_weight=28 26 32 41 26 20 31 20 33 23 32 33 22 43 42 22 28 35 52 48 24 23 22 24 29 21 71 26 24 27 65
leaf_count=28 26 32 41 26 20 31 20 33 23 32 33 22 43 42 22 28 35 52 48 24 23 22 24 29 21 71 26 24 27 65
internal_value=0 0.000968646 -0.00154319 0.000284351 0.00216922 -0.000974544 0.000168684 0.00196807 -0.00117083 0.000952427 -0.000101118 0.000291855 -0.00200745 0.000332689 -0.00130676 0.0021136 0.00264055 0.0020218 0.000195218 0.00159434 -0.00055652 -0.00024415 -0.000132438 -0.0011469 0.000444088 -0.0018926 0.00039669 0.000113465 0.000487004 -0.00214822
internal_weight=0 617 376 393 224 169 335 157 115 58 105 230 207 210 92 113 67 85 94 44 54 72 46 51 116 114 95 72 53 93
internal_count=993 617 376 393 224 169 335 157 115 58 105 230 207 210 92 113 67 85 94 44 54 72 46 51 116 114 95 72 53 93
is_linear=0
shrinkage=0.05


Tree=31
num_leaves=31
num_cat=0
split_feature=12 12 12 9 10 9 12 14 12 5 14 8 1 12 9 1 8 15 9 4 10 17 2 19 6 2 14 14 6 14
split_gain=0.532125 0.182989 0.0358339 0.0109632 0.00771414 0.00502524 0.00401888 0.00278365 0.00239456 0.00191345 0.0017385 0.00169191 0.00145374 0.00121799 0.00116097 0.00109403 0.00106365 0.000812251 0.000789629 0.000742255 0.000619076 0.000606556 0.000599662 0.000437776 0.000425589 0.000385013 0.000352988 0.000344828 0.000344556 0.000297848
threshold=3.2485421304795223 3.4095478605338987 3.1217605286929127 3.3434000000000004 3.4892214285714291 3.2109214285714289 3.2854784179138625 0.266405596623776 3.4476418092525933 58.292085379035129 1.0000000180025095e-35 0.0019472894254746736 -0.6325765648556968 3.0956614524842618 3.3076857142857148 -0.23763257281944614 -0.00043489986067986233 0.13900199167728619 3.1777071428571433 -0.72721314789378477 3.5125607142857151 3.2640798452937108 0.090003603305643956 1.5000000000000002 0.014315813130568069 0.10405180060809595 0.014179847690405202 0.19574645034737495 0.002838490118794335 -0.081357349545783206
decision_type=2 2 2 2 2 2 2 2 2 2 2 2 2 2 2 2 2 2 2 2 2 2 2 2 2 2 2 2 2 2
left_child=2 3 13 6 8 7 11 15 22 20 -5 21 -8 25 19 -4 -10 -7 -17 -14 -6 23 -3 -2 26 -1 -16 -21 -28 -15
right_child=1 4 5 10 9 17 12 -9 16 -11 -12 -13 14 29 24 18 -18 -19 -20 27 -22 -23 -24 -25 -26 -27 28 -29 -30 -31
leaf_value=-0.0020928692623553144 -0.00050940621062181893 0.0013124230862013066 -0.001520273805810855 0.00060111553662304347 0.002095609593896135 -0.00070583905597178438 -0.00013006545181269759 -0.00061928831783006908 0.0016825148787271854 0.0027400301707287632 0.0011515546815644485 0.00020040272084412264 0.00043963515963696409 -0.0018903914326801896 0.00026858756396645083 -0.001283163602489072 0.0020728302159113811 -0.00032592626060553209 -0.00092360941836467161 3.0418870043528541e-05 0.0024116016503783963 -1.3159760221076961e-05 0.0016831286329155168 -0.00020740725662714494 0.0006255827572507163 -0.0018882560050662829 0.00062002539024910057 0.00026253826008542091 0.000359378105167707 -0.0017153901363452597
leaf_weight=71 20 20 26 26 31 34 20 22 24 30 32 33 22 40 42 37 64 24 26 48 31 22 24 30 21 34 21 24 32 62
leaf_count=71 20 20 26 26 31 34 20 22 24 30 32 33 22 40 42 37 64 24 26 48 31 22 24 30 21 34 21 24 32 62
internal_value=0 0.000920214 -0.00146603 0.000270133 0.00206076 -0.000925817 0.00016025 -0.0011229 0.0018158 0.00241222 0.000904806 -9.60625e-05 0.000277262 -0.00190707 0.000316055 -0.00124739 0.00196638 -0.000548634 -0.00113478 0.000185457 0.00225361 -0.000231942 0.00151463 -0.000328207 0.000421884 -0.00202661 0.000376856 0.000107792 0.000462653 -0.00178402
internal_weight=0 617 376 393 224 169 335 111 132 92 58 105 230 207 210 89 88 58 63 94 62 72 44 50 116 105 95 72 53 102
internal_count=993 617 376 393 224 169 335 111 132 92 58 105 230 207 210 89 88 58 63 94 62 72 44 50 116 105 95 72 53 102
is_linear=0
shrinkage=0.05


Tree=32
num_leaves=31
num_cat=0
split_feature=12 9 12 12 12 9 21 14 6 15 12 12 4 10 3 3 14 11 14 15 4 14 0 8 12 15 13 12 14 3
split_gain=0.480243 0.165375 0.0323401 0.013058 0.00498339 0.00453632 0.00365807 0.0027789 0.00267719 0.00161122 0.00109924 0.00109227 0.00107396 0.00102805 0.000948188 0.000934243 0.000904829 0.000642085 0.0005547 0.000525726 0.000471997 0.000441654 0.000410192 0.000399564 0.000322785 0.000317072 0.000305082 0.000283057 0.000268807 0.000203584
threshold=3.2485421304795223 3.3646857142857147 3.1217605286929127 3.4508224042851356 3.3080605155529348 3.2141857142857146 4.5000000000000009 0.266405596623776 -0.0089101198473766612 -0.71494632988823936 3.0956614524842618 3.2829966556933559 0.89120229956641828 3.1597035714285719 0.87498420295079049 -0.081882670371002927 0.20549596651888299 3.4650983333333341 0.054980780927411585 0.13900199167728619 -0.72721314789378477 0.19574645034737495 0.12843728035727422 0.0019957546867305502 3.4346953529614015 -0.058134650252765582 3.2673568918147011 3.3231856278362275 -0.081357349545783206 -0.48407805814149601
decision_type=2 2 2 2 2 2 2 2 2 2 2 2 2 2 2 2 2 2 2 2 2 2 2 2 2 2 2 2 2 2
left_child=2 4 10 8 9 7 15 13 -3 -2 22 14 18 -4 26 -5 17 -8 27 -7 -13 -22 29 -14 -10 -15 -11 -6 -12 -1
right_child=1 3 5 6 12 19 16 -9 24 11 28 20 23 25 -16 -17 -18 -19 -20 -21 21 -23 -24 -25 -26 -27 -28 -29 -30 -31
leaf_value=-0.0021198377572000031 -0.00039276684896321967 0.00081527289992664007 -0.0014392639010178824 0.0021891489916015419 0.00013164771029123052 -0.00063587307109452427 0.0015969237733987115 -0.00056546536051546744 0.0013933008623176388 -0.00031639916705898945 -0.0017958718654699623 0.00038524201447464956 0.00074330477602779863 -0.0011458289928527343 0.00022964195624808781 0.0025629395299724173 0.0021790134385228158 0.0019161702562419194 0.00047204262733238894 -0.0003203713641319748 5.8680424874844245e-05 0.00030198274290831674 -0.0017530184274969194 0.0004545362122134184 0.0016377106224271386 -0.0009065611346159131 -7.8786043076044211e-05 0.00033721212786269573 -0.0016296206387661158 -0.0019352452134934522
leaf_weight=20 20 20 27 32 34 31 21 23 35 22 40 22 25 45 20 35 25 63 38 23 66 26 26 23 22 20 35 33 62 59
leaf_count=20 20 20 27 32 34 31 21 23 35 22 40 22 25 45 20 35 25 63 38 23 66 26 26 23 22 20 35 33 62 59
internal_value=0 0.000874203 -0.00139273 0.00185607 0.000191752 -0.000879526 0.00209367 -0.00105704 0.001313 3.42132e-05 -0.00181172 7.89232e-05 0.00040901 -0.00117993 -6.65643e-05 0.00238441 0.00191495 0.00183636 0.000319444 -0.000501493 0.000177191 0.00012744 -0.00192528 0.000604937 0.00148763 -0.00107221 -0.000170496 0.000232896 -0.00169482 -0.00198198
internal_weight=0 617 376 253 364 169 176 115 77 211 207 191 153 92 77 67 109 84 105 54 114 92 105 48 57 65 57 67 102 79
internal_count=993 617 376 253 364 169 176 115 77 211 207 191 153 92 77 67 109 84 105 54 114 92 105 48 57 65 57 67 102 79
is_linear=0
shrinkage=0.05


Tree=33
num_leaves=31
num_cat=0
split_feature=12 9 12 12 12 9 6 10 14 15 1 5 12 12 1 8 15 9 9 9 9 4 20 1 7 8 14 14 11 11
split_gain=0.433419 0.149251 0.0291869 0.0117861 0.00449751 0.00411081 0.00324215 0.0023012 0.00225974 0.00145412 0.001251 0.00121678 0.00100057 0.000985775 0.000962259 0.00085582 0.000663636 0.000661747 0.000653709 0.000559215 0.000487954 0.000425977 0.000416694 0.000385467 0.000335142 0.000487972 0.000322151 0.000308668 0.000290606 0.000285924
threshold=3.2485421304795223 3.3646857142857147 3.1217605286929127 3.4644306044361755 3.3080605155529348 3.2109214285714289 -0.0089101198473766612 3.5229535714285718 0.266405596623776 -0.71494632988823936 0.25731531175404726 58.486297341969042 3.0930848040844254 3.2829966556933559 -0.23763257281944614 0.0019472894254746736 0.13900199167728619 3.1777071428571433 3.4343428571428576 3.5075642857142864 3.3343571428571437 -0.72721314789378477 10.500000000000002 1.0000000180025095e-35 0.0031063335855352919 0.00046701040332036426 0.18666499859001015 -0.081357349545783206 3.3137316666666674 3.2784633333333337
decision_type=2 2 2 2 2 2 2 2 2 2 2 2 2 2 2 2 2 2 2 2 2 2 2 2 2 2 2 2 2 2
left_child=2 4 12 6 9 8 -3 10 14 -2 19 24 -1 15 -4 29 -7 -16 -8 -5 -13 -15 -23 -20 25 -6 -24 -14 -26 -11
right_child=1 3 5 7 11 16 18 -9 -10 13 -12 20 27 21 17 -17 -18 -19 23 -21 -22 22 26 -25 28 -27 -28 -29 -30 -31
leaf_value=-0.0018428422019927092 -0.00037312849992304108 0.00077450924698496248 -0.0013818899921786327 0.001807200420026978 0.00051580341382110163 -0.00063650363359449649 0.0013265697156182596 0.0024799388125538828 -0.00056005065297623253 -0.00030042538203781956 0.0022721109166741371 0.00043888823919197809 -0.0017275660905207314 0.00036597991810677659 -0.0011561930462768352 0.00015121956770097566 -0.00029310076788533482 -0.00082703944913541474 0.0014559836304258733 0.0020725674582300364 0.00074280046345666058 -3.9809861898122891e-05 0.00011305732034596202 0.0017493125167675318 0.00033914916646608621 0.00020498307219342046 0.00035197370231062887 -0.0015578181102452145 9.1403186123553221e-05 -5.4431597458287374e-05
leaf_weight=93 20 20 26 75 28 34 36 25 22 27 25 28 43 22 37 29 24 26 21 27 25 28 43 24 20 23 21 71 29 21
leaf_count=93 20 20 26 75 28 34 36 25 22 27 25 28 43 22 37 29 24 26 21 27 25 28 43 24 20 23 21 71 29 21
internal_value=0 0.000830493 -0.00132309 0.00176327 0.000182164 -0.00083555 0.00134461 0.00204145 -0.00101381 3.25026e-05 0.00195513 0.00038856 -0.00172113 7.4977e-05 -0.00112597 -6.32361e-05 -0.000494406 -0.00102035 0.00148538 0.00187744 0.000582243 0.000168332 0.000121068 0.00161243 0.000285908 0.00037563 0.000191452 -0.00162185 0.000192524 -0.000192803
internal_weight=0 617 376 253 364 169 101 152 111 211 127 153 207 191 89 77 58 63 81 102 53 114 92 45 100 51 64 114 49 48
internal_count=993 617 376 253 364 169 101 152 111 211 127 153 207 191 89 77 58 63 81 102 53 114 92 45 100 51 64 114 49 48
is_linear=0
shrinkage=0.05


Tree=34
num_leaves=31
num_cat=0
split_feature=12 9 12 12 12 9 18 21 14 2 18 14 12 12 1 3 2 3 8 15 9 16 11 6 2 3 14 13 21 14
