tree
version=v4
num_class=1
num_tree_per_iteration=1
label_index=0
max_feature_idx=21
objective=regression
feature_names=return_1d return_3d return_5d return_10d return_20d rsi_14 macd macd_signal macd_diff sma_7 sma_14 sma_30 ema_7 ema_14 rate_vs_sma7 rate_vs_sma14 bb_upper bb_lower bb_width day_of_week day_of_month month
feature_infos=[-1.9663812242308953:1.4928909952606872] [-3.6891936010447268:2.623697136695835] [-4.6130631601638328:3.8680732387534889] [-5.4588185022967695:4.1590881532678647] [-7.8172803038295102:5.7596701830968877] [7.6120796960484256:90.871167912703697] [-0.074349453792869724:0.047429126725825554] [-0.068568596539810053:0.045407832501364764] [-0.027688616798655738:0.023331080832494182] [3.8949285714285713:4.7860714285714296] [3.9009285714285715:4.7776428571428573] [3.9210166666666666:4.7589433333333329] [3.8942425383997215:4.7846199436963088] [3.905345326029229:4.772959644546491] [-3.2182471488829987:2.2858312578895386] [-4.2674022391692432:2.5886912369404143] [3.9494496939098491:4.8310358412630912] [3.859841266330494:4.7429524029280445] [0.0031394511945168077:0.08778020253696496] [0:4] [1:31] [1:12]
tree_sizes=2623 2823 2816 2821 2824 2835 2843 2831 2849 2845 2867 2847 2850 2872 2867 2871 2876 2874 2859 2867 2881 2873 2874 2878 2874 2876 2881 2897 2895 2889 2895 2907 2897 2900 2902 2900 2909 2891 2917 2910 2921 2937 2916 2934 2924 2922 2925 2937 2934 2932 2942

Tree=0
num_leaves=31
num_cat=0
split_feature=12 12 9 12 12 12 12 9 3 12 12 5 12 5 12 5 8 9 12 5 12 12 2 15 12 12 15 2 16 1
split_gain=35.4933 7.93796 2.5284 0.855986 0.514805 0.324244 0.288109 0.185674 0.119097 0.109071 0.102967 0.0994402 0.0696784 0.0576744 0.0324751 0.029996 0.0278204 0.0237136 0.0212386 0.0194189 0.0188449 0.011997 0.0110247 0.0101956 0.00977152 0.00937759 0.00879008 0.00832815 0.00617041 0.00465413
threshold=4.3749615821591084 4.5648207456731154 4.1067500000000008 4.2551792147234559 4.6736630972842832 4.4801508098485705 4.2013675220516493 3.9724285714285719 -0.63290616735702787 4.7290188250832053 4.419373920211549 61.275873857764616 4.156812348154868 51.215418057654936 4.6283971519420488 52.093860060949545 -0.002478144320511261 4.5100000000000007 4.2946215748527692 41.628792986647639 4.2302521556910353 4.4594282887999057 -0.20177378365753282 -0.57704207315619316 4.6971374008056488 4.1396205142216012 0.15112562863213355 -0.43760254085675737 4.7312029489933627 0.43712652466776364
decision_type=2 2 2 2 2 2 2 2 2 2 2 2 2 2 2 2 2 2 2 2 2 2 2 2 2 2 2 2 2 2
left_child=2 5 7 6 8 10 12 -1 -3 15 22 18 25 23 -10 24 -11 -7 -5 -14 27 29 -2 -12 -6 -4 -22 -8 -17 -15
right_child=1 4 3 11 9 17 20 -9 14 16 13 -13 19 21 -16 28 -18 -19 -20 -21 26 -23 -24 -25 -26 -27 -28 -29 -30 -31
leaf_value=4.375029266601512 4.3982902261056944 4.407245226817504 4.3854720004456578 4.3926433041450466 4.4127236372178693 4.4041213578076768 4.3891721843983316 4.3811965330097484 4.410290559651318 4.4155009058876917 4.3996226362770097 4.3976076182057504 4.3870789773766541 4.4016371178391127 4.4123961853247069 4.4145916292288527 4.417724588374619 4.4062148117242881 4.3947291399350785 4.3886193070032826 4.390662258438133 4.4033522730969672 4.3996121835247433 4.4008933855967243 4.4140298624881007 4.3867018434622516 4.391998479089998 4.3902473966007083 4.4156552280206114 4.4025202266753842
leaf_weight=26 24 20 31 26 22 31 23 23 30 22 27 23 28 37 47 25 39 24 23 76 32 22 46 38 41 31 20 83 30 25
leaf_count=26 24 20 31 26 22 31 23 23 30 22 27 23 28 37 47 25 39 24 23 76 32 22 46 38 41 31 20 83 30 25
internal_value=4.39911 4.40763 4.38864 4.38996 4.41362 4.4016 4.38887 4.37792 4.41068 4.41521 4.40074 4.3949 4.38741 4.40148 4.41158 4.41432 4.41692 4.40503 4.39362 4.3882 4.3904 4.40235 4.39916 4.40037 4.41357 4.38609 4.39118 4.39001 4.41517 4.40199
internal_weight=0 550 445 396 276 274 324 49 97 179 219 72 166 149 77 118 61 55 49 104 158 84 70 65 63 62 52 106 55 62
internal_count=995 550 445 396 276 274 324 49 97 179 219 72 166 149 77 118 61 55 49 104 158 84 70 65 63 62 52 106 55 62
is_linear=0
shrinkage=1


Tree=1
num_leaves=31
num_cat=0
split_feature=12 12 9 12 12 12 12 9 3 12 12 4 12 15 9 14 8 15 7 12 14 6 2 12 14 12 2 8 12 14
split_gain=32.0338 7.24827 2.25641 0.711536 0.464612 0.298259 0.260018 0.167571 0.107485 0.0990948 0.0984368 0.0790161 0.0629215 0.0444118 0.02931 0.0254852 0.0251079 0.023651 0.0189435 0.0175182 0.0164535 0.0161676 0.0111844 0.0103773 0.0100471 0.0097683 0.00895058 0.00646975 0.00613698 0.0056201
threshold=4.3684881128329272 4.5648207456731154 4.1067500000000008 4.2551792147234559 4.6736630972842832 4.4801508098485705 4.2013675220516493 3.9724285714285719 -0.63290616735702787 4.419373920211549 4.7290188250832053 -2.4556792614126297 4.1590049675478733 -0.3513438726638598 4.6194428571428583 0.14977269003012642 -0.002478144320511261 -0.1424223452778432 -0.00083273942716560658 4.2204300967297694 -0.19066983608886864 0.0064206596297418103 -0.20177378365753282 4.7037330892581135 0.16984980940128416 4.1396205142216012 0.6331244032256601 -0.00060711838604128327 4.6444527373502718 0.25366297268100968
decision_type=2 2 2 2 2 2 2 2 2 2 2 2 2 2 2 2 2 2 2 2 2 2 2 2 2 2 2 2 2 2
left_child=2 5 7 6 8 9 12 -1 -3 22 17 -5 25 -11 -10 -7 -12 -6 -15 27 -14 -13 -2 -19 -21 -4 -20 -8 -16 -22
right_child=1 4 3 11 10 15 19 -9 14 13 16 21 20 18 28 -17 -18 23 26 24 29 -23 -24 -25 -26 -27 -28 -29 -30 -31
leaf_value=-0.02287742426762214 -0.00085179086681455368 0.0077277373522520072 -0.012956827398269408 -0.0061255195081747812 0.013420333281943673 0.0045318446432550752 -0.0097163634374737747 -0.017018521285575371 0.010392138610283534 0.00063595317152441682 0.015570632571523841 -0.0037028822343563661 -0.011432272136211397 0.0019122283533215525 0.011834077111312322 0.0066847984812089386 0.017683131534319659 0.014219330443489936 0.0028719458747289931 -0.0081585584953427319 -0.010221037406612326 -0.0016924340697005392 0.0004524202385406777 0.015388235662664687 -0.0069727899587672688 -0.011738016073192871 0.00411997520364821 -0.0085890467890671323 0.012934097647666933 -0.0092570616375832332
leaf_weight=26 25 20 31 29 38 27 20 23 24 33 22 20 25 45 21 28 39 31 51 80 54 20 48 49 23 35 20 35 32 21
leaf_count=26 25 20 31 29 38 27 20 23 24 33 22 20 25 45 21 28 39 31 51 80 54 20 48 49 23 35 20 35 32 21
internal_value=0 0.00804562 -0.01001 -0.00874856 0.0137803 0.00233163 -0.00973036 -0.0201273 0.0109935 0.00151499 0.0152905 -0.00413835 -0.0111122 0.0022544 0.0118418 0.00562789 0.0169212 0.0144474 0.00271482 -0.0082785 -0.0103214 -0.00269766 5.7726e-06 0.0149353 -0.00789378 -0.0123105 0.0032235 -0.00899898 0.0124982 -0.00995112
internal_weight=0 553 442 393 276 277 324 49 97 222 179 69 166 149 77 55 61 118 116 158 100 40 73 80 103 66 71 55 53 75
internal_count=995 553 442 393 276 277 324 49 97 222 179 69 166 149 77 55 61 118 116 158 100 40 73 80 103 66 71 55 53 75
is_linear=0
shrinkage=0.05


Tree=2
num_leaves=31
num_cat=0
split_feature=12 12 9 12 12 12 12 9 15 12 12 4 12 5 12 5 14 8 12 5 14 12 2 5 12 2 14 12 16 14
split_gain=28.9114 6.4649 2.05926 0.700851 0.419312 0.264011 0.259398 0.151232 0.0977663 0.0888392 0.0837058 0.0632997 0.0568731 0.0475893 0.0265735 0.025239 0.0230004 0.0226599 0.0222933 0.0161104 0.0143902 0.0103691 0.00894331 0.0085806 0.00854881 0.00797708 0.00705957 0.00547621 0.00520556 0.00418991
threshold=4.3749615821591084 4.5648207456731154 4.1067500000000008 4.2714033064903152 4.6736630972842832 4.4801508098485705 4.2013675220516493 3.9724285714285719 -0.4211374103673487 4.7290188250832053 4.419373920211549 -2.4556792614126297 4.156812348154868 51.215418057654936 4.617568190078984 52.093860060949545 0.14977269003012642 -0.002478144320511261 4.2302521556910353 41.628792986647639 0.079608394981979233 4.4594282887999057 -0.20177378365753282 45.437907109867844 4.6971374008056488 -0.038188677353578886 -0.13525859839399842 4.6444527373502718 4.7312029489933627 0.25366297268100968
decision_type=2 2 2 2 2 2 2 2 2 2 2 2 2 2 2 2 2 2 2 2 2 2 2 2 2 2 2 2 2 2
left_child=2 5 7 6 8 10 12 -1 -3 15 22 -5 25 23 -10 24 -7 -11 26 -14 -20 -15 -2 -12 -6 -4 -8 -16 -17 -21
right_child=1 4 3 11 9 16 18 -9 14 17 13 -13 19 21 27 28 -18 -19 20 29 -22 -23 -24 -25 -26 -27 -28 -29 -30 -31
leaf_value=-0.021733553019853739 -0.00073692344255202151 0.0073292083968408408 -0.012286945680777234 -0.0053961164439501972 0.012246683375401931 0.004305252372459681 -0.0088370876852422956 -0.016167594945949059 0.009872531394163768 0.014792100577191873 0.00062611744459089202 -0.0020727355674879573 -0.010867321118712426 0.0025968106568700845 0.011274599250067366 0.013974813342094423 0.0063505585571484906 0.016798974115114947 -0.0076418908705052583 -0.0096861965022981174 -0.0060973058938980111 0.0038603064477105036 0.00045372555514800101 0.0017862448568588922 0.013468454214857845 -0.011150282621383668 -0.007948252397614557 0.012306067443663075 0.014951722721258802 -0.0088431139290332788
leaf_weight=26 24 20 33 23 22 27 32 23 24 22 37 38 28 62 22 25 28 39 38 56 25 22 46 28 41 29 74 31 30 20
leaf_count=26 24 20 33 23 22 27 32 23 24 22 37 38 28 62 22 25 28 39 38 56 25 22 46 28 41 29 74 31 30 20
internal_value=0 0.00769009 -0.00945165 -0.0082552 0.0130913 0.00224946 -0.00915279 -0.019121 0.0104439 0.0145259 0.00147167 -0.00332581 -0.0105566 0.00214168 0.0112529 0.013725 0.0053465 0.0160752 -0.00777386 -0.00984206 -0.00702896 0.00292773 4.5503e-05 0.00112586 0.0130418 -0.0117553 -0.00821658 0.0118779 0.0145077 -0.00946433
internal_weight=0 550 445 396 276 274 335 49 97 179 219 61 166 149 77 118 55 61 169 104 63 84 70 65 63 62 106 53 55 76
internal_count=995 550 445 396 276 274 335 49 97 179 219 61 166 149 77 118 55 61 169 104 63 84 70 65 63 62 106 53 55 76
is_linear=0
shrinkage=0.05


Tree=3
num_leaves=31
num_cat=0
split_feature=12 12 10 12 12 12 12 10 15 12 12 4 12 5 12 5 14 12 4 5 14 5 2 12 12 12 2 12 0 18
split_gain=26.0962 5.90237 1.83755 0.579234 0.378429 0.242735 0.234107 0.136487 0.0882341 0.0803456 0.0801774 0.0551791 0.051328 0.0431943 0.0239826 0.0227782 0.0207579 0.0201197 0.0184058 0.0145396 0.0129871 0.00982389 0.00908447 0.00789391 0.00771529 0.00737853 0.00648054 0.00494228 0.00381885 0.00350609
threshold=4.3684881128329272 4.5648207456731154 4.1166964285714291 4.2714033064903152 4.6736630972842832 4.4801508098485705 4.2013675220516493 4.0136107142857158 -0.4211374103673487 4.419373920211549 4.7290188250832053 -2.4556792614126297 4.156812348154868 53.530870459255453 4.617568190078984 52.093860060949545 0.14977269003012642 4.2302521556910353 0.72610419984419095 41.628792986647639 0.079608394981979233 45.835999525082038 -0.20177378365753282 4.4594282887999057 4.6971374008056488 4.1396205142216012 -0.43760254085675737 4.6444527373502718 0.15237255892053272 0.015167024642174834
decision_type=2 2 2 2 2 2 2 2 2 2 2 2 2 2 2 2 2 2 2 2 2 2 2 2 2 2 2 2 2 2
left_child=2 5 7 6 8 9 12 -1 -3 22 15 -5 25 21 -10 24 -7 26 -12 -14 -19 -11 -2 -15 -6 -4 -8 -16 -21 -17
right_child=1 4 3 11 10 16 17 -9 14 13 18 -13 19 23 27 29 -18 20 -20 28 -22 -23 -24 -25 -26 -27 -28 -29 -30 -31
leaf_value=-0.020646875408979564 -0.00076303675607778136 0.0069627478695474566 -0.011712972002644692 -0.005255958099256863 0.011634349315003916 0.0040899896701038991 -0.0085484244577262707 -0.015359215891879538 0.0093789050976435355 0.00060930062379491959 0.01402788430452347 -0.0020775559283922325 -0.010323954825954778 0.0025436837778047283 0.010710869153792208 0.013344978272914887 0.0060330306445913655 -0.0072597960892476542 0.015878029894538043 -0.0092029279097914692 -0.0057924405485391614 0.0017703411754752909 0.00041237640895512117 0.0036672911056402054 0.012795031325119298 -0.010622061981308845 -0.0075999500566577343 0.011690764225298359 -0.0083980424702167523 0.014146715998649598
leaf_weight=26 25 20 31 22 22 27 23 23 24 38 20 36 28 54 22 25 28 38 41 56 25 35 48 22 41 31 83 31 20 30
leaf_count=26 25 20 31 22 22 27 23 23 24 38 20 36 28 54 22 25 28 38 41 56 25 35 48 22 41 31 83 31 20 30
internal_value=0 0.00726178 -0.00903479 -0.00789643 0.0124367 0.00210551 -0.00869515 -0.0181649 0.00992166 0.0013688 0.0137996 -0.00328316 -0.0100288 0.0020346 0.0106902 0.0130388 0.00507917 -0.00738516 0.0152714 -0.00934996 -0.00667751 0.00116596 9.83765e-06 0.00286894 0.0123897 -0.0111675 -0.00780575 0.011284 -0.00899112 0.0137823
internal_weight=0 553 442 393 276 277 335 49 97 222 179 58 166 149 77 118 55 169 61 104 63 73 73 76 63 62 106 53 76 55
internal_count=995 553 442 393 276 277 335 49 97 222 179 58 166 149 77 118 55 169 61 104 63 73 73 76 63 62 106 53 76 55
is_linear=0
shrinkage=0.05


Tree=4
num_leaves=31
num_cat=0
split_feature=12 12 9 12 12 12 12 9 8 12 4 12 12 12 12 12 15 15 4 15 12 15 4 2 3 15 2 1 9 13
split_gain=23.5518 5.32888 1.65839 0.522803 0.434515 0.194202 0.138562 0.12318 0.121456 0.0725858 0.0582566 0.03337 0.0332746 0.0312449 0.0311505 0.0271806 0.023857 0.0200286 0.0127996 0.0118758 0.0112463 0.00982286 0.00970597 0.00912435 0.00827271 0.00757566 0.00698883 0.00594472 0.0049143 0.0048653
threshold=4.3684881128329272 4.5436765086379447 4.1067500000000008 4.2551792147234559 4.6736630972842832 4.1890216202615429 4.4482310585488127 3.9724285714285719 -0.0051323819103276935 4.7394044075005235 -2.4556792614126297 4.419373920211549 4.4801508098485705 4.617568190078984 4.156812348154868 4.2204300967297694 0.13043952857741828 0.01499450358815454 0.86025205263757798 -0.37252063151884934 4.3330536301200988 -0.19950972636213479 0.60613061398204782 -0.57406586431307238 -0.4312185436401938 0.21318579829498016 -0.038188677353578886 -0.28276125868996188 4.7078928571428582 4.7094280574654332
decision_type=2 2 2 2 2 2 2 2 2 2 2 2 2 2 2 2 2 2 2 2 2 2 2 2 2 2 2 2 2 2
left_child=2 6 7 5 8 14 11 -1 -3 16 -5 24 17 -10 26 22 23 -8 -11 -13 -12 -16 27 -6 -2 -17 -4 -7 -18 -25
right_child=1 4 3 10 9 15 12 -9 13 18 20 19 -14 -15 21 25 28 -19 -20 -21 -22 -23 -24 29 -26 -27 -28 -29 -30 -31
leaf_value=-0.019614531902166513 -0.00072819017712026841 0.0057937921479937031 -0.011106784754630292 -0.0052561235325089819 0.011043024604970759 -0.0089523548881212875 0.0010929388762451707 -0.014591254747432211 0.0086698359058749296 0.01374713122844696 -0.0031511849013622847 0.00043925819928745117 0.0042103715468242413 0.010642181062384655 -0.0099212645863493293 -0.0070243230895013428 0.012692671404643495 0.0029651061128824954 0.015380098521709443 0.0018491137727909583 -0.0014744121907278897 -0.0086906724274158475 -0.00700062770396471 0.01169296672398394 0.00039347905658360105 -0.00607090382997332 -0.010042856762121464 -0.007929870994253593 0.013657419428680885 0.012671903048952422
leaf_weight=26 25 22 33 29 22 21 20 23 31 20 20 20 42 57 24 74 22 50 30 59 20 50 20 22 48 29 29 44 33 30
leaf_count=26 25 22 33 29 22 21 20 23 31 20 20 20 42 57 24 74 22 50 30 59 20 50 20 22 48 29 29 44 33 30
internal_value=0 0.00689869 -0.00858305 -0.00750161 0.0115898 -0.00834319 0.00176331 -0.0172567 0.00911666 0.0131097 -0.00354985 0.000780034 0.00309777 0.00994738 -0.00978243 -0.00730203 0.0124828 0.0024302 0.0147269 0.00149219 -0.0023128 -0.00908978 -0.00796384 0.0118966 9.34576e-06 -0.00675588 -0.0106091 -0.00826021 0.0132715 0.0122577
internal_weight=0 553 442 393 289 324 264 49 110 179 69 152 112 88 136 188 129 70 50 79 40 74 85 74 73 103 62 65 55 52
internal_count=995 553 442 393 289 324 264 49 110 179 69 152 112 88 136 188 129 70 50 79 40 74 85 74 73 103 62 65 55 52
is_linear=0
shrinkage=0.05


Tree=5
num_leaves=31
num_cat=0
split_feature=12 9 9 12 12 12 12 9 14 4 12 5 5 16 8 12 12 12 12 12 5 5 8 14 14 12 1 8 12 12
split_gain=21.4253 4.30281 1.72642 0.691951 0.297397 0.205683 0.204802 0.0999945 0.093582 0.0584184 0.0467592 0.0459453 0.0448921 0.0327626 0.0308381 0.0297571 0.026806 0.0183998 0.0177646 0.0157178 0.0113177 0.00972791 0.00831324 0.00807876 0.00694982 0.0068439 0.00658928 0.00622971 0.00476152 0.00461335
threshold=4.3866281959001805 4.5737357142857151 4.1067500000000008 4.2714033064903152 4.6971374008056488 4.4801508098485705 4.1880091304454092 3.9724285714285719 -0.54549705655233849 -0.083046643449985455 4.5261589176306751 45.835999525082038 53.530870459255453 4.4243891223768079 0.0025883347020878374 4.1462291978420671 4.6444527373502718 4.2204300967297694 4.7471092102510184 4.3241616786607002 53.93217548478669 43.94516739426566 0.0050007023974595792 -0.42824902608462673 -0.01362630410108308 4.4594282887999057 -0.28276125868996188 -0.0059131469480357664 4.617568190078984 4.1690586487890604
decision_type=2 2 2 2 2 2 2 2 2 2 2 2 2 2 2 2 2 2 2 2 2 2 2 2 2 2 2 2 2 2
left_child=2 5 7 6 8 11 15 -1 -3 19 -7 23 27 -13 17 -4 28 26 -14 -5 -15 -17 -16 -2 -18 -22 -8 -6 -10 -23
right_child=1 4 3 9 12 10 14 -9 16 -11 -12 13 18 20 22 21 24 -19 -20 -21 25 29 -24 -25 -26 -27 -28 -29 -30 -31
leaf_value=-0.018644880089494918 -0.00041417071303537044 0.0064179221168160442 -0.010550931447909938 -0.0048391892744058911 0.011308019390950601 0.0035488832231041871 -0.008517127732435863 -0.014209247132142387 0.0086215515434741978 -0.0012112856360066585 0.0062732362454491 8.5787032730877399e-05 0.013069902233234267 0.0014918303432162195 -0.0062673716952926228 -0.0094959529018715811 0.010098852055228275 -0.0066579563083586759 0.014641865482553841 -0.0029024787433445456 0.0022749132724599014 -0.009071024791115807 -0.0050079756602644928 0.00079146791258332967 0.011184754713279446 0.0032286730551816245 -0.0074617120996117586 0.012326981890946628 0.0096661477970580272 -0.0081518204357379533
leaf_weight=27 24 20 36 22 24 36 21 24 20 38 28 20 41 34 38 38 23 77 32 20 62 21 20 33 41 27 50 40 24 39
leaf_count=27 24 20 36 22 24 36 21 24 20 38 28 20 41 34 38 38 23 77 32 20 62 21 20 33 41 27 50 40 24 39
internal_value=0 0.00679159 -0.00787048 -0.00681562 0.0112925 0.00227366 -0.00780006 -0.0165575 0.00955957 -0.00263176 0.00474079 0.00148418 0.0129115 0.00196263 -0.00681033 -0.00932158 0.0101414 -0.0071933 0.013759 -0.00391695 0.00226781 -0.00886999 -0.0058331 0.000283831 0.0107945 0.00256426 -0.00777388 0.0119449 0.00919133 -0.00847354
internal_weight=0 529 471 420 265 264 340 51 128 80 64 200 137 143 206 134 108 148 73 42 123 98 58 57 64 89 71 64 44 60
internal_count=1000 529 471 420 265 264 340 51 128 80 64 200 137 143 206 134 108 148 73 42 123 98 58 57 64 89 71 64 44 60
is_linear=0
shrinkage=0.05


Tree=6
num_leaves=31
num_cat=0
split_feature=12 9 9 12 12 12 12 6 14 6 14 5 5 12 12 12 12 2 13 15 5 5 14 14 14 12 15 1 12 12
split_gain=19.3363 3.88329 1.55809 0.624538 0.268401 0.185629 0.168903 0.0930822 0.0844578 0.0661942 0.0431162 0.0414656 0.0405151 0.0268558 0.0260671 0.0241924 0.0203308 0.0183322 0.016356 0.0106686 0.00966825 0.00877945 0.00729108 0.0072621 0.00627221 0.00580529 0.00494002 0.00457887 0.00429726 0.00416355
threshold=4.3866281959001805 4.5737357142857151 4.1067500000000008 4.2551792147234559 4.6971374008056488 4.4801508098485705 4.1880091304454092 -0.025006953848766052 -0.54549705655233849 -9.1914010683424849e-05 0.14977269003012642 45.835999525082038 53.530870459255453 4.1462291978420671 4.4122726327661015 4.6444527373502718 4.2204300967297694 0.22754776346878283 4.7190704463268416 0.30577510774394329 53.93217548478669 43.94516739426566 -0.42824902608462673 0.16984980940128416 -0.01362630410108308 4.4594282887999057 -0.47085190773889302 -0.28276125868996188 4.617568190078984 4.1690586487890604
decision_type=2 2 2 2 2 2 2 2 2 2 2 2 2 2 2 2 2 2 2 2 2 2 2 2 2 2 2 2 2 2
left_child=2 5 7 6 8 11 13 -1 -3 17 -7 22 26 -4 -13 28 19 -5 -14 27 -16 -15 -2 -18 -17 -22 -6 -8 -10 -23
right_child=1 4 3 9 12 10 16 -9 15 -11 -12 14 18 21 20 24 23 -19 -20 -21 25 29 -24 -25 -26 -27 -28 -29 -30 -31
leaf_value=-0.018086504547492319 -0.00039346216545178934 0.0060970261739566921 -0.010023384893106091 -0.0045095192167807271 0.010798963278532029 0.0030780246388970008 -0.0080262428657575085 -0.013793657746698176 0.0081904743425548071 -0.0010627063600729932 0.0056850621636424748 0.00043246454935377604 0.012094147862107666 -0.0090211556342087284 0.0014419601720874198 0.0095939095415498912 -0.0063118390187069219 -0.0026306394068524243 0.013644422218203545 -0.0062059951946139341 0.0021796838195737582 -0.008617473677510307 0.00075189451611853053 -0.0053369808048009879 0.010625517077562286 0.0030672394532572341 0.011699335219768379 -0.007139372626362845 0.0091828398716946435 -0.0077442295085161164
leaf_weight=23 24 20 36 37 25 29 22 28 20 34 35 26 27 38 32 23 81 20 46 24 58 21 33 25 41 27 39 43 24 39
leaf_count=23 24 20 36 37 25 29 22 28 20 34 35 26 27 38 32 23 81 20 46 24 58 21 33 25 41 27 39 43 24 39
internal_value=0 0.00645201 -0.00747695 -0.00647484 0.0107278 0.00215997 -0.00748886 -0.0157296 0.0090816 -0.00280876 0.00450375 0.00140997 0.0122659 -0.0088555 0.0018645 0.00963429 -0.00654973 -0.00385026 0.013071 -0.0071069 0.00218273 -0.00842649 0.000269639 -0.00608192 0.0102548 0.00246161 0.0113476 -0.00743954 0.00873176 -0.00804986
internal_weight=0 529 471 420 265 264 329 51 128 91 64 200 137 134 143 108 195 57 73 89 117 98 57 106 64 85 64 65 44 60
internal_count=1000 529 471 420 265 264 329 51 128 91 64 200 137 134 143 108 195 57 73 89 117 98 57 106 64 85 64 65 44 60
is_linear=0
shrinkage=0.05


Tree=7
num_leaves=31
num_cat=0
split_feature=12 12 9 12 12 12 12 15 12 6 4 12 12 14 5 2 12 12 14 5 16 9 11 5 5 1 5 1 5 16
split_gain=17.451 3.50607 1.41007 0.580818 0.280103 0.181755 0.126366 0.0655169 0.0614283 0.0572186 0.0474532 0.046167 0.0312723 0.0264519 0.0253046 0.024664 0.0179502 0.0155152 0.0137663 0.0118347 0.0110706 0.0110347 0.0101845 0.00850916 0.00792345 0.00521611 0.00482904 0.00464695 0.00400607 0.00386346
threshold=4.3866281959001805 4.5648207456731154 4.0842500000000017 4.2714033064903152 4.6736630972842832 4.1880091304454092 4.4594282887999057 -0.63786682915555326 4.7290188250832053 -0.025006953848766052 -1.3267899851225227 4.5261589176306751 4.1462291978420671 -0.024536473591294603 57.052656808478027 0.76388737350334701 4.2131260272545665 4.617568190078984 -0.26018136839174827 59.272076175501915 4.4424195369823343 4.6883214285714292 4.2711066666666673 35.170386947914885 43.94516739426566 -0.41715430183036356 58.268922333193444 0.37487610740456484 47.411864605821172 4.1856532289065616
decision_type=2 2 2 2 2 2 2 2 2 2 2 2 2 2 2 2 2 2 2 2 2 2 2 2 2 2 2 2 2 2
left_child=2 6 9 5 7 12 13 -3 18 -1 -5 14 -4 23 -8 16 28 -9 -6 -10 -15 -20 -12 -2 -14 -18 -22 -16 -7 -26
right_child=1 4 3 10 8 15 11 17 19 -11 22 -13 24 20 27 -17 25 -19 21 -21 26 -23 -24 -25 29 -27 -28 -29 -30 -31
leaf_value=-0.01718217970236488 -0.00049747788885724732 0.0054554431300078126 -0.0096497319093564668 -0.0036448111034635654 0.009400760959833861 -0.007487666689687306 0.0013868490218772508 0.0075825145244598395 0.011706549767404796 -0.013655306787594504 -0.0020228673983365298 0.0055627710744738587 -0.0085700975632981256 0.00060139093649922868 0.0030520256841555238 -0.0044819959532469518 -0.0067267666943371307 0.0090982457479605299 0.0099423309564590466 0.013139946738051045 0.0015308633127297539 0.011166080406733923 -0.00046389366722327072 0.00072281045773706868 -0.0082147819921374321 -0.0058457406503813611 0.0023228566578932497 0.004049911024048925 -0.0066718869678237857 -0.0073636663332581525
leaf_weight=23 20 21 41 38 20 27 21 25 24 23 20 20 38 20 28 20 20 52 25 36 39 70 22 50 20 105 38 20 34 40
leaf_count=23 20 21 41 38 20 27 21 25 24 23 20 20 38 20 28 20 20 52 25 36 39 70 22 50 20 105 38 20 34 40
internal_value=0 0.00612941 -0.0071031 -0.00620306 0.0100712 -0.00709314 0.00192588 0.00793098 0.0112697 -0.0154187 -0.00236457 0.00344758 -0.00849025 0.00111492 0.00283447 -0.00615043 -0.00632983 0.00860613 0.010593 0.0125666 0.00164948 0.010844 -0.00120626 0.000374157 -0.00800516 -0.0059867 0.00192172 0.00346781 -0.00703297 -0.00764737
internal_weight=0 529 471 425 273 345 256 98 175 46 80 89 139 167 69 206 186 77 115 60 97 95 42 70 98 125 77 48 61 60
internal_count=1000 529 471 425 273 345 256 98 175 46 80 89 139 167 69 206 186 77 115 60 97 95 42 70 98 125 77 48 61 60
is_linear=0
shrinkage=0.05


Tree=8
num_leaves=31
num_cat=0
split_feature=12 12 12 12 12 12 12 11 5 6 2 5 12 8 12 12 14 13 12 16 2 12 0 4 1 5 14 8 1 0
split_gain=15.7512 3.00297 1.32097 0.63536 0.198892 0.182822 0.149764 0.0785516 0.0600497 0.0579274 0.0350571 0.033845 0.0255337 0.0242999 0.0216811 0.0169412 0.0164249 0.0153127 0.0135223 0.00790326 0.00721679 0.00716984 0.00676817 0.00625407 0.00498006 0.00486766 0.00481361 0.00320818 0.00260646 0.00230771
threshold=4.393548678443377 4.5939915724262077 4.1048288367788626 4.2714033064903152 4.5261589176306751 4.6971374008056488 4.1880091304454092 4.0411850000000014 53.530870459255453 0.0097031441501056487 -0.6752392883070556 52.093860060949545 4.463646580785583 0.0025883347020878374 4.1462291978420671 4.6444527373502718 -0.54549705655233849 4.7190704463268416 4.2204300967297694 4.4537921926827631 0.72827778194760617 4.1719761057378362 -0.023068955417693267 1.2908461150852537 -0.28276125868996188 40.945819646734229 0.0034124566575727158 -0.0062988586207454343 0.36766887245625052 -0.012180627535957054
decision_type=2 2 2 2 2 2 2 2 2 2 2 2 2 2 2 2 2 2 2 2 2 2 2 2 2 2 2 2 2 2
left_child=2 4 7 6 8 10 14 -1 22 16 -3 27 19 18 -4 -12 -5 -13 24 -10 -15 29 25 -14 -8 -2 -17 -7 -21 -16
right_child=1 5 3 9 -6 11 13 -9 12 -11 15 17 23 20 21 26 -18 -19 -20 28 -22 -23 -24 -25 -26 -27 -28 -29 -30 -31
leaf_value=-0.016050568940462889 -0.00032462146831676366 0.0064797145873308178 -0.0090397294403778191 -0.004212465267628431 0.0055526965003656718 0.0095956876873970042 -0.0073267317421379548 -0.012119187600910665 0.0010058435552032872 -0.0005429815462169548 0.0079507076622624146 0.010870425538583237 0.0027557169006944731 -0.0053800635039806368 -0.0083961120383305981 0.0086665895953774458 -0.0023965854621068997 0.012258115440607072 -0.0057239341803572395 0.0018067473080009223 -0.0042066549137234691 -0.0071501953770285072 0.0011064326921620463 0.0038887109518760728 -0.0064091982394456869 0.00070453641027496718 0.0096166167594492445 0.010393759301480126 0.0025007960794027895 -0.0077219090114037207
leaf_weight=27 20 20 36 20 38 20 21 24 23 39 38 33 29 38 22 20 33 50 77 31 20 46 49 21 50 27 40 34 24 30
leaf_count=27 20 20 36 20 38 20 21 24 23 39 38 33 29 38 22 20 33 50 77 31 20 46 49 21 50 27 40 34 24 30
internal_value=0 0.00596739 -0.00659025 -0.00569181 0.00220797 0.00983 -0.00668927 -0.0142005 0.00164057 -0.00200558 0.00838744 0.0110725 0.00234954 -0.00584291 -0.00799038 0.00877677 -0.00308182 0.0117064 -0.00618287 0.00178414 -0.00497544 -0.00760491 0.000695263 0.00323157 -0.00668058 0.000266597 0.00929994 0.0100982 0.0021096 -0.00800715
internal_weight=0 517 483 432 262 255 340 51 224 92 118 137 128 206 134 98 53 83 148 78 58 98 96 50 71 47 60 54 55 52
internal_count=1000 517 483 432 262 255 340 51 224 92 118 137 128 206 134 98 53 83 148 78 58 98 96 50 71 47 60 54 55 52
is_linear=0
shrinkage=0.05


Tree=9
num_leaves=31
num_cat=0
split_feature=12 12 9 12 12 12 12 3 4 12 6 5 12 14 12 12 12 11 14 20 9 14 14 14 14 14 5 11 1 1
split_gain=14.2174 2.85619 1.15166 0.47212 0.230091 0.136572 0.10297 0.0613353 0.050733 0.0500524 0.0482718 0.0315187 0.0297186 0.0257116 0.0200933 0.0177858 0.0127021 0.011551 0.0110394 0.0101743 0.00896441 0.00820006 0.00708027 0.00653592 0.00595631 0.00510281 0.00392901 0.00355894 0.00246457 0.0023791
threshold=4.3866281959001805 4.5648207456731154 4.0842500000000017 4.2551792147234559 4.6736630972842832 4.1758021013166253 4.4801508098485705 -0.85875574803819787 0.29160786713968717 4.7290188250832053 -0.025006953848766052 45.835999525082038 4.2114304645194656 0.14977269003012642 4.4122726327661015 4.3241616786607002 4.1297263094300485 4.5542583333333342 -0.26018136839174827 10.500000000000002 4.6883214285714292 0.20509025415758733 0.48582047164116143 0.16984980940128416 -0.42824902608462673 0.0034124566575727158 53.530870459255453 4.4467833333333351 0.2989207484587198 -0.34617140191310897
decision_type=2 2 2 2 2 2 2 2 2 2 2 2 2 2 2 2 2 2 2 2 2 2 2 2 2 2 2 2 2 2
left_child=2 6 10 5 7 16 11 -3 15 18 -1 24 21 -8 -13 -5 -4 -9 -6 -11 -20 -7 26 29 -2 -18 -16 -28 -19 -14
right_child=1 4 3 8 9 12 13 17 -10 19 -12 14 23 -15 22 -17 25 28 20 -21 -22 -23 -24 -25 -26 -27 27 -29 -30 -31
leaf_value=-0.015546181668405948 -0.00038567792580579408 0.0047552386742262618 -0.009094780649651182 -0.0041179568520888239 0.0084980056807398806 -0.006702677306683758 0.0025997735953343839 0.0068036769827206928 -0.0010109927033466338 0.010602588579058648 -0.012306756331868795 0.00034685314256841177 -0.0059859398075125438 0.0047438875254657538 0.0012154172238861693 -0.0022283422970212998 -0.0081739331781864166 0.0078914724290370941 0.0089777258336544048 0.011916517028037241 0.010080721133521625 -0.0056112010709264068 0.002715160868441065 -0.0047067643550690267 0.00064954448049926825 -0.007351963839879851 0.0016743448349904825 0.0024706943798810245 0.0085617487008372954 -0.00539961063567503
leaf_weight=23 24 21 22 33 20 79 29 21 38 26 23 26 22 27 29 20 35 32 25 34 70 22 21 32 33 41 47 20 24 81
leaf_count=23 24 21 22 33 20 79 29 21 38 26 23 26 22 27 29 20 35 32 25 34 70 22 21 32 33 41 47 20 24 81
internal_value=0 0.00553247 -0.00641132 -0.00559792 0.00909022 -0.00646778 0.00173847 0.00715047 -0.00240524 0.0101765 -0.0139265 0.00120785 -0.00581624 0.00363354 0.00160414 -0.00340489 -0.00803677 0.00780372 0.00956568 0.0113471 0.00979046 -0.00646493 0.00188353 -0.00533093 0.000213661 -0.0077305 0.00170162 0.00191206 0.00817873 -0.00552485
internal_weight=0 529 471 425 273 334 256 98 91 175 46 200 236 56 143 53 98 77 115 60 95 101 117 135 57 76 96 67 56 103
internal_count=1000 529 471 425 273 334 256 98 91 175 46 200 236 56 143 53 98 77 115 60 95 101 117 135 57 76 96 67 56 103
is_linear=0
shrinkage=0.05


Tree=10
num_leaves=31
num_cat=0
split_feature=12 12 9 12 12 12 12 6 12 12 8 12 8 15 12 13 0 15 15 2 17 1 12 13 14 17 15 4 9 8
split_gain=12.3493 2.8658 0.908874 0.297914 0.182587 0.120883 0.0911262 0.0552622 0.0453826 0.0432594 0.0376898 0.0248486 0.0193848 0.0184027 0.0159798 0.0135254 0.0125189 0.0122507 0.0110946 0.0108576 0.00899605 0.00850291 0.00590753 0.00503289 0.00372053 0.00325349 0.00312883 0.00265411 0.00241685 0.00220972
threshold=4.3684881128329272 4.5939915724262077 4.0842500000000017 4.2420041916798885 4.4801508098485705 4.6971374008056488 4.1758021013166253 -0.025006953848766052 4.2946215748527692 4.4276227772668424 0.003568759298265623 4.7449696173100593 -0.0041163349875413336 -0.2379775415632345 4.6421753472237297 4.1985250641397096 -1.0000000180025095e-35 0.20016071043937206 0.15615974244331829 -0.038188677353578886 4.2006911573918391 0.031841419502320896 4.3998956015154329 4.1411379372236343 0.12817648970765286 4.4080805719092693 0.30577510774394329 0.79352095791229715 4.2199642857142869 -0.0032903819898000186
decision_type=2 2 2 2 2 2 2 2 2 2 2 2 2 2 2 2 2 2 2 2 2 2 2 2 2 2 2 2 2 2
left_child=2 4 7 6 9 14 19 -1 20 17 16 18 -8 -11 -3 26 -6 22 29 23 -5 -16 -2 -4 28 27 -14 -15 -17 -7
right_child=1 5 3 8 10 11 12 -9 -10 13 -12 -13 15 25 21 24 -18 -19 -20 -21 -22 -23 -24 -25 -26 -27 -28 -29 -30 -31
leaf_value=-0.014866852611303331 -0.0010168195253105036 0.0068851132043882424 -0.0087111591228416982 -0.0032065133298082014 0.0022339686933580951 0.008583348784595728 -0.007218151837587357 -0.011425645170467241 -0.0017323233420125019 0.00049329480671611451 0.0056593796703964475 0.011038827347128015 -0.0063916517583572354 0.0012839077297469668 0.0076023831860058851 -0.0058339878916740424 0.0038353685719462547 0.00082537839148749811 0.010080100463496314 -0.0070811268234369801 -0.0045468290967326016 0.0086817353963851932 1.8795019113895253e-05 -0.0076611863672733302 -0.0048977247394976168 0.0022407401900957614 -0.0056425531394779689 0.001944328093668446 -0.005277840986049602 0.0092767603695392605
leaf_weight=20 21 38 21 21 23 20 20 28 38 34 20 38 46 29 36 30 26 36 45 51 31 37 40 25 42 34 20 32 56 27
leaf_count=20 21 38 21 21 23 20 20 28 38 34 20 38 46 29 36 30 26 36 45 51 31 37 40 25 42 34 20 32 56 27
internal_value=0 0.00488353 -0.00635743 -0.00557913 0.00157902 0.00892848 -0.00631227 -0.0128595 -0.00304574 0.000891687 0.00383027 0.00996323 -0.00573604 0.00149154 0.00771662 -0.00558325 0.00308369 9.39403e-05 0.00951896 -0.00758352 -0.00400555 0.00814945 -0.000337728 -0.00814052 -0.00528346 0.00184881 -0.00616465 0.00163036 -0.00547185 0.00898169
internal_weight=0 536 449 401 295 241 311 48 90 226 69 130 214 129 111 194 49 97 92 97 52 73 61 46 128 95 66 61 86 47
internal_count=985 536 449 401 295 241 311 48 90 226 69 130 214 129 111 194 49 97 92 97 52 73 61 46 128 95 66 61 86 47
is_linear=0
shrinkage=0.05


Tree=11
num_leaves=31
num_cat=0
split_feature=12 12 9 12 12 12 12 10 12 12 4 15 14 10 12 12 5 15 5 13 20 15 12 21 2 21 21 7 18 15
split_gain=11.1452 2.58815 0.820259 0.269628 0.154324 0.106623 0.0950553 0.0524241 0.0340549 0.0299567 0.029473 0.0281113 0.0274444 0.0208463 0.0168867 0.0143872 0.0126297 0.0110562 0.0088255 0.00816545 0.00708042 0.00614118 0.00533154 0.00443664 0.00439562 0.00360141 0.00328587 0.0026301 0.0026161 0.0024919
threshold=4.3684881128329272 4.5648207456731154 4.0842500000000017 4.2551792147234559 4.6736630972842832 4.463646580785583 4.1847974540415613 3.972375 4.7266809417746751 4.4276227772668424 -2.1562107258849212 -0.37795645703652564 -0.10606017523692005 4.4917678571428583 4.2204300967297694 4.1396205142216012 45.835999525082038 0.20016071043937206 52.093860060949545 4.6009603740016418 14.500000000000002 -0.38743198445578481 4.3998956015154329 3.5000000000000004 0.25284452354089609 7.5000000000000009 6.5000000000000009 -0.0031730441108918997 0.018350757318331846 0.23168665364146798
decision_type=2 2 2 2 2 2 2 2 2 2 2 2 2 2 2 2 2 2 2 2 2 2 2 2 2 2 2 2 2 2
left_child=2 5 7 6 11 9 15 -1 18 17 -5 -3 -7 -14 21 -4 -11 22 26 -13 -10 -8 -2 -23 27 -16 -6 -17 -20 -18
right_child=1 4 3 10 8 12 14 -9 20 16 -12 19 13 -15 25 24 29 -19 28 -21 -22 23 -24 -25 -26 -27 -28 -29 -30 -31
leaf_value=-0.014012854851104997 -0.00096597854870283527 0.0049525523418560632 -0.0079106515894333523 -0.0035046677457798714 0.0086478344500064853 0.0014921335533828193 -0.0064652602764822186 -0.010696521888558682 0.0096569009365574023 0.00031463358621113007 -0.0014377012751979887 0.0062804208729754802 0.0027749406741349961 0.0048327064514160157 -0.0044692268057001964 -0.0071850122883915903 0.0013323414448085566 0.00078410946473215712 0.0088019340459642749 0.0074436817783862354 0.010775744628447754 -0.0058344458540280668 1.7855268069979501e-05 -0.0051164796910224825 -0.006124199286103249 -0.0050609503686428071 0.0078773947372551886 -0.0065174374282360075 0.0095076505094766617 0.0018806308787316086
leaf_weight=22 21 20 33 34 25 23 21 26 31 25 35 22 32 20 45 36 43 36 29 48 26 48 40 39 25 60 31 25 24 40
leaf_count=22 21 20 33 34 25 23 21 26 31 25 35 22 32 20 45 36 43 36 29 48 26 48 40 39 25 60 31 25 24 40
internal_value=0 0.00463936 -0.00603956 -0.00530017 0.00827299 0.00131718 -0.00589124 -0.0122165 0.00917692 0.000727016 -0.00245621 0.00660574 0.00293028 0.00356639 -0.00525887 -0.00702313 0.00129983 8.92433e-05 0.00865903 0.00707809 0.0101673 -0.00569784 -0.000320842 -0.0055126 -0.00668257 -0.00480735 0.00822134 -0.00691142 0.0091215 0.00159658
internal_weight=0 536 449 401 256 280 332 48 166 205 69 90 75 52 213 119 108 97 109 70 57 108 61 87 86 105 56 61 53 83
internal_count=985 536 449 401 256 280 332 48 166 205 69 90 75 52 213 119 108 97 109 70 57 108 61 87 86 105 56 61 53 83
is_linear=0
shrinkage=0.05


Tree=12
num_leaves=31
num_cat=0
split_feature=9 9 9 9 9 9 9 9 4 9 2 1 9 1 13 14 9 2 1 5 14 9 14 15 15 15 2 2 15 14
split_gain=10.0505 2.29294 0.754494 0.260909 0.118452 0.117427 0.113802 0.0740448 0.040114 0.030518 0.0297878 0.0286776 0.0226871 0.0142176 0.0126968 0.0122259 0.0110109 0.0109662 0.0108637 0.00803435 0.00733071 0.00633697 0.00460676 0.00446737 0.00376177 0.0036691 0.0036095 0.00327279 0.00221693 0.00219247
threshold=4.3759857142857141 4.5737357142857151 4.117928571428572 4.256735714285715 4.0481500000000006 4.6918571428571436 4.480214285714287 4.1949214285714289 -2.1562107258849212 4.4285000000000005 0.70101051223344657 -0.32642375995100553 4.7463214285714299 -0.090110499547924036 4.1590302497501925 0.28712256619413207 4.6501357142857147 -0.34828437653927619 -0.48121570282820819 43.677034105032682 -0.033569917879738641 4.2255357142857148 -0.28886314994880485 -0.15814209102602081 0.18138136218614101 -0.459623762259181 0.28947997004736831 0.25284452354089609 0.13796217321884405 0.25366297268100968
decision_type=2 2 2 2 2 2 2 2 2 2 2 2 2 2 2 2 2 2 2 2 2 2 2 2 2 2 2 2 2 2
left_child=2 6 4 7 -1 11 9 14 -5 15 20 -3 17 25 23 22 -13 -7 -9 -16 -8 -20 -2 -4 -19 -11 -23 -18 -15 -21
right_child=1 5 3 8 -6 12 10 18 -10 13 -12 16 -14 28 19 -17 27 24 21 29 -22 26 -24 -25 -26 -27 -28 -29 -30 -31
leaf_value=-0.013253982563813528 -0.00081748731802993777 0.0050256157573312522 -0.007513112090528011 -0.0033424079055240489 -0.0086430654216271188 0.0075136364393291024 0.0017611064075026663 -0.0058314281261780052 -0.00093100906798749107 0.00026450396762811579 0.0047937317565083506 0.006525959377718527 0.0099783573400329898 0.0014086516214195978 -0.0064998531093200043 0.0010712741491331074 0.0072585837649447585 0.0084022092249463592 -0.004940936832529743 -0.0058199765781561533 0.00304540029540658 -0.0045282804464199106 6.4987078862031929e-05 -0.0065660864227648948 0.0090990503297911762 0.0011069981684808485 -0.0037447875809101835 0.0080735198476097805 0.0020210946496162152 -0.0051862956956028943
leaf_weight=30 21 20 20 34 26 21 20 22 35 24 20 43 37 22 42 26 28 34 82 39 25 49 50 33 45 28 21 22 45 21
leaf_count=30 21 20 20 34 26 21 20 22 35 24 20 43 37 22 42 26 28 34 82 39 25 49 50 33 45 28 21 22 45 21
internal_value=0 0.00445302 -0.00567923 -0.00491465 -0.0111132 0.00793642 0.00135392 -0.00550092 -0.00211923 0.000801939 0.00318818 0.00674324 0.00892057 0.00133852 -0.00629567 0.000143662 0.00711262 0.00852919 -0.00479296 -0.00596946 0.0024746 -0.00464265 -0.000196026 -0.00692345 0.00879914 0.000718155 -0.00429323 0.00761716 0.00181999 -0.00559819
internal_weight=0 531 454 398 56 250 281 329 69 216 65 113 137 119 155 97 93 100 174 102 45 152 71 53 79 52 70 50 67 60
internal_count=985 531 454 398 56 250 281 329 69 216 65 113 137 119 155 97 93 100 174 102 45 152 71 53 79 52 70 50 67 60
is_linear=0
shrinkage=0.05


Tree=13
num_leaves=31
num_cat=0
split_feature=12 12 12 12 12 12 12 8 12 12 12 15 8 14 16 15 13 12 17 9 5 14 14 5 13 14 6 15 18 9
split_gain=9.08067 2.11119 0.669127 0.241456 0.15754 0.0950493 0.0632731 0.058702 0.0351875 0.0279707 0.0196241 0.0173221 0.0168498 0.0134345 0.0124946 0.0116334 0.0101001 0.00856358 0.00742936 0.00610268 0.00569501 0.00410089 0.00385708 0.00371759 0.00318133 0.00315562 0.00258337 0.00206173 0.00195029 0.00187469
threshold=4.3684881128329272 4.5436765086379447 4.0577306947430474 4.2420041916798885 4.6736630972842832 4.1719761057378362 4.4494693640039182 -0.0051323819103276935 4.2946215748527692 4.7449696173100593 4.1267665417437591 -0.69345901932357956 -0.0044866418299058563 0.13511250095271038 4.4455874018311006 0.13043952857741828 4.1985250641397096 4.6127865143467517 4.2006911573918391 4.480214285714287 56.575753620095938 -0.26876007166718269 0.056860762092823688 51.03103456417103 4.7147081816870529 0.12817648970765286 0.0012553795774858936 0.20016071043937206 0.025793379177476036 4.2199642857142869
decision_type=2 2 2 2 2 2 2 2 2 2 2 2 2 2 2 2 2 2 2 2 2 2 2 2 2 2 2 2 2 2
left_child=2 6 -1 5 7 10 11 -3 18 15 -4 -2 -7 20 27 21 26 -9 -5 -15 -8 -6 -12 -16 28 29 -14 -13 -17 -18
right_child=1 4 3 8 9 12 13 17 -10 -11 22 14 16 19 23 24 25 -19 -20 -21 -22 -23 -24 -25 -26 -27 -28 -29 -30 -31
leaf_value=-0.012195018262547605 -0.00056901467084090275 0.0033545192144811154 -0.0078850001628909799 -0.0027262033717263315 0.0068818541429936896 -0.0063132548704743392 0.0009781309432582931 0.0055870453361421824 -0.0014506680538416781 0.0094759664449252587 -0.0066454916301628827 -0.00020345541468284661 -0.0054821193295841418 0.0020803981984499841 0.00081769818614702667 0.0078320214897394189 -0.0050139254259486355 0.0067129384856997876 -0.003944230043599682 0.0032089386621247172 0.0019545560498954728 0.0077340276368583248 -0.0059431863510433364 0.0015292730708155902 0.0089534871652722364 -0.0041742301124724603 -0.0048057532683014872 0.00043346318169218043 0.0085302860662341117 -0.0045292856304773267
leaf_weight=34 34 20 28 21 20 20 28 24 38 38 46 27 48 25 45 20 31 57 31 23 32 48 34 31 20 42 20 24 20 56
leaf_count=34 34 20 28 21 20 20 28 24 38 38 46 27 48 25 45 20 31 57 31 23 32 48 34 31 20 42 20 24 20 56
internal_value=0 0.0041877 -0.00545151 -0.00489903 0.00733742 -0.0055337 0.0010614 0.00578037 -0.00260719 0.00828478 -0.00674575 0.000433337 -0.00493047 0.00199768 0.000701683 0.00793114 -0.00479008 0.00637934 -0.00345233 0.00262116 0.00149889 0.00748339 -0.00634701 0.00110795 0.0084386 -0.00453015 -0.00528319 9.6271e-05 0.00818115 -0.00470197
internal_weight=0 536 449 415 267 325 269 101 90 166 108 161 217 108 127 128 197 81 52 48 60 68 80 76 60 129 68 51 40 87
internal_count=985 536 449 415 267 325 269 101 90 166 108 161 217 108 127 128 197 81 52 48 60 68 80 76 60 129 68 51 40 87
is_linear=0
shrinkage=0.05


Tree=14
num_leaves=31
num_cat=0
split_feature=12 12 9 12 9 12 12 6 12 4 5 12 12 12 12 15 15 12 8 1 2 15 12 1 12 21 2 17 7 8
split_gain=8.1958 1.87137 0.615474 0.227303 0.118202 0.0810297 0.075231 0.0404602 0.0392936 0.0273506 0.0202985 0.016542 0.0147534 0.0108242 0.0106358 0.0075419 0.00751924 0.00662612 0.00535854 0.00497964 0.00488674 0.00481255 0.00473647 0.00412922 0.00400454 0.00353909 0.00335196 0.00221868 0.00213208 0.00163044
threshold=4.3749615821591084 4.5939915724262077 4.0842500000000017 4.2714033064903152 4.5100000000000007 4.6971374008056488 4.1847974540415613 -0.025006953848766052 4.4323613814422282 -2.1562107258849212 56.575753620095938 4.7449696173100593 4.2204300967297694 4.6598881815061723 4.1396205142216012 0.20016071043937206 0.18138136218614101 4.463646580785583 -0.002478144320511261 0.302076396210127 0.12760979952071153 -0.26383920081790641 4.4016072985960122 -0.34617140191310897 4.2302521556910353 3.5000000000000004 0.25284452354089609 4.207905406598667 -0.0031730441108918997 -0.0041849596098708494
decision_type=2 2 2 2 2 2 2 2 2 2 2 2 2 2 2 2 2 2 2 2 2 2 2 2 2 2 2 2 2 2
left_child=2 4 7 6 8 13 14 -1 15 -5 21 16 18 19 -4 22 29 -12 -8 -3 -15 -10 -2 -14 -25 -20 28 -26 -16 -7
right_child=1 5 3 9 -6 11 12 -9 10 -11 17 -13 23 20 26 -17 -18 -19 25 -21 -22 -23 -24 24 27 -27 -28 -29 -30 -31
leaf_value=-0.012200162485241891 -0.0007324275568992432 0.0053235312763216169 -0.006785434439326778 -0.0028609405442451439 0.0039149443226817408 0.0069913354143500339 -0.0056019824885186701 -0.0092556689466748911 0.00027375377831049267 -0.00078963776696207993 0.0015402025712361602 0.0090021681628729179 -0.004705230732049261 0.0063448334112763405 -0.0061757047764129111 0.00078614934108271793 0.0082446184615756184 0.002434278475120664 -0.0049995476147159934 0.006308693050042443 0.0072613961421526402 0.0011622127153844174 0.00016238500975305215 -0.0042560842403389044 -0.0032811237722635274 -0.0043583043492757363 -0.0052419315874576572 -0.0039695938202467832 -0.0055746486634016042 0.0075781578133846152
leaf_weight=20 21 29 33 30 38 20 21 28 27 34 43 38 21 33 36 36 43 40 48 23 26 35 50 47 25 39 25 22 25 29
leaf_count=20 21 29 33 30 38 20 21 28 27 34 43 38 21 33 36 36 43 40 48 23 26 35 50 47 25 39 25 22 25 29
internal_value=0 0.00402133 -0.0051284 -0.0044954 0.00131544 0.0072774 -0.00500719 -0.0104825 0.000923446 -0.00176056 0.00145978 0.00812457 -0.00446547 0.00628521 -0.00602235 0.000196632 0.00776209 0.00197108 -0.00488513 0.00575928 0.00674874 0.000775303 -0.000102278 -0.00407135 -0.00392974 -0.00471209 -0.00572953 -0.00360339 -0.00592937 0.00733864
internal_weight=0 531 454 406 290 241 342 48 252 64 145 130 223 111 119 107 92 83 108 52 59 62 71 115 94 87 86 47 61 49
internal_count=985 531 454 406 290 241 342 48 252 64 145 130 223 111 119 107 92 83 108 52 59 62 71 115 94 87 86 47 61 49
is_linear=0
shrinkage=0.05


Tree=15
num_leaves=31
num_cat=0
split_feature=9 12 12 12 12 9 12 12 12 8 5 2 14 5 8 14 12 8 12 14 16 17 1 10 14 14 8 10 7 9
split_gain=7.24727 1.49991 0.514185 0.279175 0.116196 0.111609 0.064479 0.0371559 0.0282078 0.0255012 0.0236415 0.0181701 0.0166854 0.0108808 0.0089116 0.00826776 0.00785908 0.00736872 0.00696064 0.00622743 0.00570584 0.00541873 0.00519174 0.00507882 0.0039176 0.00296845 0.00256443 0.00251429 0.00234597 0.00216573
threshold=4.3953857142857151 4.5500594417864875 4.133480061375808 4.3040485538268696 4.6598881815061723 4.0481500000000006 4.2013675220516493 4.4599993614186442 4.7196335283442297 -0.0032903819898000186 32.131828831314635 0.76388737350334701 0.3693340860955332 45.835999525082038 -0.0041849596098708494 -0.28886314994880485 4.1758021013166253 0.0025883347020878374 4.6843187218477613 -0.11476337095202309 4.4424195369823343 4.679621144795953 -0.54696706047561705 4.6126678571428581 0.088865186756724071 0.1180391990459637 -0.0041163349875413336 4.2360000000000015 -0.013845072910870553 4.1067500000000008
decision_type=2 2 2 2 2 2 2 2 2 2 2 2 2 2 2 2 2 2 2 2 2 2 2 2 2 2 2 2 2 2
left_child=2 7 5 6 9 -1 16 13 15 -3 -5 17 19 26 -10 -6 25 22 -17 -9 -15 -16 -8 -11 -18 -4 -2 -24 -19 -7
right_child=1 4 3 10 8 29 11 12 14 23 -12 -13 -14 20 21 18 24 28 -20 -21 -22 -23 27 -25 -26 -27 -28 -29 -30 -31
leaf_value=-0.011332775869717201 -0.00013784890369816612 0.0034910562913864854 -0.0058443774428704517 -0.0023195210114036772 0.0059431107448680064 -0.0074119707569479942 -0.004942775014787913 0.0010891281041549518 0.0072087350700582786 0.0051779898102669161 -0.00034016164851588353 -0.0024758039762011984 0.0033014797055247154 0.00032710137518733974 0.0078626190312206749 0.0065208191672960925 -0.0051053636970947378 -0.0030539682088419795 0.0073846607886511708 0.0021423423808300869 0.0012607636480889697 0.0088705929617087058 -0.004188142604206079 0.0061400132334750637 -0.0043116540267047563 -0.0051584162749350078 0.000564404084994189 -0.0035742035224324183 -0.0037804968655109406 -0.0066849628197295334
leaf_weight=24 26 20 46 22 21 20 20 25 21 34 48 22 22 20 24 39 53 20 58 32 90 30 81 23 22 24 26 21 25 21
leaf_count=24 26 20 46 22 21 20 20 25 21 34 48 22 22 20 24 39 53 20 58 32 90 30 81 23 22 24 26 21 25 21
internal_value=0 0.00411006 -0.00449737 -0.0038333 0.00666935 -0.00862477 -0.00443502 0.00124281 0.00732452 0.00502718 -0.000962246 -0.00382652 0.00213184 0.000809267 0.00808272 0.00684261 -0.00522817 -0.00400446 0.00703734 0.00168041 0.00109101 0.0084226 -0.00420617 0.00556617 -0.00487254 -0.00560919 0.000213278 -0.00406174 -0.0034576 -0.0070396
internal_weight=0 511 469 404 270 65 334 241 193 77 70 189 79 162 75 118 145 167 97 57 110 54 122 57 75 70 52 102 45 41
internal_count=980 511 469 404 270 65 334 241 193 77 70 189 79 162 75 118 145 167 97 57 110 54 122 57 75 70 52 102 45 41
is_linear=0
shrinkage=0.05


Tree=16
num_leaves=31
num_cat=0
split_feature=12 12 12 12 12 10 12 12 12 15 4 2 14 4 3 12 12 8 15 0 1 3 14 7 1 14 13 12 12 7
split_gain=6.53048 1.35113 0.466742 0.259935 0.105151 0.100727 0.0581923 0.0336665 0.0307968 0.0269379 0.0189356 0.0163985 0.0150585 0.0107436 0.00942673 0.00709282 0.00703427 0.00665027 0.00655103 0.00647989 0.00468555 0.00466954 0.00355198 0.00309254 0.0029556 0.00267903 0.00249843 0.00235906 0.00228645 0.00211724
threshold=4.3998956015154329 4.5500594417864875 4.133480061375808 4.3040485538268696 4.6444527373502718 4.054164285714287 4.2013675220516493 4.4599993614186442 4.7033071576700918 -0.7371781723766756 -0.66848168926502682 0.76388737350334701 0.3693340860955332 0.72610419984419095 -1.4488846098018202 4.1758021013166253 4.7471092102510184 0.0025883347020878374 -0.07322518057558397 -0.070864494523864549 -0.54696706047561705 1.004056032502876 0.1180391990459637 0.031345395516599074 -0.2004940395510135 0.1180391990459637 4.429601121180248 4.2263256458225316 4.3522546721063584 -0.013845072910870553
decision_type=2 2 2 2 2 2 2 2 2 2 2 2 2 2 2 2 2 2 2 2 2 2 2 2 2 2 2 2 2 2
left_child=2 7 5 6 10 -1 15 14 19 -5 -3 17 18 24 -2 25 -15 20 -9 -6 -8 26 -17 -12 -10 -4 -16 -22 -11 -19
right_child=1 4 3 9 8 -7 11 12 13 28 23 -13 -14 16 21 22 -18 29 -20 -21 27 -23 -24 -25 -26 -27 -28 -29 -30 -31
leaf_value=-0.010766137049843867 -0.00022282512107354012 0.0033034563926048577 -0.0055521585047245033 -0.0024370904290117327 0.0056275764654856175 -0.0066876208273375917 -0.0046956362575292588 0.00086730935101513766 0.0064051619730889804 -0.00067211970218479457 0.0055232259929180148 -0.0023520137691362339 0.0031364057636396451 0.0074205653598675356 0.00042205246824199679 -0.0048364102569493387 0.0084704393313990694 -0.0029012698028236632 0.0019904814748647245 0.0065138874832412295 -0.0040212355208184038 0.0016006005063120808 -0.0040583033114671707 0.0046890666522085671 0.0071952531820741201 -0.0049004954441140098 0.00093381756366376744 -0.0035030139843001962 8.1255718638810031e-06 -0.0035914720371365547
leaf_weight=24 21 20 46 20 32 41 20 20 20 21 25 22 22 39 33 55 27 20 37 58 70 21 20 20 29 24 86 32 30 25
leaf_count=24 21 20 46 20 32 41 20 20 20 21 25 22 22 39 33 55 27 20 37 58 70 21 20 20 29 24 86 32 30 25
internal_value=0 0.00390952 -0.00426048 -0.00362925 0.00633588 -0.00819353 -0.00421327 0.00117985 0.0068915 -0.000881867 0.00458356 -0.0036352 0.00202525 0.00743365 0.000765027 -0.00496676 0.00785006 -0.00380424 0.00159639 0.00619875 -0.00399587 0.000913205 -0.00462892 0.00515249 0.00687277 -0.00532873 0.0007919 -0.00385866 -0.000271975 -0.00328472
internal_weight=0 510 470 405 270 65 334 240 205 71 65 189 79 115 161 145 66 167 57 90 122 140 75 45 49 70 119 102 51 45
internal_count=980 510 470 405 270 65 334 240 205 71 65 189 79 115 161 145 66 167 57 90 122 140 75 45 49 70 119 102 51 45
is_linear=0
shrinkage=0.05


Tree=17
num_leaves=31
num_cat=0
split_feature=9 9 9 9 9 9 9 9 14 3 5 5 2 13 14 9 9 8 7 21 14 16 14 3 5 2 4 6 9 14
split_gain=5.90337 1.20884 0.417903 0.225092 0.0855155 0.0825932 0.0508358 0.0448226 0.0278146 0.0268734 0.0222028 0.0151097 0.0136862 0.0104985 0.00869131 0.00778302 0.00777846 0.00613892 0.00613565 0.00611889 0.00581723 0.00527193 0.00381094 0.00270874 0.00270343 0.002517 0.00237268 0.00235465 0.00147131 0.00113648
threshold=4.3953857142857151 4.5590285714285725 4.1296071428571439 4.2980000000000009 4.6883214285714292 4.0481500000000006 4.1966428571428578 4.5100000000000007 -0.40422661129362064 -1.1361511671309608 45.835999525082038 52.505149072778288 0.76388737350334701 4.4538092430681226 0.32826038429704379 4.7394642857142868 4.6299785714285724 -0.003419284639352795 -0.013845072910870553 4.5000000000000009 -0.33475304649493959 4.4424195369823343 0.27398297106407504 0.88498376541262813 36.483135513650772 0.45733643339228586 0.9064800785084427 -0.0084606962052800033 4.1542000000000003 -0.041842440864563825
decision_type=2 2 2 2 2 2 2 2 2 2 2 2 2 2 2 2 2 2 2 2 2 2 2 2 2 2 2 2 2 2
left_child=2 7 5 6 8 -1 14 10 -3 -5 24 20 17 21 19 -13 -10 -8 -19 -4 -6 -12 29 -23 -2 -11 -15 -21 -29 -18
right_child=1 4 3 9 11 -7 12 -9 16 25 13 15 -14 26 -16 -17 22 18 -20 27 -22 23 -24 -25 -26 -27 -28 28 -30 -31
leaf_value=-0.010227830366541943 -0.0002475717278988062 0.0033919554638850973 -0.0043750140919453567 -0.0025573071977123621 0.0055808568745851521 -0.0064411297957930299 -0.004472700022161007 0.0032972650503759965 0.0047823648026678713 -0.00069481652226386368 0.00028375094654620626 0.0069412203935476455 -0.0022967421494069556 0.0014770697081985418 -0.0038956074472516777 0.0079229565732406842 0.0051980396360158925 -0.0028577330832680065 -0.0036907074194340432 -0.0055387726398529839 0.0066444014819959808 0.00099845188938511116 0.0063062521070241934 0.0015795666965302724 0.00043380247334179995 -7.7219870449467145e-08 0.0021849729233132356 -0.0053174590319395067 -0.0047851749167249014 0.0056814776192749706
leaf_weight=24 24 20 36 20 20 36 20 23 32 32 20 52 21 20 25 33 20 27 122 27 36 65 20 29 37 22 29 20 37 31
leaf_count=24 24 20 36 20 20 36 20 23 32 32 20 52 21 20 25 33 20 27 122 27 36 65 20 29 37 22 29 20 37 31
internal_value=0 0.00370946 -0.00405902 -0.00348736 0.00606175 -0.00795581 -0.00403865 0.00119528 0.00509826 -0.000991648 0.000979448 0.00690225 -0.00350058 0.00128397 -0.00474371 0.00732237 0.00542959 -0.00365017 -0.00353977 -0.0049204 0.00626456 0.00102089 0.00572129 0.00117773 0.000165721 -0.000411775 0.00189603 -0.00515414 -0.00497194 0.00549189
internal_weight=0 511 469 409 264 60 335 247 123 74 224 141 190 163 145 85 103 169 149 120 56 114 71 94 61 54 49 84 57 51
internal_count=980 511 469 409 264 60 335 247 123 74 224 141 190 163 145 85 103 169 149 120 56 114 71 94 61 54 49 84 57 51
is_linear=0
shrinkage=0.05


Tree=18
num_leaves=31
num_cat=0
split_feature=9 12 12 12 12 9 12 12 15 12 15 14 14 5 12 12 8 5 3 15 13 12 14 14 5 14 9 3 12 12
split_gain=5.32779 1.10341 0.378523 0.211063 0.0869995 0.0707905 0.0522082 0.0272214 0.0213201 0.0209401 0.0196792 0.013627 0.012087 0.00849222 0.0084214 0.00724237 0.00566311 0.00545422 0.00544781 0.00399753 0.003769 0.0035908 0.00357307 0.00319016 0.00296119 0.00268204 0.00246136 0.00236282 0.00210726 0.00181358
threshold=4.3953857142857151 4.5500594417864875 4.1267665417437591 4.3040485538268696 4.6598881815061723 4.0481500000000006 4.2013675220516493 4.463646580785583 -0.7371781723766756 4.7394044075005235 -0.065223460394735158 0.46051304091605622 0.3693340860955332 45.835999525082038 4.6971374008056488 4.1758021013166253 0.0018975275062709238 60.178637998898395 0.023684363678189161 -0.21805087529234435 4.6125679763910501 4.419373920211549 -0.46095420955794281 -0.10606017523692005 60.96738039099489 0.1180391990459637 4.244535714285715 0.94355313566621979 4.2263256458225316 4.3522546721063584
decision_type=2 2 2 2 2 2 2 2 2 2 2 2 2 2 2 2 2 2 2 2 2 2 2 2 2 2 2 2 2 2
left_child=2 7 5 6 10 -1 15 13 -5 14 -3 16 18 -2 24 25 22 -11 -9 -16 -12 -15 -8 -17 -6 -4 -18 -23 -24 -10
right_child=1 4 3 8 9 -7 11 12 29 17 20 -13 -14 21 19 23 26 -19 -20 -21 -22 27 28 -25 -26 -27 -28 -29 -30 -31
leaf_value=-0.0097164387504259757 0.00018809810033691872 0.0029487055429490284 -0.0050770205536893771 -0.002201339260209352 0.0052826786168703906 -0.0061697238837094869 -0.0042086626092592873 0.00080964335473254323 -0.0006236225749099893 0.0066420345345423338 0.0044248900573813556 -0.0020468539441935718 0.0028782152504261051 0.00038028603237101133 0.0057053696736693383 -0.0046989115221159799 -0.0032657959528507724 0.0077454202808439733 0.001855438913811337 0.0065137276397301607 0.0052483789001901947 0.00095354968216270213 -0.0036490361375564879 -0.0039726375024420795 0.005983345910906792 -0.0044530329509423336 -0.002554341987706721 0.0015572770565216031 -0.0031492756619568799 -1.3502822448258642e-05
leaf_weight=24 53 20 51 20 38 34 21 20 21 21 33 20 21 22 20 21 31 24 33 65 24 71 66 54 25 26 20 21 31 29
leaf_count=24 53 20 51 20 38 34 21 20 21 21 33 20 21 22 20 21 31 24 33 65 24 71 66 54 25 26 20 21 31 29
internal_value=0 0.00352399 -0.00385607 -0.00332246 0.00571909 -0.00763733 -0.00383582 0.00106475 -0.000821635 0.006286 0.00429814 -0.003281 0.00186304 0.00071102 0.00599882 -0.0045257 -0.00342706 0.00723051 0.0014608 0.00632353 0.00477162 0.000954133 -0.00361734 -0.00417599 0.00556072 -0.00486632 -0.00298679 0.00109136 -0.00348932 -0.000269753
internal_weight=0 511 469 411 270 58 341 241 70 193 77 189 74 167 148 152 169 45 53 85 57 114 118 75 63 77 51 92 97 50
internal_count=980 511 469 411 270 58 341 241 70 193 77 189 74 167 148 152 169 45 53 85 57 114 118 75 63 77 51 92 97 50
is_linear=0
shrinkage=0.05


Tree=19
num_leaves=31
num_cat=0
split_feature=12 12 12 12 12 10 12 12 12 8 15 14 14 5 12 12 2 8 1 18 16 17 14 12 14 12 0 3 1 3
split_gain=4.8003 0.994137 0.34415 0.191953 0.0785171 0.0737025 0.0451457 0.0247122 0.0189075 0.0180037 0.0148481 0.0143748 0.011871 0.00742869 0.00729496 0.00633335 0.00630496 0.00621841 0.00491168 0.00605427 0.0040551 0.00375477 0.00365358 0.00343853 0.00339607 0.003211 0.00226796 0.00205306 0.00195987 0.00176153
threshold=4.3998956015154329 4.5500594417864875 4.133480061375808 4.315329122818178 4.6598881815061723 4.054164285714287 4.2114304645194656 4.4599993614186442 4.7196335283442297 -0.0032903819898000186 -0.50293448871677893 0.46051304091605622 -0.10606017523692005 45.835999525082038 4.1758021013166253 4.4977012260755256 0.45733643339228586 -0.0041849596098708494 -0.62013960784795807 0.030412121820801902 4.4424195369823343 4.679621144795953 0.079608394981979233 4.617568190078984 -0.28886314994880485 4.6953915572827185 0.059769338580095706 -1.4488846098018202 0.14147592386856148 0.94355313566621979
decision_type=2 2 2 2 2 2 2 2 2 2 2 2 2 2 2 2 2 2 2 2 2 2 2 2 2 2 2 2 2 2
left_child=2 7 5 6 9 -1 14 13 16 -3 -5 18 -9 27 26 -14 24 -10 -8 -20 -15 -19 -16 -11 -6 -26 -4 -2 -12 -22
right_child=1 4 3 10 8 -7 11 12 17 23 28 -13 15 20 22 -17 -18 21 19 -21 29 -23 -24 -25 25 -27 -28 -29 -30 -31
leaf_value=-0.0092306168749928478 -0.00021844410004112953 0.0027925219642929732 -0.004801480951053756 -0.0018068643880542368 0.0048242798429869475 -0.0057418627346434246 -0.0038859622468325225 0.00088411369447216951 0.0058623789853992914 0.0041267578662545594 -0.00053953227934904304 -0.0017990968877538331 0.001740116861765273 0.00024624961421068294 -0.0041047026695155385 0.0028743401123210791 0.0062646614387631416 0.0064102256204932933 -0.0032338709355208954 -0.002322402628223327 0.00091439565049781331 0.007249284026523431 -0.0034407809462087854 0.0049045281981428468 0.0052070525501455578 0.0058796173478994108 -0.0042205380808029861 0.0004218532424983418 0.00010990347274435829 0.0014473256887868047
leaf_weight=24 21 20 42 20 21 41 22 27 21 27 21 21 32 20 67 20 26 24 106 22 69 30 30 30 35 36 28 31 26 20
leaf_count=24 21 20 42 20 21 41 22 27 21 27 21 21 32 20 67 20 26 24 106 22 69 30 30 30 35 36 28 31 26 20
internal_value=0 0.00335185 -0.00365275 -0.00311072 0.00543314 -0.00703002 -0.00359536 0.0010104 0.0059717 0.00408323 -0.000665821 -0.0030243 0.0017347 0.000655 -0.00418009 0.00217636 0.00557715 0.00659245 -0.00319583 -0.00307721 0.000889585 0.00687637 -0.00389937 0.00453611 0.00538286 0.00554807 -0.0045691 0.000163272 -0.00018027 0.00103416
internal_weight=0 510 470 405 270 65 338 240 193 77 67 171 79 161 167 52 118 75 150 128 109 54 97 57 92 71 70 52 47 89
internal_count=980 510 470 405 270 65 338 240 193 77 67 171 79 161 167 52 118 75 150 128 109 54 97 57 92 71 70 52 47 89
is_linear=0
shrinkage=0.05


Tree=20
num_leaves=31
num_cat=0
split_feature=10 17 10 8 3 15 10 17 10 10 17 14 10 5 15 16 3 6 3 8 10 10 11 10 4 0 15 6 18 3
split_gain=4.30081 0.958579 0.313047 0.120671 0.0675852 0.0525016 0.0446808 0.0420688 0.0361071 0.0258093 0.0198926 0.0159302 0.0131614 0.0116997 0.0114242 0.0106199 0.00775345 0.00721087 0.00672063 0.00591546 0.00520294 0.00473041 0.00369063 0.00338374 0.00277063 0.00253325 0.00234799 0.00207135 0.00187409 0.00169879
threshold=4.3658964285714292 4.4830898405877999 4.1231142857142862 0.0062117926054400365 -1.8191869886963916 0.67921017688720597 4.054164285714287 4.1837761413592149 4.7128928571428581 4.4778214285714286 4.407014054181368 0.29043443813553321 4.2710642857142869 29.135036089960817 -0.12657695013001 4.6936551719645836 -0.14601038332501257 -0.0087560727400322041 0.55608168108670653 0.0018975275062709238 4.4055928571428575 4.1906357142857154 4.4593333333333343 4.1547678571428586 0.81049124866227074 -0.047446931039574196 -0.54321747449930002 0.0019178063175937512 0.018350757318331846 0.67281163718142534
decision_type=2 2 2 2 2 2 2 2 2 2 2 2 2 2 2 2 2 2 2 2 2 2 2 2 2 2 2 2 2 2
left_child=2 5 6 7 -3 10 -1 14 15 -7 13 19 -5 -2 23 29 -12 -17 27 25 -15 -16 -18 -4 -22 -9 -25 -10 -19 -6
right_child=1 4 3 12 8 9 -8 11 18 -11 16 -13 -14 20 21 17 22 28 -20 -21 24 -23 -24 26 -26 -27 -28 -29 -30 -31
leaf_value=-0.008724793978035451 -0.00083965854108100754 0.0027011898467511251 -0.0050838685509833424 -0.0018358672829851021 0.0040574917214966956 0.0013946691964520142 -0.00575057826936245 -0.0035849723770904045 0.0055826942835535322 0.0038266701390966777 0.00048185816034674645 -0.0016213040903676303 -0.00022164534103857089 -0.00015973453641722533 -0.0039601744551743777 0.0047897367551922795 0.0012249247934669257 0.0054061818518675864 0.0068945353790636991 -0.0025228052989890179 0.00046643469093916271 -0.0032536685128103601 0.0020929709464932483 -0.0047092634845863693 0.0010550737460747498 -0.0030788903654206034 -0.0040010147020220757 0.0062179190417130797 0.005977683929869762 0.0046621251134918293
leaf_weight=28 20 24 22 23 21 24 23 48 21 20 20 20 28 27 84 40 25 32 31 30 77 33 24 22 27 51 25 33 26 26
leaf_count=28 20 24 22 23 21 24 23 48 21 20 20 20 28 27 84 40 25 32 31 30 77 33 24 22 27 51 25 33 26 26
internal_value=0 0.00303322 -0.00370183 -0.0032154 0.00522605 0.00092346 -0.00738348 -0.00356034 0.00548951 0.00250012 0.000608127 -0.00293431 -0.000949628 0.000286732 -0.00406183 0.00500986 0.00131147 0.00530619 0.00630775 -0.00313788 0.000458699 -0.0037609 0.00165009 -0.00457209 0.000619254 -0.00332426 -0.00433254 0.00597089 0.00566237 0.00439197
internal_weight=0 518 437 386 254 264 51 335 230 44 220 149 51 151 186 145 69 98 85 129 131 117 49 69 104 99 47 54 58 47
internal_count=955 518 437 386 254 264 51 335 230 44 220 149 51 151 186 145 69 98 85 129 131 117 49 69 104 99 47 54 58 47
is_linear=0
shrinkage=0.05


Tree=21
num_leaves=31
num_cat=0
split_feature=12 12 9 9 12 12 9 1 5 16 12 8 12 5 8 14 12 21 2 1 5 1 9 1 21 2 5 15 10 20
split_gain=3.95453 0.977865 0.259564 0.0603203 0.0543233 0.0504805 0.0372177 0.0251771 0.0180572 0.0114659 0.0110931 0.00979733 0.00928894 0.0074955 0.00647063 0.00548928 0.00453563 0.00422596 0.00354319 0.00335928 0.0032567 0.00325139 0.00262042 0.00228324 0.00190776 0.00176278 0.00150236 0.0013747 0.00105799 0.00073083
threshold=4.3330536301200988 4.5939915724262077 4.117928571428572 4.5100000000000007 4.2114304645194656 4.6971374008056488 4.0481500000000006 0.70070304919332982 37.956650836980963 4.4343005290779951 4.156812348154868 -0.0044278546811293276 4.7471092102510184 51.215418057654936 0.0018975275062709238 -0.30997017549416861 4.2551792147234559 8.5000000000000018 0.28550233149639009 0.50197616313877325 29.135036089960817 0.49729329164983632 4.4755714285714303 0.53494957039250679 8.5000000000000018 0.45218240054711872 41.286550816503038 0.045093454234453705 4.1906357142857154 14.500000000000002
decision_type=2 2 2 2 2 2 2 2 2 2 2 2 2 2 2 2 2 2 2 2 2 2 2 2 2 2 2 2 2 2
left_child=2 3 6 8 10 11 -1 14 20 25 27 -3 18 -11 17 -12 -16 -6 26 24 -2 28 23 29 -13 -10 -7 -4 -17 -15
right_child=1 5 4 -5 7 12 -8 -9 9 13 15 19 -14 22 16 21 -18 -19 -20 -21 -22 -23 -24 -25 -26 -27 -28 -29 -30 -31
leaf_value=-0.0082885542884469036 -0.00075098818532474661 0.0033438639027909157 -0.0045755797212845405 0.0026942263130637772 -0.0028753336011008782 0.0049005349352955821 -0.0055740728974342348 -0.0010394568459808149 -0.00017741349635928469 0.0004955267020641099 -0.0043098211820636481 0.0041091452645404007 0.0064078419923018189 0.00065282395278865642 -0.0027543739528974164 -0.0036888377232985065 -0.0018198071990627796 -0.0035910415152708691 0.0058822994120419029 0.005064606553186541 8.1614989903755491e-05 -0.0028506267527700405 0.0015932142186248976 0.001489092461720464 0.0046432922245003283 0.00043719111738028005 0.0054335446025316533 -0.0040981802344322209 -0.0033156126031074033 0.0010271832288708538
leaf_weight=28 23 21 38 38 66 20 23 22 28 57 21 35 39 22 37 55 20 30 36 23 24 20 31 21 32 20 39 25 29 32
leaf_count=28 23 21 38 38 66 20 23 22 28 57 21 35 39 22 37 55 20 30 36 23 24 20 31 21 32 20 39 25 29 32
internal_value=0 0.00276836 -0.00372427 0.000834393 -0.003255 0.0051049 -0.00706438 -0.00262102 0.000560465 0.000757885 -0.00384513 0.00431633 0.00575812 0.000957899 -0.00284844 -0.00357246 -0.00242646 -0.00309899 0.00549139 0.00454324 -0.000325829 -0.00342357 0.00120653 0.00104671 0.00436426 7.86718e-05 0.00525286 -0.00438614 -0.00355999 0.000874666
internal_weight=0 541 414 296 363 245 51 175 258 211 188 111 134 163 153 125 57 96 95 90 47 104 106 75 67 48 59 63 84 54
internal_count=955 541 414 296 363 245 51 175 258 211 188 111 134 163 153 125 57 96 95 90 47 104 106 75 67 48 59 63 84 54
is_linear=0
shrinkage=0.05


Tree=22
num_leaves=31
num_cat=0
split_feature=12 12 9 9 12 12 9 8 5 12 12 21 8 12 7 15 0 2 13 21 13 5 15 2 15 0 9 8 5 10
split_gain=3.56896 0.882523 0.234257 0.0544391 0.0490267 0.0455587 0.033589 0.0219887 0.0162966 0.010387 0.0100116 0.00897583 0.00884209 0.00838327 0.00509678 0.00506047 0.00404217 0.00319773 0.0031933 0.003125 0.00297293 0.00293917 0.00283442 0.00268975 0.00220064 0.00207479 0.00192549 0.00153896 0.00135588 0.00124069
threshold=4.3330536301200988 4.5939915724262077 4.117928571428572 4.5100000000000007 4.2114304645194656 4.6971374008056488 4.0481500000000006 0.0093204426461483154 37.956650836980963 4.443357457091702 4.156812348154868 7.5000000000000009 -0.0044278546811293276 4.7471092102510184 -0.033283484025903969 -0.54321747449930002 -0.1466607692827748 0.28550233149639009 4.6125679763910501 3.5000000000000004 4.4025627131403757 29.135036089960817 -0.26942304059991845 0.61777152126398793 0.070228903050260624 -0.054004328907725212 4.4755714285714303 0.0011012956392146298 41.286550816503038 4.1906357142857154
decision_type=2 2 2 2 2 2 2 2 2 2 2 2 2 2 2 2 2 2 2 2 2 2 2 2 2 2 2 2 2 2
left_child=2 3 6 8 10 12 -1 11 21 19 -4 14 -3 17 -6 -12 -11 28 -14 -10 -21 -2 -13 29 -16 -20 -18 -27 -7 -17
right_child=1 5 4 -5 7 13 -8 -9 9 16 15 22 18 -15 24 23 26 -19 25 20 -22 -23 -24 -25 -26 27 -28 -29 -30 -31
leaf_value=-0.0078741267988724373 -0.00071343877074389681 0.0031766706678484171 -0.0041668287108814909 0.0025595149975599367 -0.0016644169648532712 0.0046555082127451896 -0.0052953693367864783 -0.0010119354669851338 0.00080652829796731991 0.00050435227898229973 -0.0041227752249687914 -0.0036066689202561976 0.0037588867638260123 0.0060874498616426418 -0.0028814945498417165 -0.0035152138676494363 0.0010959745361469686 0.0055881843902170665 0.0040861442199219824 -6.259565624142331e-05 0.00054364885481146096 7.7534241063403905e-05 -0.0029098721117609078 -0.0027332863595802338 -0.0022655234776501514 0.004408564003041157 0.0016333979219198228 0.0049840523373512998 0.0051618673767034823 -0.0031122940817269787
leaf_weight=28 23 21 63 38 21 20 23 22 33 22 20 20 20 39 29 56 50 36 23 42 39 24 54 20 29 26 25 21 39 29
leaf_count=28 23 21 63 38 21 20 23 22 33 22 20 20 20 39 29 56 50 36 23 42 39 24 54 20 29 26 25 21 39 29
internal_value=0 0.00262994 -0.00353805 0.000792674 -0.00309225 0.00484965 -0.00671116 -0.00248997 0.000532441 0.000719991 -0.00365287 -0.0027025 0.00410051 0.00547021 -0.00233185 -0.00339384 0.0011003 0.00521682 0.00431608 0.000396392 0.0002293 -0.000309538 -0.0030982 -0.00325499 -0.00257351 0.00447527 0.00127512 0.0046657 0.00499022 -0.00337775
internal_weight=0 541 414 296 363 245 51 175 258 211 188 153 111 134 79 125 97 95 90 114 81 47 74 105 58 70 75 47 59 85
internal_count=955 541 414 296 363 245 51 175 258 211 188 153 111 134 79 125 97 95 90 114 81 47 74 105 58 70 75 47 59 85
is_linear=0
shrinkage=0.05


Tree=23
num_leaves=31
num_cat=0
split_feature=12 12 12 12 12 12 10 1 16 5 12 12 0 12 20 8 15 18 0 21 16 2 1 3 0 1 15 12 15 4
split_gain=3.22099 0.797002 0.210964 0.0570067 0.0443169 0.035706 0.0304916 0.0212124 0.0180573 0.0148966 0.00968006 0.0090999 0.00767023 0.0075659 0.00538942 0.00527843 0.00456708 0.00442344 0.003753 0.00355887 0.00306378 0.00288595 0.00277092 0.0027001 0.00230317 0.00217252 0.00182358 0.00136742 0.0012645 0.00124673
threshold=4.3330536301200988 4.6038344451588422 4.1181701059901519 4.5162222069116904 4.2114304645194656 4.6971374008056488 4.054164285714287 0.70070304919332982 4.6634164222822472 37.956650836980963 4.443357457091702 4.156812348154868 -0.054004328907725212 4.7471092102510184 20.500000000000004 0.0018975275062709238 -0.54321747449930002 0.028019059417361932 -0.1466607692827748 8.5000000000000018 4.4343005290779951 0.28550233149639009 0.49729329164983632 -2.3549527199796132 0.069384207685152535 0.50197616313877325 0.14276010460942828 4.463646580785583 0.045093454234453705 -0.42462856973817237
decision_type=2 2 2 2 2 2 2 2 2 2 2 2 2 2 2 2 2 2 2 2 2 2 2 2 2 2 2 2 2 2
left_child=2 3 6 9 11 12 -1 15 -5 23 20 28 14 21 -3 19 -13 -17 -12 -6 24 29 -18 -2 -11 -14 -22 -20 -4 -7
right_child=1 5 4 8 7 13 -8 -9 -10 10 18 16 25 -15 -16 17 22 -19 27 -21 26 -23 -24 -25 -26 -27 -28 -29 -30 -31
leaf_value=-0.0074804202919559817 0.00014626899144786875 0.0028792336272696656 -0.0041427956550921267 0.0034326081123688952 -0.0025952662679959429 0.0044817682928763904 -0.0050234362644993747 -0.00091376292224264362 0.0013783635545405561 -0.00024596748055326036 0.00047913466365902095 -0.003916636444628239 0.0041169679856726104 0.0057830773293972015 0.0039990691552785314 -0.0025169232501522512 -0.0032168357490616689 -0.0015939874388277533 0.0010446769557893277 -0.0032520598731935026 0.00037202058853213923 0.0053087751795020373 -0.0025627240643370901 -0.00062023097330152438 0.00044914539017058407 0.0047501201927661902 0.00090380210146707085 0.0014762364211492241 -0.0036849298253655433 0.0049447232405796203
leaf_weight=28 20 21 38 23 66 26 23 22 20 26 22 20 42 39 22 37 85 20 45 30 38 36 20 27 22 20 28 31 25 33
leaf_count=28 20 21 38 23 66 26 23 22 20 26 22 20 42 39 22 37 85 20 45 30 38 36 20 27 22 20 28 31 25 33
internal_value=0 0.00249844 -0.00336115 0.000791194 -0.00293809 0.00465572 -0.00637237 -0.00236547 0.00247715 0.000511286 0.00068983 -0.0034711 0.00396532 0.0051967 0.00345217 -0.00257422 -0.00322415 -0.00219309 0.00105423 -0.00280051 0.000376573 0.00495598 -0.00309224 -0.000294061 7.26259e-05 0.00432121 0.000597625 0.00122071 -0.0039611 0.00474071
internal_weight=0 541 414 302 363 239 51 175 43 259 212 188 105 134 43 153 125 57 98 96 114 95 105 47 48 62 66 76 63 59
internal_count=955 541 414 302 363 239 51 175 43 259 212 188 105 134 43 153 125 57 98 96 114 95 105 47 48 62 66 76 63 59
is_linear=0
shrinkage=0.05


Tree=24
num_leaves=31
num_cat=0
split_feature=9 9 9 9 8 9 9 9 8 3 21 9 9 9 7 10 15 14 1 15 14 14 9 14 13 14 17 17 3 0
split_gain=2.90153 0.718593 0.191332 0.0489032 0.0404539 0.0282917 0.027305 0.0258997 0.0194804 0.0137376 0.0091652 0.0081905 0.0080582 0.0048411 0.0046937 0.00450078 0.00435245 0.00394356 0.00287818 0.00252447 0.00250295 0.00242366 0.0023053 0.00208305 0.00207881 0.00164162 0.00159408 0.00150192 0.00218064 0.00144792
threshold=4.3350285714285723 4.5644928571428585 4.117928571428572 4.6785357142857151 0.0093204426461483154 4.5100000000000007 4.0481500000000006 4.2015000000000011 -0.0041163349875413336 -0.20246331953560068 7.5000000000000009 4.445850000000001 4.7394642857142868 4.4019928571428579 -0.033283484025903969 4.147050000000001 -0.26942304059991845 1.0000000180025095e-35 -0.35277993385939282 0.26498921130538905 -0.37507264097102661 0.28338580189499402 4.42157142857143 0.12817648970765286 4.6125679763910501 0.33094945311035734 4.1558359532018434 4.4062363545321448 0.2975558219544206 0.010588743203976405
decision_type=2 2 2 2 2 2 2 2 2 2 2 2 2 2 2 2 2 2 2 2 2 2 2 2 2 2 2 2 2 2
left_child=2 5 6 8 7 9 -1 15 -3 13 14 21 17 -2 -9 -4 -12 -5 -17 -14 -15 22 -11 -16 -10 26 -20 -13 -29 -26
right_child=1 3 4 12 -6 -7 -8 10 24 11 16 27 19 20 23 18 -18 -19 25 -21 -22 -23 -24 -25 29 -27 -28 28 -30 -31
leaf_value=-0.007106399456305164 -0.00056555862247478219 0.0020240859041223305 -0.003866680308773711 0.0042487887110798919 -0.00080349025981073892 0.0022373523572459821 -0.004781343431576439 -0.0014881386607331001 0.0034083614953690105 -0.00017111038811587302 -0.0034204869195818902 0.00085822286577347446 0.0050239182561635978 -6.646363733178826e-05 -0.002618238614762531 -0.0037896083854138856 -0.0026441834523127632 0.0048560599646260659 -0.0034577692790729248 0.005749759191404219 0.00056584381100978571 0.0007160618574031302 0.00050844816992489197 -0.002051534363436663 0.0036451093771535416 -0.0027397854297998409 -0.0030244422187520703 0.00095221451736743682 0.0016407286777393893 0.0041687036774331531
leaf_weight=28 28 20 37 47 24 25 23 21 27 24 25 34 25 34 34 20 65 62 41 23 29 37 26 31 23 21 44 23 23 31
leaf_count=28 28 20 37 47 24 25 23 21 27 24 25 34 25 34 34 20 65 62 41 23 29 37 26 31 23 21 44 23 23 31
internal_value=0 0.00237127 -0.00319016 0.00427979 -0.00278726 0.000631351 -0.00605784 -0.0029277 0.00342153 0.000475731 -0.00250712 0.000745057 0.00483192 -1.85268e-05 -0.00213801 -0.00338183 -0.00285982 0.00459421 -0.00323946 0.00537172 0.000224599 0.000409279 0.00018226 -0.00234796 0.00376658 -0.00313566 -0.00323346 0.00111022 0.00129647 0.00394569
internal_weight=0 541 414 258 363 283 51 339 101 258 176 167 157 91 86 163 90 109 126 48 63 87 50 65 81 106 85 80 46 54
internal_count=955 541 414 258 363 283 51 339 101 258 176 167 157 91 86 163 90 109 126 48 63 87 50 65 81 106 85 80 46 54
is_linear=0
shrinkage=0.05


Tree=25
num_leaves=31
num_cat=0
split_feature=9 9 9 9 9 9 8 2 15 21 5 14 10 9 9 1 14 1 15 9 7 9 9 14 16 9 14 19 9 5
split_gain=2.75035 0.564777 0.200283 0.106669 0.0479637 0.0231544 0.0230371 0.0219763 0.0143658 0.0139167 0.0129205 0.00770696 0.00786163 0.00742358 0.00595513 0.00546047 0.00455075 0.00445334 0.00367673 0.00314596 0.0025899 0.00241015 0.00218899 0.00217884 0.00211781 0.00181524 0.00154389 0.00145642 0.00144763 0.00130309
threshold=4.3928142857142864 4.5364642857142865 4.0842500000000017 4.256735714285715 4.6627142857142863 4.1745214285714303 -0.0074480282167650519 -0.78754965911149155 0.73801868504877144 4.5000000000000009 31.321754526247535 -0.38917251547646897 4.4394107142857147 4.2255357142857148 4.316592857142858 0.30842237074502071 -0.40847369549780105 0.49729329164983632 -0.4857123695800914 4.6883214285714292 0.00091910071739131091 4.7523857142857144 4.4110357142857151 0.020735611512750333 4.2416385186811949 4.133414285714287 0.061694558906031823 2.5000000000000004 4.6228928571428582 55.137382755512938
decision_type=2 2 2 2 2 2 2 2 2 2 2 2 2 2 2 2 2 2 2 2 2 2 2 2 2 2 2 2 2 2
left_child=2 8 10 5 6 15 -3 -5 11 21 -1 27 22 18 -9 25 -11 28 -7 -18 -21 -6 -13 -15 29 -4 -16 -2 -8 -20
right_child=1 4 3 7 9 13 17 14 -10 16 -12 12 -14 23 26 -17 19 -19 24 20 -22 -23 -24 -25 -26 -27 -28 -29 -30 -31
leaf_value=-0.0068884461940754028 0.00018074360815808178 0.0014976470102556049 -0.0040770478207956661 -0.002407559780403972 0.0047412542038057989 -0.0034228345844894651 0.0027993509499356153 -0.0012195580787110057 0.0016435140340036016 0.0033903415384702387 -0.0051730553741040439 -4.7838113049135337e-06 0.0010269007354509086 -0.0024188177787106148 -0.000572684958242462 -0.0028005810390988538 0.0038636989155134494 0.0039356210412314309 -0.0029353186905161661 0.0040911847259849313 0.004675755128264427 0.0053812701255083091 0.00052603762941054401 -0.0018813596528630253 -0.002341315447119996 -0.0035423587550196729 -5.548434528463986e-06 -0.0003917016531340778 0.0033485224905113382 -0.0025514670563015073
leaf_weight=21 25 20 22 20 38 20 20 22 32 20 23 31 78 44 20 22 43 26 67 36 40 24 52 33 32 57 30 20 30 33
leaf_count=21 25 20 22 20 38 20 20 22 32 20 23 31 78 44 20 22 43 26 67 36 40 24 52 33 32 57 30 20 30 33
internal_value=0 0.00247267 -0.00278158 -0.00244687 0.00392693 -0.0028666 0.00300752 -0.000941322 0.000657903 0.00436605 -0.00599176 0.000504798 0.000666484 -0.00258846 -0.000534034 -0.00349725 0.00408819 0.00340485 -0.00279108 0.00420548 0.00439885 0.004989 0.000327779 -0.00218848 -0.00269535 -0.00369126 -0.000232403 -7.36765e-05 0.00312885 -0.00280865
internal_weight=0 535 466 422 297 330 96 92 238 201 44 206 161 229 72 101 139 76 152 119 76 62 83 77 132 79 50 45 50 100
internal_count=1001 535 466 422 297 330 96 92 238 201 44 206 161 229 72 101 139 76 152 119 76 62 83 77 132 79 50 45 50 100
is_linear=0
shrinkage=0.05


Tree=26
num_leaves=31
num_cat=0
split_feature=12 12 12 12 12 9 12 8 21 15 14 12 14 20 3 2 10 9 15 14 0 7 10 12 21 14 12 11 20 10
split_gain=2.49273 0.49296 0.185337 0.109095 0.0462008 0.0310793 0.0232782 0.0195323 0.0132543 0.0100221 0.0066909 0.00645808 0.0050199 0.00480292 0.00463652 0.0041053 0.00346942 0.00268189 0.00263962 0.00226294 0.00224782 0.00219941 0.00219876 0.00214855 0.00192965 0.00190567 0.00137922 0.00117143 0.00107388 0.00104747
threshold=4.3998956015154329 4.5261589176306751 4.1218256727657332 4.2946215748527692 4.6598881815061723 4.0481500000000006 4.2114304645194656 -0.0074480282167650519 4.5000000000000009 -0.0071490650586569044 -0.15801756977303602 4.1758021013166253 0.42861547019272345 21.500000000000004 0.51389568423378951 -0.6133261899500807 4.4533071428571445 4.6883214285714292 0.28366585130750693 -0.49054057318861871 0.021243532060888363 0.00091910071739131091 4.4394107142857147 4.7511447267612636 8.5000000000000018 0.093166118942512338 4.2383839054139729 4.3097066666666679 25.500000000000004 4.6087964285714298
decision_type=2 2 2 2 2 2 2 2 2 2 2 2 2 2 2 2 2 2 2 2 2 2 2 2 2 2 2 2 2 2
left_child=2 9 5 6 7 -1 11 -3 23 19 -5 25 16 14 24 -10 -11 -17 -13 -2 -9 -19 -21 -6 26 -4 -8 -12 -15 -22
right_child=1 4 3 10 8 -7 13 20 15 12 27 18 -14 28 -16 17 -18 21 -20 22 29 -23 -24 -25 -26 -27 -28 -29 -30 -31
leaf_value=-0.0064680001033203946 -0.00013935842560323212 0.0014227646519429983 -0.0034838956348331911 -0.0011851693425948421 0.0045066947016764334 -0.0041325807956785988 -0.002197593470682969 0.00285929377611366 0.0032984822501894088 0.00054038877276749631 -0.0004020557999935521 -0.0028495073710617267 0.0014889943511787289 -0.0028270009206607938 -0.0014355284224231062 0.0036960085811601445 0.0011226273098145611 0.0039042308287961149 -0.0022039209492504598 8.9603691569585672e-05 0.0031877091964301859 0.004453593433687562 0.00070015966542996471 0.0050997916322488056 -0.0025365517259790349 -0.0030002066152519549 -0.0016822370419686196 8.2363594992784789e-05 -0.0023540051304735245 0.0036824708059430126
leaf_weight=28 29 20 56 24 37 29 37 31 25 71 26 76 29 24 28 44 40 35 20 29 23 38 30 26 26 32 20 24 24 20
leaf_count=28 29 20 56 24 37 29 37 31 25 71 26 76 29 24 28 44 40 35 20 29 23 38 30 26 26 32 20 24 24 20
internal_value=0 0.00239163 -0.00260561 -0.00224008 0.003727 -0.0052798 -0.00261572 0.00280915 0.00414787 0.000640419 -0.00049893 -0.00299862 0.00090324 -0.00217261 -0.0019919 0.00388008 0.000750204 0.00400435 -0.00271501 0.000222294 0.00318385 0.0041902 0.000400056 0.00475146 -0.00217959 -0.00330801 -0.00201677 -0.000169534 -0.0025905 0.00341783
internal_weight=0 527 474 417 299 57 343 94 205 228 74 184 140 159 111 142 111 117 96 88 74 73 59 63 83 88 57 50 48 43
internal_count=1001 527 474 417 299 57 343 94 205 228 74 184 140 159 111 142 111 117 96 88 74 73 59 63 83 88 57 50 48 43
is_linear=0
shrinkage=0.05


Tree=27
num_leaves=31
num_cat=0
split_feature=12 12 9 12 12 9 12 8 4 12 8 4 7 14 14 9 2 10 12 14 9 9 0 2 17 20 11 9 8 10
split_gain=2.24969 0.444896 0.167387 0.100288 0.0416963 0.0239083 0.0227346 0.0176279 0.00958479 0.00917137 0.00691066 0.00671174 0.00447505 0.00429656 0.00403338 0.00380528 0.00344926 0.00300787 0.00300251 0.00265354 0.00256374 0.00236396 0.00202866 0.00186815 0.00147973 0.00141739 0.00130457 0.0012645 0.00121035 0.00113036
threshold=4.3998956015154329 4.5261589176306751 4.117928571428572 4.2946215748527692 4.6598881815061723 4.0481500000000006 4.1880091304454092 -0.0074480282167650519 0.9064800785084427 4.7394044075005235 0.0020059204841920563 -0.083046643449985455 -0.028398901068422199 -0.26876007166718269 -0.37507264097102661 4.4366785714285717 -0.096270485529836844 4.4533071428571445 4.1719761057378362 -0.46095420955794281 4.2119142857142871 4.6883214285714292 0.021243532060888363 -0.038188677353578886 4.6658614693488873 18.500000000000004 4.4467833333333351 4.2346785714285717 -0.00016886092337703654 4.4315142857142868
decision_type=2 2 2 2 2 2 2 2 2 2 2 2 2 2 2 2 2 2 2 2 2 2 2 2 2 2 2 2 2 2
left_child=2 8 5 6 7 -1 18 -3 14 13 19 -5 -12 -6 -2 29 -11 -10 23 -8 -21 28 -9 -4 -23 -13 -17 -22 -15 -16
right_child=1 4 3 11 9 -7 10 22 17 16 12 25 -14 21 15 26 -18 -19 -20 20 27 24 -24 -25 -26 -27 -28 -29 -30 -31
leaf_value=-0.0061446000688842369 -3.0632569133758365e-05 0.0013516264047939331 -0.0034334934456273915 -0.0011209851672622161 0.0032406910140707623 -0.0039939911958451072 -0.0028644549619892372 0.0027163291019537757 0.00081892041623807298 0.0041343420588721832 -0.0011312696631648577 0.00011609590938961548 -0.0020271433826090524 0.0033065482601523401 0.00016526556544394747 0.00056375686355750079 0.0049912070126637174 0.0014913125862849172 -0.0026788075599405502 -0.0025873090648515663 -0.0022263028399377572 0.0042711433691856194 0.0032469393122334816 -0.0029729796649546041 0.0038458378075860271 -0.0004316059264099403 0.0010850868335304162 -0.0017681700782850385 0.0038332089160879458 0.00059951871477427303
leaf_weight=28 41 20 40 26 32 24 23 31 39 24 20 27 46 20 47 20 23 29 45 44 61 39 43 49 43 21 30 20 24 22
leaf_count=28 41 20 40 26 32 24 23 31 39 24 20 27 46 20 47 20 23 29 45 44 61 39 43 49 43 21 30 20 24 22
internal_value=0 0.00227205 -0.00247533 -0.0021455 0.00354065 -0.00515201 -0.00250094 0.00266869 0.000608398 0.00394048 -0.00218115 -0.000473983 -0.00175567 0.00375807 0.000397054 0.000544409 0.00455366 0.00110568 -0.00301166 -0.00237089 -0.00228008 0.00388947 0.00302466 -0.00317995 0.00404812 -0.000123524 0.000876555 -0.00211318 0.00359382 0.000303723
internal_weight=0 527 474 422 299 52 348 94 228 205 214 74 66 158 160 119 47 68 134 148 125 126 74 89 82 48 50 81 44 69
internal_count=1001 527 474 422 299 52 348 94 228 205 214 74 66 158 160 119 47 68 134 148 125 126 74 89 82 48 50 81 44 69
is_linear=0
shrinkage=0.05


Tree=28
num_leaves=31
num_cat=0
split_feature=12 12 12 12 9 12 8 4 5 15 12 12 21 2 16 3 21 16 9 10 8 0 1 2 1 8 18 5 17 21
split_gain=2.03091 0.375347 0.161511 0.0805246 0.0642852 0.0376573 0.022209 0.00878785 0.00825093 0.007613 0.007211 0.00496201 0.00418804 0.00383779 0.00383442 0.00296096 0.00278228 0.00274727 0.00256876 0.00218157 0.00317076 0.00205983 0.00158652 0.00155756 0.00143273 0.00114537 0.000989498 0.00093699 0.000910339 0.000875375
threshold=4.4042802003828232 4.5261589176306751 4.1758021013166253 4.2946215748527692 4.0481500000000006 4.6736630972842832 -0.0074480282167650519 0.72610419984419095 48.303679933253029 -0.66890889479817262 4.2244891939508129 4.1267665417437591 5.5000000000000009 0.75419698296741455 4.7713873811044758 -0.63290616735702787 10.500000000000002 4.2450264592019487 4.4755714285714303 4.6126678571428581 0.0069679715363251396 0.021243532060888363 -0.18162007481718476 -1.2184008037295522 -0.26774722039548665 0.0064788566653547234 0.035079368067993631 46.077873829571722 4.413775168806243 5.5000000000000009
decision_type=2 2 2 2 2 2 2 2 2 2 2 2 2 2 2 2 2 2 2 2 2 2 2 2 2 2 2 2 2 2
left_child=2 8 4 10 -1 6 -3 16 23 -5 15 -6 -12 18 -9 -4 27 -17 28 20 -8 -21 -13 -2 -14 29 -25 -7 -10 -11
right_child=1 5 3 9 11 7 19 14 13 25 12 22 24 -15 -16 17 -18 -19 -20 21 -22 -23 -24 26 -26 -27 -28 -29 -30 -31
leaf_value=-0.0058373701359544488 -0.00014450523753032978 0.0012048481253995784 -0.0029224843318973268 -0.0012482695456128567 -0.0036790314240052421 0.0035215626232499297 0.00228420915525584 0.0039148719331552817 0.00046717781921776398 -0.00022399105037038681 -0.001295415273246666 -0.0033149500013045642 -0.002348404576111099 0.0014098476904910058 0.004625416831935153 -0.0023885820992290974 0.0030737949839721506 -0.0017735784852861384 0.0010898554737008559 0.0028876600578298856 0.0031638770271092652 0.0034786123782396317 -0.0028265312120007973 0.00017721165058901534 -0.0018820493060549529 -0.00040765718067996206 0.00062553260941058399 0.0038788838777691127 0.00084491636688736351 0.00022830445693967783
leaf_weight=28 23 21 21 20 34 43 21 43 58 20 27 23 23 25 34 104 26 22 34 29 20 30 60 32 58 25 20 32 22 23
leaf_count=28 23 21 21 20 34 43 21 43 58 20 27 23 23 25 34 104 26 22 34 29 20 30 60 32 58 25 20 32 22 23
internal_value=0 0.00221943 -0.00228628 -0.00169486 -0.0036853 0.00336362 0.00268304 0.00382626 0.000620764 -0.000390746 -0.00214491 -0.00317028 -0.00183471 0.000848818 0.00422862 -0.00237281 0.00351951 -0.0022812 0.000725786 0.00299346 0.00271332 0.00318814 -0.00296188 0.000198104 -0.00201447 -0.000138533 0.000349643 0.00367402 0.000571056 1.79345e-05
internal_weight=0 513 488 343 145 299 121 178 214 88 255 117 108 139 77 147 101 126 114 100 41 59 83 75 81 68 52 75 80 43
internal_count=1001 513 488 343 145 299 121 178 214 88 255 117 108 139 77 147 101 126 114 100 41 59 83 75 81 68 52 75 80 43
is_linear=0
shrinkage=0.05


Tree=29
num_leaves=31
num_cat=0
split_feature=12 12 12 12 12 12 12 3 21 15 5 14 14 14 2 5 1 1 9 7 2 16 16 13 2 16 17 6 9 18
split_gain=1.83296 0.330331 0.151249 0.0952339 0.0340978 0.0307271 0.0154243 0.0135747 0.0103078 0.00907863 0.00810666 0.0038679 0.00324415 0.00288119 0.00264145 0.00255394 0.00233844 0.00232943 0.0021675 0.00187251 0.00172587 0.00155975 0.00153362 0.00145456 0.0014057 0.0013422 0.00128817 0.00128124 0.000907581 0.000893021
threshold=4.4068537229844029 4.5261589176306751 4.2302521556910353 4.0577306947430474 4.6598881815061723 4.3409759592512387 4.1758021013166253 -1.6646900077654179 4.5000000000000009 0.22036304466259135 48.303679933253029 0.42861547019272345 -0.40847369549780105 -0.041842440864563825 -0.57044113629954862 52.245059751332356 -0.54696706047561705 0.49729329164983632 4.6883214285714292 0.00091910071739131091 0.32474601402884279 4.2519098478990776 4.5175128601995169 4.1411379372236343 -1.2184008037295522 4.2785473878242755 4.4158086637993277 0.0019178063175937512 4.6228928571428582 0.035079368067993631
decision_type=2 2 2 2 2 2 2 2 2 2 2 2 2 2 2 2 2 2 2 2 2 2 2 2 2 2 2 2 2 2
left_child=2 10 3 -1 7 9 13 -3 20 16 24 22 -10 23 -8 -7 -4 28 -14 -20 -6 27 26 -5 -2 -18 -12 -16 -9 -26
right_child=1 4 5 6 8 15 14 17 12 -11 11 -13 18 -15 21 -17 25 -19 19 -21 -22 -23 -24 -25 29 -27 -28 -29 -30 -31
leaf_value=-0.0053378815000707453 -0.0001372799692984225 0.0012511477743100841 -0.0023702364182099701 -0.0034593066585988834 0.0038699163728066394 -0.00063293852823941661 -0.0027491856040433049 0.0022704385631229906 0.0027305871446151285 -0.000932956047470086 0.00048165614061024639 0.0013848982523016345 0.003146715243549451 -0.0027062280523490962 -0.0023505725655449581 -9.3831332518535564e-06 -0.0019977083988487721 0.0031120346486568453 0.0033199597977929644 0.0038170179817825557 0.004401481452469643 -0.0018080130952073199 0.0011008222946838943 -0.0029493313420701911 0.00016835106579833338 -0.0014184425317216665 0.00088863607232834226 -0.0020275965262696429 0.0027052711728694188 0.00059425597079098235
leaf_weight=33 23 20 20 29 37 24 20 21 20 37 59 26 46 56 73 52 20 25 36 40 26 29 20 27 32 20 29 53 28 20
leaf_count=33 23 20 20 29 37 24 20 21 20 37 59 26 46 56 73 52 20 25 36 40 26 29 20 27 32 20 29 53 28 20
internal_value=0 0.00212945 -0.0021502 -0.00279413 0.00319544 -0.000959107 -0.00250164 0.00240692 0.003557 -0.00154894 0.000604435 0.000837403 0.00332084 -0.00295983 -0.0022084 -0.000206295 -0.0019288 0.00271929 0.00341761 0.00358157 0.00408929 -0.00213862 0.000705598 -0.00321343 0.000188199 -0.00170808 0.000615775 -0.00221472 0.00251891 0.000332161
internal_weight=0 508 493 320 299 173 287 94 205 97 209 134 142 112 175 76 60 74 122 76 63 155 108 56 75 40 88 126 49 52
internal_count=1001 508 493 320 299 173 287 94 205 97 209 134 142 112 175 76 60 74 122 76 63 155 108 56 75 40 88 126 49 52
is_linear=0
shrinkage=0.05


Tree=30
num_leaves=31
num_cat=0
split_feature=12 12 12 9 14 12 12 2 5 4 12 12 14 1 14 12 11 1 21 10 21 8 13 3 3 15 8 1 6 12
split_gain=1.5268 0.303037 0.139079 0.0871821 0.0363909 0.0204359 0.0185404 0.0165149 0.00800438 0.00499503 0.00417918 0.00391524 0.00343632 0.0033485 0.00310561 0.00297693 0.00279728 0.0021373 0.00211411 0.0020625 0.00195313 0.00157519 0.00156709 0.00156701 0.00154167 0.00152708 0.00163729 0.00118559 0.00103536 0.000874122
threshold=4.4068537229844029 4.5261589176306751 4.2551792147234559 4.0568214285714292 -0.73373508326541015 4.1847974540415613 4.6710568697592052 -0.86330195145865585 57.052656808478027 0.72610419984419095 4.3522546721063584 4.1396205142216012 0.47044656737579288 0.47604349405921959 0.12453863734701921 4.7471092102510184 4.237141666666667 -0.25347323231759139 5.5000000000000009 4.6087964285714298 3.5000000000000004 -0.0027529096973913174 4.2214964783485813 0.37707939054572043 1.4195458924775697 1.0000000180025095e-35 0.00147199871031607 0.26412132510865721 -0.0054735983858242845 4.1553084670704203
decision_type=2 2 2 2 2 2 2 2 2 2 2 2 2 2 2 2 2 2 2 2 2 2 2 2 2 2 2 2 2 2
left_child=2 8 3 -1 -3 11 19 -4 25 18 13 -5 20 -9 21 27 -16 -13 -8 24 -10 -7 -23 -12 -6 -2 -27 -11 -20 -19
right_child=1 4 7 5 6 14 9 10 12 15 23 17 -14 -15 16 -17 -18 29 28 -21 -22 22 -24 -25 -26 26 -28 -29 -30 -31
leaf_value=-0.0050916334164553684 0.00014977123583472955 0.0009976116340840236 -0.0017353793219663204 -0.0031432229752947649 0.0021374317891895769 -0.0024581346618519589 0.0036010716285090894 -0.00093814023041914249 0.0011451937180633346 0.003344609946585619 -0.00023836371515812972 -0.0029942527320235969 0.0014304513177985033 -0.00011823926543002017 -0.0018666750774718821 0.0042078147456049916 -0.0011790169430674897 -0.0026360610422367856 0.0033055308585365618 0.0028762064104818782 0.0005797656435009101 -0.0021538358473622088 -0.0017817780356474068 0.00029610149273745869 0.0027185500865536082 0.00085375468013808124 0.00022868025209225545 0.0038497251857604296 0.0028901282069273295 -0.0022506230121316071
leaf_weight=29 75 20 25 41 25 22 32 33 21 26 32 20 23 20 50 30 21 24 30 46 56 67 49 24 21 20 22 21 30 38
leaf_count=29 75 20 25 41 25 22 32 33 21 26 32 20 23 20 50 30 21 24 30 46 56 67 49 24 21 20 22 21 30 38
internal_value=0 0.00196924 -0.00195196 -0.00246258 0.00305312 -0.00223293 0.00321063 -0.000576337 0.000565692 0.00352155 -0.000310501 -0.00274428 0.000894163 -0.000628744 -0.00193199 0.00381868 -0.00166328 -0.00254481 0.00327287 0.00263947 0.000733973 -0.00207024 -0.00199667 -9.3072e-06 0.00240272 0.000284948 0.000526335 0.0035703 0.00309783 -0.00239982
internal_weight=0 498 495 361 281 332 261 134 217 169 109 123 100 53 209 77 71 82 92 92 77 138 116 56 46 117 42 47 60 62
internal_count=993 498 495 361 281 332 261 134 217 169 109 123 100 53 209 77 71 82 92 92 77 138 116 56 46 117 42 47 60 62
is_linear=0
shrinkage=0.05


Tree=31
num_leaves=31
num_cat=0
split_feature=12 12 12 9 14 12 12 2 5 12 9 12 14 13 3 14 14 1 12 17 11 15 8 12 2 5 13 8 8 7
split_gain=1.37794 0.273491 0.125518 0.0786818 0.03292 0.0184434 0.0178835 0.0149047 0.00722395 0.00478269 0.00388092 0.00355636 0.00310128 0.00305778 0.0028822 0.00287476 0.00243775 0.00187776 0.00179748 0.00178725 0.00145447 0.00137819 0.00147766 0.00113571 0.00107322 0.00104242 0.000802551 0.000754027 0.000720887 0.000717727
threshold=4.4068537229844029 4.5261589176306751 4.2551792147234559 4.0568214285714292 -0.67632048901485298 4.1847974540415613 4.6843187218477613 -0.86330195145865585 57.052656808478027 4.7471092102510184 4.316592857142858 4.133480061375808 0.47044656737579288 4.630113027815022 0.35671156538089616 0.27805370716788375 1.0000000180025095e-35 -0.25779897042265126 4.463646580785583 4.1837761413592149 4.2165950000000008 1.0000000180025095e-35 0.00147199871031607 4.1553084670704203 0.76388737350334701 48.303679933253029 4.7147081816870529 -0.0022061503369829772 0.00018147904395597524 -0.030350698773739967
decision_type=2 2 2 2 2 2 2 2 2 2 2 2 2 2 2 2 2 2 2 2 2 2 2 2 2 2 2 2 2 2
left_child=2 8 3 -1 -3 11 13 -4 21 16 -9 -5 18 24 19 28 -8 -13 -10 25 -16 29 -23 -19 -6 -7 -18 -21 -12 -2
right_child=1 4 7 5 6 14 9 10 12 -11 15 17 -14 -15 20 -17 26 23 -20 27 -22 22 -24 -25 -26 -27 -28 -29 -30 -31
leaf_value=-0.0048370517340713542 -9.0288971209108999e-05 0.0010878979015852446 -0.0016486103608040138 -0.0030510666074626373 0.0021700553969518904 -0.0024222746569042405 0.0029958640958400486 -0.00074774208460990906 0.00050426961859054067 0.0039247835910803568 -0.00013493145859229118 -0.0028715348057448864 0.0013589287417151196 0.0028490285262844322 -0.001726768380167949 0.00039928305652990408 0.0033258208738906046 -0.0025480826835959191 0.00099964914727024745 -0.0020702308205806691 -0.0011975259043365009 0.00081106694822665306 0.00021724624225912109 -0.0021426298083940475 0.0026268725330010059 -0.0019833540603999169 0.0037012195990731322 -0.0017434847651441631 -0.00050191451737191528 0.00024515090139734991
leaf_weight=29 23 23 25 33 36 24 47 33 47 37 32 20 23 59 34 21 35 31 30 23 21 20 22 39 20 31 24 76 23 52
leaf_count=29 23 23 25 33 36 24 47 33 47 37 32 20 23 59 34 21 35 31 30 23 21 20 22 39 20 31 24 76 23 52
internal_value=0 0.00187078 -0.00185436 -0.00233945 0.00290046 -0.00212128 0.00306205 -0.00054752 0.000537408 0.00343535 -0.000294976 -0.00260707 0.000849455 0.00259784 -0.00183539 -9.83802e-05 0.00326452 -0.00244426 0.000697275 -0.00194636 -0.00152469 0.0002707 0.000500018 -0.00232219 0.0023332 -0.00217488 0.00347853 -0.0018194 -0.000288397 0.000142283
internal_weight=0 498 495 361 281 332 258 134 217 143 109 123 100 115 209 76 106 90 77 154 55 117 42 70 56 55 59 99 55 75
internal_count=993 498 495 361 281 332 258 134 217 143 109 123 100 115 209 76 106 90 77 154 55 117 42 70 56 55 59 99 55 75
is_linear=0
shrinkage=0.05


Tree=32
num_leaves=31
num_cat=0
split_feature=12 12 12 10 9 12 14 12 14 15 14 0 1 10 12 12 10 14 11 1 3 8 13 14 4 13 16 8 12 13
split_gain=1.24359 0.247918 0.11328 0.0711827 0.0224549 0.0166144 0.0120299 0.0111254 0.00871753 0.00590243 0.00440353 0.003535 0.00329913 0.00472291 0.00328833 0.00318732 0.00301981 0.00262746 0.00240762 0.00175033 0.00150523 0.00133679 0.00127785 0.00106499 0.00103529 0.00094611 0.000765194 0.000752341 0.000732996 0.000697922
threshold=4.4068537229844029 4.6038344451588422 4.2551792147234559 4.0579928571428576 4.5100000000000007 4.1847974540415613 -0.51278687684232405 4.6843187218477613 0.18226575241150633 -0.1424223452778432 -0.35264455877534867 -0.04491865360458646 0.65356460762059376 4.348592857142858 4.7471092102510184 4.1396205142216012 4.4513607142857152 0.12453863734701921 4.237141666666667 -0.25347323231759139 0.98801896894267227 -0.0028650508835675295 4.2214964783485813 0.0034124566575727158 1.3478522110014215 4.4487147224119896 4.6995454719879426 0.00147199871031607 4.160532505266981 4.7147081816870529
decision_type=2 2 2 2 2 2 2 2 2 2 2 2 2 2 2 2 2 2 2 2 2 2 2 2 2 2 2 2 2 2
left_child=2 4 3 -1 9 15 -4 11 -6 25 -9 -3 13 -8 23 -5 20 21 -19 -17 27 -7 -23 -12 -18 -2 -13 -11 -21 -25
right_child=1 7 6 5 8 17 12 10 -10 16 14 26 -14 -15 -16 19 24 18 -20 28 -22 22 -24 29 -26 -27 -28 -29 -30 -31
leaf_value=-0.0045980759478848558 0.00024283306350897455 0.0020828763030294795 -0.0014419135479589128 -0.0028359864179680989 0.0008629900347295916 -0.0022381047008647806 -0.00092485432105604559 0.0025219425851537381 0.0022106368622432154 0.00051385587608415836 0.0029744421341456476 0.0025900117587298157 0.00017787332180887463 -0.00012638096516678595 0.0037500256164507435 -0.002702785674482584 0.00079654464237759583 -0.0016851585442200303 -0.0010471907710390431 -0.0023313148820307108 0.00082452496377906446 -0.0019451225902337361 -0.0016101953896636865 0.0031617957703543435 0.0012409795867279172 -0.00015244252839086888 0.0029730712317607624 0.00017165285886409855 -0.001987297011849781 0.0035161586090301476
leaf_weight=29 41 32 28 41 20 21 31 20 30 36 40 32 29 46 33 20 38 50 21 32 24 68 49 33 20 24 22 29 30 24
leaf_count=29 41 32 28 41 20 21 31 20 30 36 40 32 29 46 33 20 38 50 21 32 24 68 49 33 20 24 22 29 30 24
internal_value=0 0.00177724 -0.00176164 -0.00222247 0.000718435 -0.00201497 -0.000520144 0.00295269 0.00167158 0.000493638 0.00321263 0.0024993 -0.000276657 -0.000447844 0.00331889 -0.00247603 0.000669072 -0.00174362 -0.00149646 -0.00229606 0.000486127 -0.00187078 -0.00180485 0.00317221 0.000949798 9.68852e-05 0.00274607 0.000361181 -0.00216485 0.003311
internal_weight=0 498 495 361 262 332 134 236 50 212 150 86 106 77 130 123 147 209 71 82 89 138 117 97 58 65 54 65 62 57
internal_count=993 498 495 361 262 332 134 236 50 212 150 86 106 77 130 123 147 209 71 82 89 138 117 97 58 65 54 65 62 57
is_linear=0
shrinkage=0.05


Tree=33
num_leaves=31
num_cat=0
split_feature=12 12 12 9 9 12 14 1 13 14 5 6 12 3 15 14 11 0 12 1 12 11 20 15 12 0 20 0 4 11
split_gain=1.12234 0.223746 0.102236 0.0644246 0.0202656 0.014962 0.0110478 0.0100701 0.00813326 0.00786757 0.0054965 0.00436807 0.00288491 0.00245761 0.00236426 0.00222115 0.00229927 0.00185923 0.00180296 0.00154556 0.00143194 0.00120534 0.00106393 0.000969622 0.000929125 0.000909292 0.00133958 0.000866551 0.00082575 0.000789003
threshold=4.4068537229844029 4.6038344451588422 4.2551792147234559 4.0568214285714292 4.5100000000000007 4.1847974540415613 -0.57542004129208968 -0.70019984299521931 4.7127979665953594 0.18226575241150633 48.303679933253029 -9.1914010683424849e-05 4.133480061375808 0.35671156538089616 0.40714199177733162 0.56424226253581244 4.4467833333333351 0.11241016284916362 4.6843187218477613 -0.25779897042265126 4.2114304645194656 4.2165950000000008 10.500000000000002 0.48273795694722405 4.1553084670704203 0.11774403102021715 21.500000000000004 0.021243532060888363 1.1189358551336517 4.7069783333333346
decision_type=2 2 2 2 2 2 2 2 2 2 2 2 2 2 2 2 2 2 2 2 2 2 2 2 2 2 2 2 2 2
left_child=2 4 3 -1 10 12 -4 -3 18 -6 -2 22 -5 20 -10 16 28 23 27 -14 -7 -15 -8 -13 -21 26 -22 -9 -12 -20
right_child=1 7 6 5 9 13 11 8 14 -11 15 17 19 21 -16 -17 -18 -19 29 24 25 -23 -24 -25 -26 -27 -28 -29 -30 -31
leaf_value=-0.0043713715890872076 9.8469657228526886e-05 0.0017599961545784028 -0.0015780446474673228 -0.0027513742729118381 0.00081984053627820691 -0.001949741612188518 -0.00037165879988606323 0.0022804476653358768 0.0030976823464568173 0.0021001050093521676 0.00027650653512920347 2.1602745012690622e-06 -0.0025924857892096042 -0.0015534959361128346 0.0036538857388599168 0.0011191556341059153 0.00085763259649379608 0.00036930814341758379 0.0030318267925670654 -0.002298414917482484 -0.0015797815002177075 -0.0010717067091415326 -0.00084245735895819955 -0.00046922592533519495 -0.0019316877823514053 -0.0013856029308114489 -0.0020541530483486978 0.0026304526991831763 0.00060623808249440653 0.0026397784284892538
leaf_weight=29 68 21 20 33 20 60 20 28 56 30 49 24 20 34 29 21 43 20 33 31 46 21 30 20 39 26 22 48 31 21
leaf_count=29 68 21 20 33 20 60 20 28 56 30 49 24 20 34 29 21 43 20 33 31 46 21 30 20 39 26 22 48 31 21
internal_value=0 0.00168838 -0.00167356 -0.00211135 0.000682514 -0.00191394 -0.000494137 0.00280505 0.00290713 0.001588 0.000468956 -0.000303977 -0.00235148 -0.00165644 0.00328745 0.000643907 0.000562767 -3.04142e-05 0.00265846 -0.00220485 -0.00175891 -0.00136954 -0.000654138 -0.000212106 -0.0020941 -0.0016371 -0.00173325 0.0025015 0.000404278 0.00287936
internal_weight=0 498 495 361 262 332 134 236 215 50 212 114 123 209 85 144 123 64 130 90 154 55 50 44 70 94 68 76 80 54
internal_count=993 498 495 361 262 332 134 236 215 50 212 114 123 209 85 144 123 64 130 90 154 55 50 44 70 94 68 76 80 54
is_linear=0
shrinkage=0.05


Tree=34
num_leaves=31
num_cat=0
split_feature=12 12 9 14 12 12 9 14 14 9 12 21 12 1 10 15 14 17 1 10 8 11 3 14 2 15 10 16 3 21
split_gain=1.01347 0.260448 0.068437 0.0262895 0.0218414 0.0122311 0.010508 0.00923717 0.00808327 0.00699497 0.00596842 0.00369242 0.00384828 0.00357173 0.00552653 0.00310843 0.00155274 0.0015396 0.00152967 0.00135458 0.00126973 0.00172193 0.00117105 0.00116555 0.0011123 0.00109555 0.00108039 0.00103554 0.000863042 0.000847737
threshold=4.3522546721063584 4.5261589176306751 4.117928571428572 -0.73373508326541015 4.2302521556910353 4.6710568697592052 4.0481500000000006 0.65583810436669276 0.54278303780370296 4.4285000000000005 4.1847974540415613 10.500000000000002 4.7471092102510184 -0.6256092431800474 4.2671464285714293 -0.1424223452778432 -0.30155550543566984 4.4080805719092693 -0.18162007481718476 4.6087964285714298 -0.0029462949104457916 4.2268150000000011 1.4195458924775697 0.31453709182455208 0.36008799841736888 0.027718042865031964 4.1623071428571432 4.4667544960800809 0.20501886397636951 2.5000000000000004
decision_type=2 2 2 2 2 2 2 2 2 2 2 2 2 2 2 2 2 2 2 2 2 2 2 2 2 2 2 2 2 2
left_child=2 7 6 -3 10 19 -1 9 13 16 18 12 23 -6 25 -11 -2 24 -4 22 -12 29 -5 -7 -17 -15 -20 -18 -19 -22
right_child=1 3 4 5 8 11 -8 -9 -10 15 20 -13 -14 14 -16 17 27 28 26 -21 21 -23 -24 -25 -26 -27 -28 -29 -30 -31
